svm_type c_svc
kernel_type polynomial
degree 3
gamma 1
coef0 1
nr_class 2
total_sv 15120
rho -6.9528355352135653
label 0 1
nr_sv 7779 7341
SV
10 1:-0.19218703 2:1.5209406 3:0.0099651326 4:-0.04693933 5:-0.069130207 
10 1:-0.19218703 2:1.5209406 3:0.020629315 4:-0.10591116 5:-0.069130207 
10 1:-0.19218703 2:0.019097756 3:1.7109023 4:-0.10591116 5:-0.069130207 
10 1:-0.19218703 2:2.2373221 3:-0.20331852 4:-0.10591116 5:-0.0076664705 
10 1:-1.2844499 2:0.85317059 3:0.43386639 4:-0.10591116 5:0.023065398 
10 1:-0.19218703 2:0.28518234 3:-0.15799574 4:0.188948 5:-0.069130207 
10 1:-0.19218703 2:4.002691 3:-0.16599388 4:-0.10591116 5:-0.069130207 
10 1:-0.19218703 2:2.2373221 3:-0.20331852 4:-0.10591116 5:-0.069130207 
10 1:0.90007586 2:-0.28280591 3:-0.19798643 4:0.12997617 5:-0.069130207 
10 1:0.90007586 2:-0.28280591 3:-0.20331852 4:0.012032502 5:-0.069130207 
10 1:-0.19218703 2:0.28518234 3:0.36454921 4:-0.10591116 5:-0.038398339 
10 1:0.90007586 2:0.13423051 3:-0.19532038 4:0.12997617 5:-0.069130207 
10 1:0.90007586 2:0.28518234 3:0.95907739 4:1.1914692 5:-0.069130207 
8.3991090167607769 1:0.90007586 2:0.13423051 3:-0.19532038 4:0.12997617 5:-0.069130207 
10 1:0.90007586 2:0.28518234 3:0.95907739 4:1.1914692 5:-0.069130207 
9.9225651938505699 1:0.90007586 2:0.28518234 3:-0.19265434 4:0.071004335 5:-0.069130207 
3.0900578861024361 1:-1.2844499 2:0.85317059 3:-0.19798643 4:-0.04693933 5:-0.069130207 
2.235163725276438 1:0.90007586 2:0.24424625 3:-0.20598457 4:-0.10591116 5:-0.069130207 
10 1:-1.2844499 2:0.85317059 3:0.2125846 4:-0.10591116 5:-0.069130207 
10 1:0.90007586 2:0.029331779 3:-0.20598457 4:-0.10591116 5:-0.069130207 
10 1:-0.19218703 2:1.3725472 3:0.052621863 4:-0.10591116 5:0.023065398 
8.017854286826795 1:-0.19218703 2:-0.27257189 3:-0.12067111 4:0.542779 5:-0.069130207 
7.6098210147127308 1:-0.19218703 2:-0.21372626 3:-0.20331852 4:0.012032502 5:-0.069130207 
10 1:-0.19218703 2:-0.2341943 3:-0.15799574 4:0.60175083 5:-0.069130207 
10 1:-0.19218703 2:-0.28280591 3:0.31389434 4:0.66072266 5:-0.069130207 
10 1:-0.19218703 2:2.2373221 3:-0.18199016 4:-0.10591116 5:-0.069130207 
6.0301493423677854 1:0.90007586 2:0.05235833 3:-0.20598457 4:-0.10591116 5:-0.069130207 
10 1:-0.19218703 2:2.2373221 3:-0.20331852 4:-0.10591116 5:-0.069130207 
10 1:-0.19218703 2:0.12655499 3:-0.20598457 4:-0.10591116 5:-0.038398339 
10 1:-0.19218703 2:-0.052540401 3:-0.20598457 4:-0.04693933 5:-0.038398339 
10 1:-0.19218703 2:1.0783191 3:0.10327673 4:-0.10591116 5:-0.069130207 
0.26772848107253266 1:0.90007586 2:-0.2776889 3:0.46852499 4:1.4863283 5:-0.038398339 
2.4420974651310603 1:-1.2844499 2:0.85317059 3:-0.12866924 4:0.60175083 5:-0.069130207 
10 1:-1.2844499 2:-0.27257189 3:-0.17665806 4:0.3658635 5:-0.069130207 
10 1:-1.2844499 2:0.85317059 3:0.43386639 4:-0.10591116 5:-0.069130207 
10 1:-0.19218703 2:-0.19325821 3:-0.12067111 4:0.542779 5:-0.069130207 
10 1:-0.19218703 2:0.28518234 3:-0.15799574 4:0.60175083 5:-0.069130207 
9.9414319978176469 1:0.90007586 2:-0.2776889 3:0.46852499 4:1.4863283 5:-0.038398339 
10 1:0.90007586 2:0.41822464 3:-0.0033650958 4:1.0145537 5:1.037217 
10 1:-1.2844499 2:-0.27257189 3:-0.17665806 4:0.3658635 5:-0.069130207 
10 1:-0.19218703 2:-0.19325821 3:-0.12067111 4:0.542779 5:-0.038398339 
10 1:-0.19218703 2:0.28518234 3:-0.15799574 4:0.60175083 5:-0.038398339 
10 1:-1.2844499 2:0.85317059 3:1.1297043 4:0.30689167 5:-0.038398339 
10 1:-1.2844499 2:0.85317059 3:0.43386639 4:-0.10591116 5:0.023065398 
10 1:-1.2844499 2:0.85317059 3:-0.13666738 4:1.1324973 5:-0.069130207 
10 1:-1.2844499 2:-0.28280591 3:-0.043355781 4:0.012032502 5:-0.069130207 
10 1:-1.2844499 2:-0.28280591 3:-0.043355781 4:0.012032502 5:-0.069130207 
10 1:-1.2844499 2:0.16493258 3:-0.19265434 4:-0.10591116 5:-0.069130207 
10 1:-1.2844499 2:-0.28280591 3:-0.1553297 4:-0.10591116 5:-0.069130207 
10 1:-1.2844499 2:8.2805124 3:-0.20331852 4:-0.10591116 5:-0.069130207 
10 1:-1.2844499 2:0.30309188 3:-0.20598457 4:-0.10591116 5:-0.069130207 
10 1:-1.2844499 2:3.3528306 3:9.3624533 4:-0.10591116 5:-0.069130207 
10 1:-0.19218703 2:0.019097756 3:1.7109023 4:-0.10591116 5:-0.069130207 
10 1:-0.19218703 2:2.2373221 3:-0.20598457 4:-0.10591116 5:-0.038398339 
10 1:-0.19218703 2:0.28518234 3:0.21791669 4:-0.04693933 5:-0.069130207 
10 1:-1.2844499 2:0.95806932 3:-0.20331852 4:-0.10591116 5:-0.069130207 
10 1:-0.19218703 2:-0.026955345 3:-0.16599388 4:-0.10591116 5:0.053797266 
10 1:-0.19218703 2:0.016539251 3:-0.19265434 4:-0.10591116 5:-0.0076664705 
10 1:-0.19218703 2:1.4595364 3:-0.1553297 4:-0.10591116 5:-0.038398339 
10 1:-1.2844499 2:0.29797487 3:-0.20598457 4:-0.10591116 5:-0.069130207 
10 1:-1.2844499 2:0.85317059 3:-0.00069905009 4:1.7222156 5:-0.069130207 
10 1:-0.19218703 2:-0.2776889 3:-0.18199016 4:0.24791983 5:0.20745661 
10 1:-0.19218703 2:-0.28280591 3:-0.16332784 4:0.83763816 5:0.084529134 
10 1:-0.19218703 2:-0.28280591 3:-0.16865993 4:0.77866633 5:0.36111595 
10 1:-1.2844499 2:0.35426199 3:-0.20331852 4:-0.10591116 5:-0.069130207 
10 1:-1.2844499 2:2.7566988 3:-0.20598457 4:-0.10591116 5:-0.069130207 
10 1:-1.2844499 2:0.85317059 3:-0.20331852 4:0.012032502 5:-0.069130207 
10 1:-0.19218703 2:-0.2802474 3:0.041957681 4:0.12997617 5:0.17672474 
10 1:-1.2844499 2:0.31844292 3:5.5686704 4:-0.10591116 5:-0.069130207 
10 1:-1.2844499 2:0.28774085 3:-0.20598457 4:-0.04693933 5:-0.069130207 
10 1:-0.19218703 2:0.28518234 3:0.38587757 4:-0.10591116 5:-0.069130207 
10 1:-1.2844499 2:2.7566988 3:8.8079158 4:0.24791983 5:2.5738105 
0.6622405965032363 1:-1.2844499 2:0.85317059 3:-0.19798643 4:-0.10591116 5:-0.069130207 
10 1:-1.2844499 2:8.2805124 3:-0.20598457 4:-0.10591116 5:-0.069130207 
10 1:-1.2844499 2:0.29029935 3:-0.20331852 4:-0.10591116 5:-0.069130207 
10 1:-0.19218703 2:1.5209406 3:0.0099651326 4:-0.10591116 5:0.14599287 
10 1:-0.19218703 2:4.0001325 3:-0.20331852 4:-0.10591116 5:-0.069130207 
10 1:-0.19218703 2:3.997574 3:-0.20598457 4:-0.10591116 5:-0.069130207 
10 1:-1.2844499 2:0.0063052282 3:-0.1553297 4:-0.10591116 5:-0.069130207 
10 1:-0.19218703 2:4.0001325 3:-0.20331852 4:-0.10591116 5:-0.069130207 
10 1:-0.19218703 2:3.997574 3:-0.20598457 4:-0.10591116 5:-0.069130207 
4.0448057231287278 1:-0.19218703 2:1.937977 3:-0.18998829 4:-0.10591116 5:-0.069130207 
10 1:-0.19218703 2:1.937977 3:-0.18998829 4:-0.10591116 5:-0.069130207 
10 1:-1.2844499 2:0.85317059 3:0.61249145 4:-0.10591116 5:-0.069130207 
10 1:-0.19218703 2:1.937977 3:-0.18998829 4:-0.10591116 5:-0.069130207 
10 1:-0.19218703 2:-0.26489637 3:0.83377324 4:0.542779 5:-0.069130207 
10 1:-0.19218703 2:1.937977 3:-0.18998829 4:-0.10591116 5:-0.069130207 
0.27637317920681254 1:0.90007586 2:0.89410668 3:0.0099651326 4:-0.10591116 5:-0.069130207 
10 1:-0.19218703 2:1.5107065 3:0.36454921 4:0.30689167 5:-0.069130207 
10 1:-1.2844499 2:2.7566988 3:-0.18998829 4:-0.10591116 5:-0.069130207 
10 1:-1.2844499 2:0.95806932 3:-0.20331852 4:-0.10591116 5:-0.069130207 
10 1:-0.19218703 2:1.5209406 3:0.020629315 4:-0.10591116 5:0.23818848 
10 1:-0.19218703 2:1.1729838 3:-0.11000692 4:-0.10591116 5:-0.038398339 
10 1:-0.19218703 2:1.937977 3:-0.18998829 4:-0.10591116 5:-0.069130207 
10 1:-1.2844499 2:0.85317059 3:0.61249145 4:-0.10591116 5:-0.069130207 
10 1:-1.2844499 2:8.2805124 3:-0.20331852 4:-0.10591116 5:-0.069130207 
2.051543719995871 1:-1.2844499 2:0.32867694 3:-0.18199016 4:-0.10591116 5:-0.069130207 
10 1:-1.2844499 2:0.30309188 3:-0.20598457 4:-0.10591116 5:-0.069130207 
10 1:-1.2844499 2:0.0063052282 3:-0.1553297 4:-0.10591116 5:-0.069130207 
10 1:-1.2844499 2:0.85317059 3:-0.19798643 4:-0.10591116 5:-0.069130207 
10 1:-0.19218703 2:0.019097756 3:1.7109023 4:-0.10591116 5:-0.069130207 
10 1:0.90007586 2:-0.22140177 3:0.21791669 4:8.2680891 5:-0.038398339 
10 1:-0.19218703 2:1.8663388 3:0.11927301 4:0.188948 5:0.23818848 
10 1:-1.2844499 2:0.85317059 3:-0.19532038 4:0.12997617 5:-0.069130207 
8.1380718303920041 1:-0.19218703 2:0.28518234 3:-0.16332784 4:0.012032502 5:-0.069130207 
10 1:-0.19218703 2:-0.26489637 3:0.83377324 4:8.6808919 5:-0.069130207 
10 1:-0.19218703 2:0.28518234 3:0.21791669 4:-0.10591116 5:-0.069130207 
10 1:-0.19218703 2:4.0052495 3:-0.20598457 4:-0.10591116 5:-0.069130207 
10 1:-0.19218703 2:4.007808 3:-0.20598457 4:-0.10591116 5:-0.069130207 
10 1:-1.2844499 2:0.95806932 3:-0.20331852 4:-0.10591116 5:-0.069130207 
10 1:-0.19218703 2:-0.037189368 3:-0.16599388 4:-0.10591116 5:0.053797266 
10 1:-0.19218703 2:-0.28280591 3:0.041957681 4:-0.10591116 5:0.39184782 
10 1:0.90007586 2:-0.24442832 3:0.025961407 4:0.95558182 5:0.88355771 
10 1:-1.2844499 2:8.2805124 3:-0.20598457 4:-0.10591116 5:-0.069130207 
10 1:-0.19218703 2:1.8663388 3:0.11927301 4:0.188948 5:0.23818848 
10 1:-1.2844499 2:0.85317059 3:-0.035357644 4:-0.10591116 5:0.053797266 
10 1:-0.19218703 2:0.28774085 3:-0.20065248 4:-0.10591116 5:-0.0076664705 
10 1:0.90007586 2:0.29285786 3:1.2630066 4:0.012032502 5:-0.069130207 
10 1:-1.2844499 2:0.85317059 3:-0.12333715 4:0.30689167 5:-0.038398339 
10 1:-1.2844499 2:8.2805124 3:-0.20598457 4:-0.10591116 5:-0.069130207 
10 1:-1.2844499 2:0.85317059 3:1.1297043 4:-0.10591116 5:0.51477529 
10 1:0.90007586 2:-0.28280591 3:-0.19798643 4:0.12997617 5:-0.069130207 
10 1:0.90007586 2:-0.28280591 3:-0.19798643 4:0.12997617 5:-0.069130207 
10 1:-1.2844499 2:0.29797487 3:-0.20598457 4:-0.10591116 5:-0.069130207 
10 1:-1.2844499 2:0.29797487 3:-0.20598457 4:-0.10591116 5:-0.069130207 
10 1:-1.2844499 2:0.33123544 3:-0.20598457 4:-0.10591116 5:-0.069130207 
10 1:-1.2844499 2:2.7566988 3:-0.08068042 4:-0.10591116 5:-0.069130207 
10 1:-1.2844499 2:0.22633671 3:0.073950229 4:-0.10591116 5:-0.069130207 
10 1:-1.2844499 2:0.27750683 3:3.2971994 4:-0.10591116 5:-0.069130207 
10 1:-1.2844499 2:0.27750683 3:3.2971994 4:-0.10591116 5:-0.069130207 
10 1:-1.2844499 2:-0.10371051 3:0.61249145 4:-0.10591116 5:3.6801577 
10 1:-1.2844499 2:0.27750683 3:3.2971994 4:-0.10591116 5:-0.069130207 
10 1:-1.2844499 2:-0.075566952 3:7.7201692 4:4.081089 5:-0.069130207 
10 1:-1.2844499 2:-0.0064872999 3:9.3624533 4:-0.10591116 5:-0.069130207 
10 1:-1.2844499 2:-0.13185408 3:2.9026247 4:0.071004335 5:-0.069130207 
10 1:-1.2844499 2:0.19051763 3:1.2630066 4:0.42483533 5:-0.069130207 
10 1:-1.2844499 2:0.27750683 3:3.2971994 4:-0.10591116 5:-0.069130207 
10 1:-1.2844499 2:8.2805124 3:-0.20598457 4:-0.10591116 5:-0.069130207 
10 1:-1.2844499 2:0.16493258 3:-0.17132597 4:0.542779 5:-0.069130207 
10 1:-1.2844499 2:0.067709363 3:0.057953955 4:-0.10591116 5:-0.069130207 
0.036797258563609263 1:-1.2844499 2:-0.2776889 3:-0.01936137 4:0.60175083 5:-0.069130207 
10 1:-1.2844499 2:2.7566988 3:-0.08068042 4:-0.10591116 5:-0.069130207 
10 1:-1.2844499 2:0.16237407 3:-0.043355781 4:0.12997617 5:-0.069130207 
10 1:-0.19218703 2:-0.0013702887 3:-0.17665806 4:0.42483533 5:-0.069130207 
10 1:-1.2844499 2:1.1218137 3:2.9026247 4:-0.10591116 5:-0.069130207 
10 1:0.90007586 2:-0.28280591 3:-0.19798643 4:0.12997617 5:-0.069130207 
10 1:-1.2844499 2:8.2805124 3:-0.12866924 4:-0.10591116 5:-0.069130207 
10 1:-1.2844499 2:8.2805124 3:-0.12866924 4:-0.10591116 5:-0.069130207 
10 1:-1.2844499 2:-0.28280591 3:-0.14733156 4:-0.10591116 5:-0.069130207 
10 1:0.90007586 2:2.5980714 3:-0.1846562 4:-0.10591116 5:-0.038398339 
10 1:-1.2844499 2:0.85317059 3:0.43386639 4:-0.10591116 5:-0.069130207 
10 1:-1.2844499 2:8.2805124 3:-0.11800506 4:-0.10591116 5:-0.038398339 
10 1:-1.2844499 2:8.2805124 3:-0.1846562 4:-0.10591116 5:0.053797266 
10 1:-1.2844499 2:-0.04742339 3:3.3505204 4:-0.10591116 5:-0.069130207 
10 1:-1.2844499 2:-0.04742339 3:3.3505204 4:-0.10591116 5:-0.069130207 
10 1:-0.19218703 2:0.28518234 3:0.21791669 4:0.012032502 5:-0.069130207 
10 1:-1.2844499 2:-0.18558269 3:2.9026247 4:-0.10591116 5:-0.069130207 
10 1:-1.2844499 2:-0.2802474 3:4.4622614 4:-0.10591116 5:-0.069130207 
10 1:-1.2844499 2:-0.28280591 3:2.1881244 4:-0.10591116 5:-0.069130207 
0.64917655837737354 1:-1.2844499 2:-0.22140177 3:-0.17665806 4:-0.10591116 5:-0.069130207 
10 1:-1.2844499 2:2.0659023 3:-0.10200879 4:-0.10591116 5:-0.069130207 
10 1:-1.2844499 2:0.36449602 3:-0.19798643 4:-0.10591116 5:-0.069130207 
10 1:-1.2844499 2:8.2805124 3:-0.17932411 4:-0.04693933 5:-0.069130207 
10 1:-1.2844499 2:8.2805124 3:-0.1846562 4:-0.10591116 5:0.053797266 
10 1:-1.2844499 2:0.36449602 3:-0.19798643 4:-0.10591116 5:-0.069130207 
10 1:-1.2844499 2:8.2805124 3:-0.1846562 4:-0.10591116 5:-0.069130207 
5.8512988125630772 1:-1.2844499 2:-0.011604311 3:-0.11800506 4:-0.10591116 5:-0.069130207 
10 1:-1.2844499 2:0.36449602 3:-0.19798643 4:-0.10591116 5:-0.069130207 
10 1:-0.19218703 2:0.28518234 3:0.036625589 4:-0.10591116 5:-0.038398339 
10 1:-1.2844499 2:0.85317059 3:-0.14466552 4:0.42483533 5:-0.069130207 
1.7261788538818796 1:-1.2844499 2:0.85317059 3:-0.14733156 4:0.188948 5:-0.069130207 
10 1:-0.19218703 2:0.28518234 3:0.21791669 4:-0.10591116 5:-0.069130207 
10 1:0.90007586 2:0.41822464 3:-0.0033650958 4:1.0145537 5:1.037217 
10 1:-0.19218703 2:1.4748875 3:-0.15266365 4:0.012032502 5:0.084529134 
10 1:0.90007586 2:-0.28280591 3:0.70047096 4:0.66072266 5:-0.069130207 
10 1:-1.2844499 2:2.7566988 3:-0.20598457 4:-0.10591116 5:-0.069130207 
10 1:-1.2844499 2:0.32867694 3:-0.18199016 4:-0.10591116 5:-0.069130207 
10 1:-1.2844499 2:0.30309188 3:-0.20598457 4:-0.10591116 5:-0.069130207 
10 1:-0.19218703 2:-0.037189368 3:-0.16599388 4:-0.10591116 5:0.053797266 
10 1:-0.19218703 2:-0.28280591 3:0.041957681 4:-0.10591116 5:0.39184782 
10 1:0.90007586 2:0.057475341 3:-0.20598457 4:-0.04693933 5:-0.069130207 
10 1:0.90007586 2:-0.24442832 3:0.025961407 4:0.95558182 5:0.88355771 
10 1:-0.19218703 2:-0.20605074 3:-0.20331852 4:0.012032502 5:-0.069130207 
10 1:-1.2844499 2:8.2805124 3:-0.20598457 4:-0.10591116 5:-0.069130207 
10 1:-1.2844499 2:0.85317059 3:0.23391297 4:-0.10591116 5:-0.069130207 
10 1:-1.2844499 2:-0.13185408 3:3.3505204 4:-0.10591116 5:2.7582017 
10 1:-1.2844499 2:8.2805124 3:-0.20598457 4:-0.10591116 5:-0.069130207 
10 1:0.90007586 2:0.060033847 3:-0.20598457 4:-0.10591116 5:-0.069130207 
10 1:-1.2844499 2:-0.28280591 3:-0.10467483 4:-0.10591116 5:-0.069130207 
10 1:-0.19218703 2:-0.19325821 3:0.11927301 4:0.188948 5:-0.069130207 
10 1:-0.19218703 2:0.28518234 3:0.036625589 4:0.12997617 5:-0.069130207 
10 1:-0.19218703 2:0.28518234 3:-0.12866924 4:0.012032502 5:-0.038398339 
10 1:-0.19218703 2:-0.20605074 3:-0.20331852 4:0.012032502 5:-0.0076664705 
10 1:-1.2844499 2:0.85317059 3:-0.11533901 4:-0.10591116 5:0.084529134 
10 1:-1.2844499 2:-0.28280591 3:4.4622614 4:-0.04693933 5:-0.069130207 
10 1:-0.19218703 2:4.0001325 3:-0.20331852 4:-0.10591116 5:-0.069130207 
10 1:0.90007586 2:-0.24442832 3:5.5686704 4:1.1324973 5:-0.0076664705 
10 1:0.90007586 2:1.1397232 3:0.2125846 4:0.542779 5:-0.069130207 
10 1:-1.2844499 2:2.7566988 3:-0.08068042 4:-0.10591116 5:-0.069130207 
10 1:-0.19218703 2:-0.15743913 3:0.11927301 4:1.5453002 5:-0.069130207 
10 1:-0.19218703 2:0.013980745 3:-0.20598457 4:-0.04693933 5:-0.069130207 
10 1:-0.19218703 2:0.013980745 3:-0.20331852 4:0.012032502 5:-0.069130207 
10 1:-1.2844499 2:2.7566988 3:-0.08068042 4:-0.10591116 5:-0.069130207 
10 1:-0.19218703 2:-0.15743913 3:0.11927301 4:1.5453002 5:-0.069130207 
10 1:-1.2844499 2:-0.13185408 3:3.3505204 4:-0.10591116 5:2.7582017 
10 1:-1.2844499 2:0.85317059 3:1.1297043 4:-0.04693933 5:0.72989837 
10 1:-1.2844499 2:0.85317059 3:4.4622614 4:7.2655679 5:-0.069130207 
10 1:0.90007586 2:-0.28280591 3:-0.19798643 4:0.12997617 5:-0.069130207 
1.3055773408553133 1:0.90007586 2:-0.24442832 3:-0.20598457 4:-0.04693933 5:-0.069130207 
10 1:-0.19218703 2:1.2881165 3:-0.1846562 4:-0.10591116 5:-0.0076664705 
10 1:-0.19218703 2:1.9840301 3:-0.19798643 4:-0.04693933 5:-0.038398339 
10 1:-0.19218703 2:4.002691 3:-0.20598457 4:-0.10591116 5:-0.069130207 
0.44308816600768891 1:-1.2844499 2:-0.08835948 3:1.1350364 4:1.7811875 5:-0.069130207 
10 1:-0.19218703 2:4.002691 3:-0.20598457 4:-0.10591116 5:-0.069130207 
10 1:0.90007586 2:-0.28280591 3:-0.19798643 4:0.12997617 5:-0.069130207 
10 1:-1.2844499 2:0.29797487 3:-0.20598457 4:-0.10591116 5:-0.069130207 
10 1:-1.2844499 2:0.29797487 3:-0.20598457 4:-0.10591116 5:-0.069130207 
10 1:-1.2844499 2:0.85317059 3:0.047289772 4:-0.10591116 5:0.023065398 
10 1:-0.19218703 2:-0.15743913 3:0.11927301 4:1.5453002 5:-0.069130207 
10 1:-0.19218703 2:-0.20605074 3:-0.17665806 4:0.42483533 5:-0.069130207 
10 1:-1.2844499 2:0.85317059 3:0.41253803 4:0.071004335 5:0.51477529 
10 1:-1.2844499 2:8.2805124 3:-0.20598457 4:-0.10591116 5:-0.069130207 
10 1:-1.2844499 2:-0.18558269 3:2.9026247 4:-0.10591116 5:-0.069130207 
10 1:-1.2844499 2:-0.2802474 3:4.4622614 4:-0.10591116 5:-0.069130207 
10 1:-1.2844499 2:-0.011604311 3:1.1350364 4:-0.10591116 5:-0.069130207 
4.4513541619147077 1:-1.2844499 2:-0.28280591 3:0.71380119 4:-0.10591116 5:-0.069130207 
10 1:0.90007586 2:1.1397232 3:0.2125846 4:-0.10591116 5:-0.069130207 
10 1:-0.19218703 2:1.5925787 3:0.38587757 4:-0.10591116 5:-0.069130207 
10 1:-0.19218703 2:1.5209406 3:-0.10200879 4:0.012032502 5:0.23818848 
10 1:0.90007586 2:-0.27513039 3:5.5686704 4:-0.10591116 5:-0.069130207 
10 1:0.90007586 2:-0.27513039 3:5.5686704 4:-0.10591116 5:-0.069130207 
10 1:-1.2844499 2:-0.28280591 3:-0.10467483 4:-0.10591116 5:-0.069130207 
10 1:-0.19218703 2:1.8663388 3:0.11927301 4:-0.04693933 5:-0.069130207 
0.41356591717007429 1:-1.2844499 2:0.85317059 3:-0.096676694 4:1.4863283 5:-0.069130207 
10 1:-0.19218703 2:-0.19325821 3:0.11927301 4:-0.10591116 5:0.23818848 
10 1:-0.19218703 2:0.28518234 3:0.036625589 4:-0.10591116 5:0.88355771 
10 1:-0.19218703 2:-0.21372626 3:-0.1553297 4:0.66072266 5:-0.069130207 
7.4179651067363777 1:0.90007586 2:0.29285786 3:1.2630066 4:-0.10591116 5:-0.069130207 
10 1:-1.2844499 2:0.85317059 3:9.2184869 4:1.8991311 5:0.17672474 
9.2715864402048709 1:0.90007586 2:0.1751666 3:-0.19265434 4:-0.10591116 5:-0.069130207 
10 1:-1.2844499 2:2.7566988 3:8.8079158 4:0.24791983 5:1.3445357 
10 1:-1.2844499 2:8.2805124 3:-0.20598457 4:-0.10591116 5:-0.069130207 
10 1:-0.19218703 2:1.5183821 3:-0.18732225 4:-0.10591116 5:-0.0076664705 
10 1:0.90007586 2:0.29285786 3:1.2630066 4:-0.10591116 5:-0.069130207 
10 1:-1.2844499 2:0.85317059 3:9.2184869 4:1.8991311 5:0.17672474 
10 1:-0.19218703 2:0.28518234 3:0.21791669 4:8.2680891 5:-0.038398339 
10 1:-0.19218703 2:-0.20605074 3:-0.17665806 4:0.42483533 5:-0.069130207 
10 1:-0.19218703 2:-0.15743913 3:0.11927301 4:1.5453002 5:-0.0076664705 
10 1:-1.2844499 2:8.2805124 3:-0.20598457 4:-0.10591116 5:-0.069130207 
10 1:0.90007586 2:1.2395049 3:0.11927301 4:-0.10591116 5:-0.069130207 
10 1:0.90007586 2:0.29285786 3:1.2630066 4:-0.10591116 5:-0.069130207 
10 1:-1.2844499 2:0.85317059 3:9.2184869 4:1.8991311 5:0.17672474 
10 1:-1.2844499 2:8.2805124 3:-0.20598457 4:-0.10591116 5:-0.069130207 
10 1:-0.19218703 2:1.8663388 3:0.11927301 4:-0.10591116 5:0.053797266 
1.7643097989081986 1:-1.2844499 2:0.85317059 3:-0.14999761 4:-0.10591116 5:0.023065398 
10 1:-0.19218703 2:1.8663388 3:0.11927301 4:2.7837086 5:0.23818848 
10 1:-0.19218703 2:1.2574145 3:-0.1553297 4:0.66072266 5:-0.069130207 
10 1:-1.2844499 2:-0.067891435 3:0.95907739 4:0.95558182 5:-0.069130207 
10 1:-0.19218703 2:1.8663388 3:0.11927301 4:2.7837086 5:0.23818848 
10 1:-0.19218703 2:1.2574145 3:-0.1553297 4:0.66072266 5:-0.069130207 
10 1:-0.19218703 2:1.8663388 3:0.11927301 4:-0.10591116 5:-0.069130207 
4.8684090402941713 1:-0.19218703 2:0.28518234 3:-0.12067111 4:0.012032502 5:-0.069130207 
10 1:-1.2844499 2:8.2805124 3:-0.20598457 4:-0.10591116 5:-0.069130207 
10 1:-1.2844499 2:0.16493258 3:-0.17132597 4:0.542779 5:-0.038398339 
10 1:0.90007586 2:1.2395049 3:0.11927301 4:-0.10591116 5:-0.069130207 
10 1:0.90007586 2:0.33635245 3:0.036625589 4:-0.04693933 5:-0.069130207 
10 1:-0.19218703 2:1.8663388 3:0.11927301 4:2.7837086 5:0.23818848 
10 1:-0.19218703 2:1.2574145 3:-0.1553297 4:0.66072266 5:-0.069130207 
10 1:-0.19218703 2:1.8663388 3:0.11927301 4:2.7837086 5:0.23818848 
10 1:-0.19218703 2:1.2574145 3:-0.1553297 4:0.66072266 5:-0.069130207 
10 1:-1.2844499 2:-0.28280591 3:-0.10467483 4:-0.10591116 5:-0.069130207 
0.15644206090189713 1:0.90007586 2:0.51544785 3:-0.040689735 4:-0.10591116 5:-0.069130207 
10 1:-1.2844499 2:1.3034676 3:-0.051353918 4:-0.10591116 5:0.14599287 
10 1:-0.19218703 2:1.8663388 3:0.11927301 4:-0.10591116 5:0.053797266 
1.5700512109461315 1:-1.2844499 2:1.0399415 3:-0.20598457 4:-0.10591116 5:-0.069130207 
10 1:-0.19218703 2:1.8663388 3:0.11927301 4:2.7837086 5:0.23818848 
10 1:-0.19218703 2:1.2574145 3:-0.1553297 4:0.66072266 5:-0.069130207 
10 1:-1.2844499 2:-0.28280591 3:-0.10467483 4:-0.10591116 5:-0.069130207 
1.3758131615499263 1:-1.2844499 2:2.7566988 3:0.11927301 4:-0.10591116 5:-0.038398339 
10 1:-0.19218703 2:1.8663388 3:0.11927301 4:2.7837086 5:0.23818848 
10 1:-0.19218703 2:1.2574145 3:-0.1553297 4:0.66072266 5:-0.069130207 
10 1:-0.19218703 2:0.19051763 3:-0.083346466 4:2.6067931 5:-0.038398339 
10 1:-0.19218703 2:1.8663388 3:0.11927301 4:2.7837086 5:0.23818848 
10 1:-0.19218703 2:1.2574145 3:-0.1553297 4:0.66072266 5:-0.069130207 
4.5601872024118641 1:0.90007586 2:-0.27513039 3:0.70047096 4:0.42483533 5:-0.069130207 
10 1:0.90007586 2:0.26983131 3:-0.20598457 4:-0.10591116 5:-0.069130207 
10 1:-0.19218703 2:1.8663388 3:0.11927301 4:2.7837086 5:0.23818848 
10 1:-0.19218703 2:1.2574145 3:-0.1553297 4:0.66072266 5:-0.069130207 
2.8149667918751082 1:-0.19218703 2:1.2574145 3:-0.17132597 4:0.188948 5:-0.069130207 
10 1:0.90007586 2:-0.27513039 3:0.70047096 4:0.42483533 5:-0.069130207 
5.9351419571935367 1:-1.2844499 2:0.85317059 3:0.11394091 4:0.42483533 5:-0.069130207 
10 1:-1.2844499 2:2.7566988 3:0.11927301 4:1.5453002 5:-0.0076664705 
10 1:-0.19218703 2:1.2369464 3:-0.20331852 4:-0.10591116 5:-0.038398339 
10 1:-1.2844499 2:0.0063052282 3:-0.20065248 4:0.071004335 5:-0.069130207 
10 1:-1.2844499 2:0.85317059 3:0.06062 4:-0.10591116 5:0.053797266 
10 1:-1.2844499 2:-0.28280591 3:-0.19265434 4:0.12997617 5:-0.069130207 
10 1:0.90007586 2:-0.27513039 3:0.70047096 4:0.42483533 5:-0.069130207 
0.11719669676596541 1:0.90007586 2:2.2117371 3:-0.15266365 4:-0.10591116 5:-0.0076664705 
7.9692245328481697 1:0.90007586 2:-0.27513039 3:0.70047096 4:0.42483533 5:-0.069130207 
10 1:-0.19218703 2:-0.19325821 3:0.11927301 4:0.188948 5:-0.069130207 
10 1:-0.19218703 2:0.28518234 3:0.036625589 4:0.071004335 5:-0.069130207 
10 1:-0.19218703 2:0.28518234 3:-0.12067111 4:-0.10591116 5:0.023065398 
10 1:-1.2844499 2:0.85317059 3:-0.19798643 4:-0.10591116 5:-0.069130207 
2.4180889173794187 1:-0.19218703 2:-0.27257189 3:-0.00069905009 4:0.188948 5:-0.069130207 
10 1:-1.2844499 2:0.090735914 3:0.041957681 4:-0.10591116 5:-0.069130207 
9.1977441879272543 1:-1.2844499 2:-0.28280591 3:-0.10467483 4:0.24791983 5:-0.069130207 
2.7434464142109345 1:0.90007586 2:-0.28280591 3:-0.17132597 4:0.542779 5:-0.069130207 
10 1:0.90007586 2:0.41822464 3:0.036625589 4:1.4863283 5:0.88355771 
10 1:0.90007586 2:-0.17534867 3:2.2094528 4:0.12997617 5:-0.069130207 
10 1:-0.19218703 2:0.6280221 3:-0.13133529 4:-0.10591116 5:-0.0076664705 
10 1:-1.2844499 2:0.85317059 3:1.1297043 4:-0.10591116 5:-0.0076664705 
10 1:-0.19218703 2:-0.065332929 3:-0.18199016 4:-0.04693933 5:0.20745661 
10 1:-1.2844499 2:0.85317059 3:0.23391297 4:-0.10591116 5:-0.069130207 
10 1:-1.2844499 2:0.85317059 3:-0.075348329 4:0.3658635 5:0.023065398 
1.5048360436139061 1:0.90007586 2:2.5929544 3:-0.20598457 4:-0.10591116 5:-0.069130207 
10 1:-1.2844499 2:1.1218137 3:-0.19265434 4:-0.10591116 5:-0.069130207 
10 1:-0.19218703 2:1.8663388 3:0.11927301 4:-0.10591116 5:-0.069130207 
10 1:-0.19218703 2:4.0001325 3:-0.20331852 4:-0.10591116 5:-0.069130207 
10 1:0.90007586 2:-0.24442832 3:5.5686704 4:1.1324973 5:-0.069130207 
10 1:-0.19218703 2:1.8663388 3:0.11927301 4:-0.10591116 5:-0.038398339 
0.34880421390368022 1:-1.2844499 2:0.28518234 3:-0.20598457 4:-0.10591116 5:-0.069130207 
10 1:-1.2844499 2:8.2805124 3:-0.20598457 4:-0.10591116 5:-0.069130207 
10 1:-1.2844499 2:0.29029935 3:-0.20331852 4:-0.10591116 5:-0.069130207 
10 1:0.90007586 2:-0.28280591 3:-0.20331852 4:0.012032502 5:-0.069130207 
10 1:-0.19218703 2:-0.065332929 3:1.2390122 4:0.12997617 5:0.14599287 
10 1:-1.2844499 2:0.85317059 3:-0.13133529 4:0.12997617 5:-0.038398339 
10 1:-0.19218703 2:-0.15743913 3:0.11927301 4:1.5453002 5:-0.0076664705 
10 1:-0.19218703 2:-0.065332929 3:9.2184869 4:0.188948 5:21.228054 
10 1:-1.2844499 2:-0.08835948 3:2.9026247 4:-0.10591116 5:4.2025995 
10 1:-0.19218703 2:4.0001325 3:-0.20331852 4:-0.10591116 5:-0.069130207 
10 1:-1.2844499 2:-0.14976362 3:8.8079158 4:-0.10591116 5:-0.069130207 
10 1:-1.2844499 2:-0.24954534 3:4.4622614 4:-0.10591116 5:6.1387072 
10 1:-0.19218703 2:1.8663388 3:0.11927301 4:-0.10591116 5:-0.069130207 
10 1:-0.19218703 2:1.9123919 3:-0.11533901 4:0.012032502 5:-0.038398339 
10 1:-0.19218703 2:1.8663388 3:0.11927301 4:-0.10591116 5:-0.069130207 
10 1:-0.19218703 2:1.8509878 3:-0.11533901 4:-0.10591116 5:0.023065398 
10 1:-0.19218703 2:0.28518234 3:-0.035357644 4:-0.10591116 5:0.084529134 
10 1:-1.2844499 2:0.85317059 3:-0.20331852 4:-0.10591116 5:-0.0076664705 
3.1449070036925892 1:-1.2844499 2:-0.18558269 3:0.23391297 4:-0.10591116 5:-0.069130207 
10 1:-0.19218703 2:-0.28280591 3:-0.043355781 4:-0.10591116 5:0.33038408 
10 1:-0.19218703 2:1.4748875 3:-0.18732225 4:-0.10591116 5:-0.0076664705 
10 1:-1.2844499 2:0.85317059 3:-0.083346466 4:0.071004335 5:0.023065398 
1.2549724272260221 1:0.90007586 2:0.20842717 3:-0.20598457 4:-0.10591116 5:-0.069130207 
10 1:-1.2844499 2:0.85317059 3:-0.13133529 4:0.12997617 5:-0.038398339 
10 1:-0.19218703 2:-0.14720511 3:-0.17665806 4:-0.10591116 5:0.17672474 
10 1:-0.19218703 2:-0.28280591 3:0.95907739 4:-0.10591116 5:1.1601445 
9.6306490299758689 1:-1.2844499 2:0.66384118 3:-0.18199016 4:-0.10591116 5:-0.069130207 
10 1:-1.2844499 2:-0.27257189 3:1.1350364 4:0.24791983 5:-0.069130207 
10 1:-1.2844499 2:-0.20093373 3:3.3505204 4:-0.04693933 5:-0.069130207 
4.8761909557002694 1:-1.2844499 2:-0.17534867 3:-0.19532038 4:0.188948 5:-0.069130207 
10 1:-0.19218703 2:3.997574 3:-0.20331852 4:-0.10591116 5:-0.069130207 
10 1:-1.2844499 2:0.97853737 3:7.7201692 4:-0.10591116 5:-0.069130207 
10 1:-0.19218703 2:1.2395049 3:0.11927301 4:-0.10591116 5:-0.0076664705 
10 1:-1.2844499 2:0.85317059 3:2.9159549 4:2.7837086 5:-0.069130207 
10 1:-1.2844499 2:0.85317059 3:0.06062 4:-0.10591116 5:0.053797266 
10 1:-1.2844499 2:0.85317059 3:10.548844 4:0.77866633 5:-0.069130207 
10 1:-1.2844499 2:-0.28280591 3:-0.19265434 4:0.12997617 5:-0.069130207 
10 1:-0.19218703 2:4.0001325 3:-0.20331852 4:-0.10591116 5:-0.069130207 
10 1:-1.2844499 2:2.7566988 3:-0.18732225 4:-0.10591116 5:-0.069130207 
10 1:-1.2844499 2:0.85317059 3:1.1643629 4:-0.10591116 5:-0.038398339 
10 1:-1.2844499 2:-0.18558269 3:2.9026247 4:-0.10591116 5:-0.069130207 
10 1:-1.2844499 2:-0.08835948 3:2.9026247 4:-0.10591116 5:4.2025995 
10 1:-0.19218703 2:-0.2341943 3:0.036625589 4:0.24791983 5:-0.069130207 
10 1:-0.19218703 2:1.8663388 3:0.11927301 4:-0.10591116 5:-0.069130207 
10 1:-0.19218703 2:-0.15743913 3:-0.075348329 4:0.3658635 5:-0.069130207 
10 1:0.90007586 2:0.016539251 3:0.95907739 4:0.42483533 5:-0.069130207 
10 1:-0.19218703 2:-0.28280591 3:0.31389434 4:0.66072266 5:-0.069130207 
0.11892836647012532 1:-1.2844499 2:0.85317059 3:-0.17932411 4:0.12997617 5:-0.069130207 
1.2747826602361294 1:0.90007586 2:1.2983506 3:0.11927301 4:-0.10591116 5:-0.069130207 
10 1:-0.19218703 2:0.28518234 3:-0.14999761 4:0.12997617 5:0.023065398 
10 1:-1.2844499 2:-0.10371051 3:8.8079158 4:-0.10591116 5:5.5855335 
10 1:-1.2844499 2:0.85317059 3:0.48985335 4:0.24791983 5:-0.069130207 
10 1:0.90007586 2:0.41822464 3:0.036625589 4:1.4863283 5:0.20745661 
10 1:-1.2844499 2:0.85317059 3:-0.17665806 4:-0.10591116 5:0.23818848 
10 1:-0.19218703 2:0.34658648 3:-0.19532038 4:-0.10591116 5:0.053797266 
10 1:0.90007586 2:0.41822464 3:0.036625589 4:1.4863283 5:0.26892034 
10 1:0.90007586 2:-0.28280591 3:0.95907739 4:0.42483533 5:-0.069130207 
10 1:-0.19218703 2:0.28518234 3:-0.035357644 4:0.77866633 5:-0.069130207 
10 1:0.90007586 2:0.41822464 3:0.036625589 4:1.4863283 5:0.88355771 
10 1:-0.19218703 2:4.0001325 3:-0.20331852 4:-0.10591116 5:-0.069130207 
10 1:-1.2844499 2:0.85317059 3:-0.14199947 4:0.42483533 5:-0.0076664705 
1.1228441315071909 1:-0.19218703 2:-0.24954534 3:5.5686704 4:-0.10591116 5:-0.069130207 
10 1:-0.19218703 2:1.5183821 3:-0.18732225 4:0.12997617 5:-0.0076664705 
10 1:0.90007586 2:0.41822464 3:0.036625589 4:1.4863283 5:-0.038398339 
10 1:-1.2844499 2:0.97853737 3:-0.20065248 4:-0.10591116 5:-0.069130207 
10 1:0.90007586 2:-0.10115201 3:5.5686704 4:1.1914692 5:-0.069130207 
6.872693229537636 1:-0.19218703 2:0.57429348 3:-0.043355781 4:0.012032502 5:-0.069130207 
10 1:0.90007586 2:2.5929544 3:-0.20598457 4:-0.10591116 5:-0.069130207 
10 1:-0.19218703 2:1.5209406 3:-0.10200879 4:0.012032502 5:0.23818848 
10 1:-0.19218703 2:1.1294892 3:-0.19798643 4:-0.10591116 5:-0.038398339 
10 1:-1.2844499 2:-0.28280591 3:0.41253803 4:-0.10591116 5:5.6777291 
10 1:0.90007586 2:2.5929544 3:-0.20598457 4:-0.10591116 5:-0.069130207 
10 1:-1.2844499 2:0.85317059 3:-0.19798643 4:-0.10591116 5:-0.069130207 
0.1908756325503865 1:-0.19218703 2:-0.2776889 3:-0.1553297 4:0.66072266 5:-0.069130207 
10 1:0.90007586 2:-0.28280591 3:-0.19532038 4:0.12997617 5:-0.069130207 
10 1:-0.19218703 2:-0.28280591 3:-0.054019964 4:-0.10591116 5:0.45331155 
10 1:-1.2844499 2:0.97853737 3:0.11394091 4:0.12997617 5:0.14599287 
10 1:-0.19218703 2:0.28518234 3:0.38587757 4:1.3683847 5:-0.069130207 
10 1:-0.19218703 2:-0.20605074 3:-0.17665806 4:0.42483533 5:-0.069130207 
10 1:0.90007586 2:-0.28280591 3:-0.19532038 4:0.12997617 5:-0.069130207 
10 1:0.90007586 2:-0.28280591 3:-0.19532038 4:0.12997617 5:-0.069130207 
10 1:0.90007586 2:0.29285786 3:1.2630066 4:-0.10591116 5:-0.069130207 
10 1:-0.19218703 2:-0.20605074 3:-0.17665806 4:0.42483533 5:0.023065398 
10 1:-0.19218703 2:0.64849014 3:-0.12067111 4:-0.10591116 5:0.053797266 
10 1:-0.19218703 2:1.2113614 3:-0.1553297 4:-0.10591116 5:0.45331155 
10 1:0.90007586 2:-0.26233786 3:-0.19798643 4:0.12997617 5:-0.069130207 
10 1:-1.2844499 2:0.85317059 3:-0.10200879 4:0.24791983 5:0.053797266 
10 1:-0.19218703 2:-0.2776889 3:0.081948366 4:0.3658635 5:-0.069130207 
10 1:0.90007586 2:-0.28280591 3:-0.20065248 4:0.071004335 5:-0.069130207 
9.8824278406421744 1:-0.19218703 2:-0.15743913 3:0.11927301 4:2.7837086 5:-0.069130207 
10 1:-0.19218703 2:1.8663388 3:0.11927301 4:-0.10591116 5:0.17672474 
10 1:-1.2844499 2:0.29797487 3:-0.20598457 4:-0.10591116 5:-0.069130207 
10 1:-1.2844499 2:0.29797487 3:-0.20598457 4:-0.10591116 5:-0.069130207 
10 1:-0.19218703 2:0.28518234 3:-0.1553297 4:0.30689167 5:-0.069130207 
10 1:0.90007586 2:-0.28280591 3:0.2765697 4:0.83763816 5:-0.069130207 
10 1:-1.2844499 2:0.85317059 3:-0.19798643 4:-0.10591116 5:-0.069130207 
10 1:0.90007586 2:2.5929544 3:-0.20598457 4:-0.10591116 5:-0.069130207 
10 1:0.90007586 2:1.2420634 3:0.11927301 4:-0.10591116 5:-0.069130207 
10 1:-1.2844499 2:1.1218137 3:-0.20065248 4:-0.10591116 5:-0.069130207 
10 1:-0.19218703 2:1.8663388 3:0.11927301 4:-0.10591116 5:-0.038398339 
5.8821538537580684 1:0.90007586 2:2.5903959 3:-0.14733156 4:-0.10591116 5:0.29965221 
10 1:-0.19218703 2:0.69966025 3:-0.19532038 4:-0.04693933 5:0.023065398 
0.23364253568814014 1:-1.2844499 2:-0.2802474 3:0.28456784 4:0.188948 5:-0.069130207 
10 1:-1.2844499 2:0.85317059 3:0.28989993 4:0.24791983 5:-0.069130207 
4.037586866706306 1:0.90007586 2:0.28518234 3:-0.15799574 4:0.3658635 5:-0.038398339 
8.4970961735822605 1:-1.2844499 2:-0.18558269 3:-0.043355781 4:-0.10591116 5:-0.069130207 
10 1:-0.19218703 2:-0.15743913 3:0.11927301 4:0.071004335 5:-0.069130207 
10 1:-1.2844499 2:8.2805124 3:-0.20598457 4:-0.10591116 5:-0.069130207 
10 1:-1.2844499 2:0.85317059 3:1.1297043 4:2.1350185 5:0.084529134 
10 1:-0.19218703 2:-0.21372626 3:-0.1553297 4:0.66072266 5:-0.069130207 
10 1:0.90007586 2:-0.28280591 3:-0.18998829 4:0.24791983 5:-0.069130207 
10 1:0.90007586 2:-0.28280591 3:-0.17132597 4:0.542779 5:-0.069130207 
10 1:0.90007586 2:-0.28280591 3:-0.19798643 4:0.12997617 5:-0.069130207 
10 1:-0.19218703 2:0.28518234 3:0.38587757 4:1.3683847 5:-0.069130207 
10 1:-1.2844499 2:8.2805124 3:-0.20598457 4:-0.10591116 5:-0.069130207 
2.186378286139913 1:0.90007586 2:0.89154818 3:0.081948366 4:-0.10591116 5:-0.069130207 
10 1:-0.19218703 2:1.5925787 3:-0.12067111 4:0.012032502 5:0.45331155 
10 1:0.90007586 2:-0.22140177 3:0.21791669 4:8.2680891 5:-0.038398339 
10 1:-1.2844499 2:-0.18558269 3:-0.20065248 4:-0.10591116 5:-0.069130207 
10 1:-1.2844499 2:-0.18558269 3:2.9026247 4:-0.10591116 5:-0.069130207 
10 1:-1.2844499 2:-0.2802474 3:4.4622614 4:-0.10591116 5:-0.069130207 
10 1:-1.2844499 2:-0.18558269 3:2.9026247 4:-0.10591116 5:-0.069130207 
10 1:-1.2844499 2:-0.2802474 3:4.4622614 4:-0.10591116 5:-0.069130207 
8.0635981995892188 1:-1.2844499 2:0.85317059 3:-0.20331852 4:0.012032502 5:-0.069130207 
10 1:-1.2844499 2:0.85317059 3:0.041957681 4:-0.04693933 5:0.20745661 
10 1:-1.2844499 2:0.85317059 3:-0.1846562 4:-0.04693933 5:-0.0076664705 
10 1:0.90007586 2:0.29285786 3:1.2630066 4:-0.04693933 5:-0.069130207 
10 1:0.90007586 2:0.3107674 3:1.2630066 4:-0.04693933 5:-0.069130207 
10 1:0.90007586 2:-0.24442832 3:-0.20598457 4:-0.04693933 5:-0.069130207 
10 1:0.90007586 2:-0.24442832 3:-0.20598457 4:-0.04693933 5:-0.069130207 
3.4535848107184548 1:0.90007586 2:-0.28280591 3:0.24457715 4:0.542779 5:-0.069130207 
10 1:-1.2844499 2:0.85317059 3:-0.19798643 4:-0.10591116 5:-0.069130207 
10 1:-0.19218703 2:0.28518234 3:0.36454921 4:-0.10591116 5:0.084529134 
10 1:-1.2844499 2:2.7566988 3:1.3349898 4:-0.10591116 5:0.88355771 
10 1:-0.19218703 2:-0.28280591 3:-0.054019964 4:-0.10591116 5:0.45331155 
10 1:-1.2844499 2:0.85317059 3:-0.19798643 4:-0.10591116 5:-0.069130207 
10 1:-1.2844499 2:0.090735914 3:-0.20598457 4:-0.10591116 5:-0.069130207 
10 1:0.90007586 2:-0.22140177 3:0.21791669 4:8.2680891 5:-0.038398339 
6.9375476626980159 1:-1.2844499 2:-0.25466235 3:0.70047096 4:-0.10591116 5:-0.069130207 
10 1:0.90007586 2:-0.2776889 3:0.95907739 4:0.542779 5:-0.069130207 
7.3514456505753625 1:-1.2844499 2:0.85317059 3:0.3352227 4:-0.10591116 5:-0.069130207 
4.2221741027594248 1:0.90007586 2:2.6645926 3:-0.20331852 4:-0.10591116 5:-0.069130207 
2.5770038277286651 1:0.90007586 2:-0.2776889 3:-0.17665806 4:0.42483533 5:-0.069130207 
9.9752657974281078 1:-0.19218703 2:-0.28280591 3:2.2094528 4:-0.04693933 5:-0.069130207 
10 1:-1.2844499 2:-0.28280591 3:-0.19265434 4:0.12997617 5:-0.069130207 
10 1:-1.2844499 2:0.85317059 3:-0.20598457 4:-0.04693933 5:-0.069130207 
10 1:-0.19218703 2:-0.19325821 3:0.95907739 4:0.542779 5:-0.069130207 
10 1:-0.19218703 2:-0.19581672 3:-0.19532038 4:0.12997617 5:-0.069130207 
10 1:-1.2844499 2:-0.28280591 3:9.3624533 4:-0.04693933 5:-0.069130207 
10 1:-0.19218703 2:0.28518234 3:-0.17665806 4:0.188948 5:-0.069130207 
10 1:-0.19218703 2:0.28518234 3:-0.17665806 4:0.188948 5:-0.069130207 
10 1:-1.2844499 2:0.85317059 3:-0.043355781 4:0.071004335 5:0.115261 
10 1:0.90007586 2:-0.2776889 3:-0.17665806 4:0.42483533 5:-0.069130207 
10 1:0.90007586 2:-0.28280591 3:-0.19798643 4:0.12997617 5:-0.069130207 
10 1:-1.2844499 2:0.85317059 3:-0.19798643 4:-0.10591116 5:-0.069130207 
10 1:-0.19218703 2:4.0001325 3:-0.16599388 4:-0.10591116 5:-0.069130207 
10 1:-1.2844499 2:-0.13185408 3:3.3505204 4:-0.10591116 5:0.023065398 
10 1:-1.2844499 2:-0.18558269 3:2.9026247 4:-0.10591116 5:-0.069130207 
10 1:-1.2844499 2:-0.2802474 3:4.4622614 4:-0.10591116 5:-0.069130207 
0.2379544138925862 1:-1.2844499 2:0.05235833 3:-0.18199016 4:-0.10591116 5:-0.069130207 
10 1:0.90007586 2:-0.17534867 3:2.2094528 4:0.12997617 5:-0.069130207 
10 1:-1.2844499 2:0.090735914 3:1.1350364 4:0.24791983 5:-0.069130207 
10 1:-1.2844499 2:-0.04742339 3:-0.20598457 4:-0.10591116 5:-0.069130207 
10 1:-1.2844499 2:0.024214768 3:8.8079158 4:-0.10591116 5:-0.069130207 
10 1:-1.2844499 2:2.7566988 3:-0.18732225 4:0.12997617 5:-0.069130207 
7.5478243687635302 1:-1.2844499 2:0.85317059 3:-0.00069905009 4:-0.10591116 5:-0.069130207 
9.538160265501638 1:0.90007586 2:0.15469855 3:-0.20598457 4:-0.10591116 5:-0.069130207 
10 1:-1.2844499 2:1.1218137 3:-0.20598457 4:-0.10591116 5:-0.038398339 
10 1:-1.2844499 2:-0.28280591 3:-0.030025552 4:-0.10591116 5:-0.069130207 
10 1:-1.2844499 2:0.97853737 3:7.7201692 4:-0.10591116 5:-0.069130207 
10 1:-1.2844499 2:-0.26489637 3:0.073950229 4:-0.10591116 5:-0.069130207 
10 1:-1.2844499 2:8.2805124 3:-0.20598457 4:-0.04693933 5:-0.038398339 
10 1:-1.2844499 2:0.85317059 3:-0.19798643 4:-0.10591116 5:-0.069130207 
10 1:-0.19218703 2:0.28518234 3:0.36454921 4:-0.10591116 5:-0.069130207 
10 1:-0.19218703 2:1.9123919 3:-0.20065248 4:-0.10591116 5:-0.038398339 
10 1:-1.2844499 2:2.7566988 3:8.8079158 4:0.24791983 5:1.3445357 
10 1:-1.2844499 2:8.2805124 3:-0.20598457 4:-0.10591116 5:-0.069130207 
0.65177409768842953 1:-1.2844499 2:0.16493258 3:-0.17132597 4:0.542779 5:-0.038398339 
10 1:-1.2844499 2:8.2805124 3:-0.20598457 4:-0.10591116 5:-0.069130207 
10 1:-1.2844499 2:0.95806932 3:-0.20331852 4:-0.10591116 5:-0.069130207 
10 1:-1.2844499 2:0.85317059 3:-0.00069905009 4:-0.10591116 5:-0.069130207 
10 1:-1.2844499 2:0.27750683 3:3.2971994 4:-0.10591116 5:-0.069130207 
10 1:-1.2844499 2:0.27750683 3:3.2971994 4:-0.10591116 5:-0.069130207 
10 1:-1.2844499 2:-0.27513039 3:10.548844 4:-0.10591116 5:-0.069130207 
10 1:-1.2844499 2:-0.04742339 3:3.3505204 4:-0.10591116 5:12.162153 
10 1:-1.2844499 2:0.031890285 3:1.1350364 4:0.071004335 5:-0.069130207 
10 1:-1.2844499 2:-0.04742339 3:3.3505204 4:0.42483533 5:12.162153 
10 1:-0.19218703 2:0.19051763 3:-0.083346466 4:2.6067931 5:-0.038398339 
10 1:0.90007586 2:-0.2776889 3:-0.17665806 4:0.42483533 5:-0.069130207 
10 1:-1.2844499 2:0.05235833 3:2.9159549 4:1.3094128 5:-0.069130207 
10 1:-1.2844499 2:2.848805 3:-0.17932411 4:-0.04693933 5:0.053797266 
10 1:-1.2844499 2:-0.2776889 3:0.40453989 4:-0.10591116 5:-0.069130207 
10 1:-1.2844499 2:-0.27513039 3:10.548844 4:0.89660999 5:-0.069130207 
10 1:-0.19218703 2:2.6952946 3:-0.20598457 4:-0.10591116 5:-0.069130207 
10 1:0.90007586 2:0.29285786 3:1.2630066 4:-0.04693933 5:-0.069130207 
10 1:-1.2844499 2:-0.27513039 3:10.548844 4:-0.10591116 5:-0.069130207 
10 1:-1.2844499 2:0.090735914 3:1.1350364 4:0.83763816 5:-0.038398339 
10 1:-0.19218703 2:2.6952946 3:-0.15266365 4:0.012032502 5:-0.069130207 
10 1:-1.2844499 2:1.1218137 3:-0.19532038 4:-0.10591116 5:-0.069130207 
10 1:-1.2844499 2:-0.18558269 3:2.9026247 4:-0.10591116 5:-0.069130207 
1.718106263063131 1:-1.2844499 2:-0.2802474 3:4.4622614 4:0.30689167 5:-0.069130207 
10 1:-1.2844499 2:-0.0064872999 3:9.3624533 4:-0.10591116 5:-0.069130207 
10 1:-1.2844499 2:-0.13185408 3:2.9026247 4:-0.10591116 5:-0.069130207 
10 1:-0.19218703 2:0.28518234 3:0.036625589 4:0.071004335 5:-0.069130207 
10 1:-0.19218703 2:3.997574 3:-0.18732225 4:-0.04693933 5:-0.038398339 
10 1:-1.2844499 2:0.36449602 3:-0.19798643 4:-0.10591116 5:-0.069130207 
2.7153050969643111 1:-1.2844499 2:-0.24442832 3:-0.11800506 4:-0.10591116 5:-0.069130207 
10 1:-1.2844499 2:-0.28280591 3:-0.15266365 4:0.3658635 5:-0.069130207 
10 1:-0.19218703 2:-0.27257189 3:0.41253803 4:0.3658635 5:-0.069130207 
10 1:-1.2844499 2:8.2805124 3:-0.19798643 4:-0.04693933 5:-0.038398339 
10 1:-1.2844499 2:2.7566988 3:-0.08068042 4:-0.10591116 5:-0.069130207 
10 1:0.90007586 2:5.4866243 3:-0.20598457 4:-0.04693933 5:-0.038398339 
10 1:-0.19218703 2:4.002691 3:-0.20598457 4:-0.10591116 5:-0.069130207 
10 1:-1.2844499 2:2.848805 3:-0.17665806 4:-0.04693933 5:-0.069130207 
10 1:0.90007586 2:-0.28280591 3:-0.20331852 4:0.012032502 5:-0.069130207 
10 1:-0.19218703 2:0.013980745 3:-0.20598457 4:-0.04693933 5:-0.069130207 
4.7969225350278917 1:-0.19218703 2:0.013980745 3:-0.20598457 4:-0.04693933 5:-0.069130207 
10 1:0.90007586 2:0.072826375 3:-0.20598457 4:-0.10591116 5:-0.069130207 
10 1:-0.19218703 2:-0.26489637 3:-0.13666738 4:0.48380716 5:-0.069130207 
10 1:-0.19218703 2:1.9840301 3:-0.18998829 4:-0.10591116 5:-0.069130207 
10 1:0.90007586 2:1.2420634 3:0.11927301 4:2.7837086 5:-0.069130207 
10 1:-1.2844499 2:0.85317059 3:-0.1553297 4:0.48380716 5:-0.069130207 
10 1:0.90007586 2:0.3107674 3:1.2630066 4:-0.10591116 5:-0.069130207 
10 1:0.90007586 2:-0.2776889 3:-0.17665806 4:0.42483533 5:-0.069130207 
10 1:-1.2844499 2:0.97853737 3:7.7201692 4:-0.10591116 5:-0.069130207 
2.37568688439511 1:-1.2844499 2:-0.067891435 3:4.4622614 4:-0.10591116 5:0.23818848 
10 1:-1.2844499 2:2.848805 3:-0.18998829 4:-0.04693933 5:-0.038398339 
9.6459409781139627 1:-1.2844499 2:-0.2776889 3:0.40453989 4:-0.10591116 5:-0.069130207 
9.8802559494558224 1:-1.2844499 2:0.85317059 3:0.23657901 4:1.0145537 5:-0.069130207 
10 1:-1.2844499 2:8.2805124 3:-0.20598457 4:-0.04693933 5:-0.069130207 
10 1:-1.2844499 2:0.131672 3:4.4622614 4:-0.10591116 5:-0.069130207 
10 1:-1.2844499 2:2.7566988 3:8.8079158 4:-0.04693933 5:31.123716 
10 1:-0.19218703 2:5.1719281 3:-0.19798643 4:0.071004335 5:-0.038398339 
8.0497240032352124 1:-1.2844499 2:-0.28280591 3:0.46052685 4:-0.10591116 5:-0.069130207 
10 1:-1.2844499 2:-0.28280591 3:3.3505204 4:-0.10591116 5:-0.069130207 
10 1:-1.2844499 2:0.33123544 3:-0.20598457 4:-0.10591116 5:-0.069130207 
9.1152312576367294 1:-1.2844499 2:-0.21372626 3:-0.00069905009 4:-0.10591116 5:-0.069130207 
4.3897919116599509 1:-1.2844499 2:-0.17279017 3:2.9026247 4:-0.10591116 5:-0.069130207 
10 1:-1.2844499 2:0.31844292 3:-0.11800506 4:-0.10591116 5:-0.069130207 
10 1:-1.2844499 2:-0.27513039 3:10.548844 4:-0.10591116 5:-0.069130207 
10 1:-1.2844499 2:0.97853737 3:7.7201692 4:-0.10591116 5:-0.069130207 
10 1:0.90007586 2:-0.2776889 3:-0.17665806 4:0.42483533 5:-0.069130207 
10 1:-1.2844499 2:2.7566988 3:8.8079158 4:-0.04693933 5:-0.069130207 
9.9802476030887366 1:-0.19218703 2:0.19051763 3:-0.083346466 4:2.6067931 5:-0.038398339 
10 1:0.90007586 2:-0.2776889 3:-0.17665806 4:0.42483533 5:-0.069130207 
10 1:-1.2844499 2:-0.13185408 3:2.9026247 4:-0.10591116 5:-0.069130207 
10 1:-1.2844499 2:0.95806932 3:-0.17932411 4:-0.10591116 5:-0.069130207 
10 1:-1.2844499 2:-0.28280591 3:0.06062 4:-0.10591116 5:-0.069130207 
10 1:-1.2844499 2:-0.27513039 3:10.548844 4:-0.10591116 5:-0.069130207 
9.8346925139415422 1:-1.2844499 2:-0.28280591 3:0.06062 4:-0.10591116 5:-0.069130207 
10 1:-1.2844499 2:-0.27513039 3:10.548844 4:-0.10591116 5:-0.069130207 
10 1:-0.19218703 2:-0.21372626 3:-0.1553297 4:0.66072266 5:-0.069130207 
10 1:-1.2844499 2:0.66384118 3:-0.17132597 4:0.188948 5:-0.038398339 
10 1:-1.2844499 2:1.1218137 3:2.9026247 4:0.071004335 5:-0.069130207 
10 1:-1.2844499 2:0.05235833 3:1.2630066 4:0.42483533 5:-0.069130207 
10 1:-1.2844499 2:0.66384118 3:-0.17132597 4:0.012032502 5:-0.0076664705 
10 1:0.90007586 2:0.29285786 3:1.2630066 4:0.12997617 5:-0.069130207 
10 1:-1.2844499 2:8.2805124 3:-0.070016238 4:-0.10591116 5:-0.069130207 
10 1:-1.2844499 2:2.7566988 3:1.3349898 4:-0.10591116 5:0.17672474 
10 1:-0.19218703 2:1.71027 3:-0.17132597 4:-0.04693933 5:-0.0076664705 
10 1:-1.2844499 2:0.97853737 3:7.7201692 4:-0.10591116 5:-0.069130207 
10 1:-1.2844499 2:-0.075566952 3:1.1350364 4:1.7811875 5:-0.069130207 
10 1:-1.2844499 2:1.1218137 3:2.9026247 4:-0.10591116 5:-0.069130207 
10 1:-1.2844499 2:-0.011604311 3:1.1350364 4:-0.10591116 5:-0.069130207 
10 1:-1.2844499 2:0.27750683 3:3.2971994 4:-0.10591116 5:-0.069130207 
10 1:-1.2844499 2:0.27750683 3:3.2971994 4:-0.10591116 5:-0.069130207 
10 1:-1.2844499 2:-0.28280591 3:0.46052685 4:-0.10591116 5:-0.069130207 
10 1:-1.2844499 2:8.2805124 3:-0.19265434 4:0.188948 5:0.053797266 
10 1:-1.2844499 2:0.33123544 3:-0.20598457 4:-0.10591116 5:-0.069130207 
10 1:-1.2844499 2:-0.28280591 3:0.46052685 4:-0.10591116 5:-0.069130207 
0.89691125297679508 1:-1.2844499 2:1.1218137 3:-0.051353918 4:-0.10591116 5:-0.069130207 
10 1:-1.2844499 2:8.2805124 3:-0.19265434 4:0.188948 5:0.053797266 
10 1:0.90007586 2:-0.28280591 3:-0.17665806 4:0.42483533 5:-0.069130207 
10 1:-1.2844499 2:-0.18558269 3:2.9026247 4:-0.10591116 5:-0.069130207 
10 1:-1.2844499 2:-0.2802474 3:4.4622614 4:-0.10591116 5:-0.069130207 
10 1:-1.2844499 2:-0.28280591 3:0.46052685 4:-0.10591116 5:-0.069130207 
10 1:-1.2844499 2:-0.28280591 3:0.46052685 4:-0.10591116 5:-0.069130207 
10 1:-1.2844499 2:-0.28280591 3:0.46052685 4:-0.10591116 5:-0.069130207 
10 1:-1.2844499 2:-0.28280591 3:0.46052685 4:-0.10591116 5:-0.069130207 
10 1:-1.2844499 2:-0.26489637 3:0.073950229 4:-0.10591116 5:-0.069130207 
10 1:-1.2844499 2:-0.28280591 3:0.46052685 4:-0.10591116 5:-0.069130207 
1.3380118220771067 1:-1.2844499 2:-0.28280591 3:2.9026247 4:-0.10591116 5:-0.069130207 
10 1:-1.2844499 2:-0.2802474 3:4.4622614 4:-0.10591116 5:-0.069130207 
10 1:-1.2844499 2:-0.28280591 3:0.71380119 4:-0.10591116 5:-0.069130207 
10 1:-1.2844499 2:0.85317059 3:-0.19798643 4:-0.10591116 5:-0.069130207 
10 1:-1.2844499 2:8.2805124 3:-0.19265434 4:-0.04693933 5:0.053797266 
10 1:-1.2844499 2:0.131672 3:7.7201692 4:-0.10591116 5:-0.038398339 
10 1:-0.19218703 2:-0.065332929 3:-0.1260032 4:0.188948 5:-0.069130207 
10 1:-1.2844499 2:1.1218137 3:-0.11800506 4:-0.10591116 5:-0.038398339 
10 1:-1.2844499 2:-0.27001338 3:3.3505204 4:-0.10591116 5:-0.069130207 
10 1:-1.2844499 2:-0.26489637 3:3.2971994 4:-0.04693933 5:-0.069130207 
9.003975928305092 1:-1.2844499 2:0.0063052282 3:-0.1553297 4:-0.10591116 5:-0.069130207 
8.453691940122086 1:0.90007586 2:0.41822464 3:0.036625589 4:0.12997617 5:-0.069130207 
3.0929743785227535 1:-1.2844499 2:0.85317059 3:0.25257529 4:3.1965115 5:-0.038398339 
7.4741672668129508 1:-1.2844499 2:0.85317059 3:-0.19532038 4:0.012032502 5:-0.038398339 
10 1:-0.19218703 2:-0.065332929 3:-0.1260032 4:0.188948 5:-0.069130207 
10 1:-1.2844499 2:2.7566988 3:1.3349898 4:-0.10591116 5:0.33038408 
1.5078582239012785 1:0.90007586 2:-0.0064872999 3:0.32989061 4:0.188948 5:-0.069130207 
10 1:0.90007586 2:-0.2776889 3:-0.17665806 4:0.42483533 5:-0.069130207 
10 1:-0.19218703 2:1.8663388 3:0.11927301 4:-0.10591116 5:-0.038398339 
10 1:-1.2844499 2:0.85317059 3:1.1163741 4:-0.10591116 5:-0.069130207 
10 1:0.90007586 2:3.997574 3:-0.16332784 4:-0.10591116 5:-0.038398339 
10 1:-1.2844499 2:0.85317059 3:-0.00069905009 4:-0.10591116 5:-0.069130207 
10 1:-0.19218703 2:4.0180421 3:-0.20598457 4:-0.10591116 5:-0.069130207 
10 1:0.90007586 2:1.1397232 3:0.2125846 4:-0.10591116 5:-0.069130207 
10 1:-1.2844499 2:0.85317059 3:-0.00069905009 4:-0.10591116 5:-0.069130207 
10 1:0.90007586 2:1.9072749 3:-0.043355781 4:0.71969449 5:0.63770276 
10 1:0.90007586 2:0.34658648 3:0.95907739 4:2.6067931 5:-0.069130207 
0.24866078938700675 1:0.90007586 2:1.2829995 3:-0.1846562 4:0.071004335 5:0.023065398 
1.8522599065315752 1:-0.19218703 2:1.5183821 3:-0.18732225 4:0.12997617 5:-0.069130207 
10 1:0.90007586 2:1.1397232 3:0.2125846 4:-0.10591116 5:-0.069130207 
10 1:-0.19218703 2:1.5209406 3:0.020629315 4:-0.10591116 5:-0.069130207 
10 1:0.90007586 2:-0.28280591 3:-0.17132597 4:0.542779 5:-0.069130207 
10 1:0.90007586 2:-0.28280591 3:-0.19798643 4:0.12997617 5:-0.069130207 
10 1:-1.2844499 2:0.29797487 3:-0.20598457 4:-0.10591116 5:-0.069130207 
10 1:-1.2844499 2:0.85317059 3:0.83377324 4:-0.10591116 5:-0.069130207 
10 1:0.90007586 2:-0.28280591 3:-0.17132597 4:0.542779 5:-0.069130207 
10 1:0.90007586 2:-0.28280591 3:-0.19798643 4:0.12997617 5:-0.069130207 
10 1:-0.19218703 2:0.28518234 3:0.036625589 4:-0.10591116 5:-0.038398339 
10 1:0.90007586 2:-0.10371051 3:5.5686704 4:1.1914692 5:-0.069130207 
10 1:0.90007586 2:-0.22140177 3:0.21791669 4:8.2680891 5:-0.038398339 
10 1:0.90007586 2:-0.2776889 3:-0.17665806 4:0.42483533 5:-0.069130207 
10 1:-0.19218703 2:1.5209406 3:0.020629315 4:-0.10591116 5:0.23818848 
10 1:-0.19218703 2:1.1729838 3:-0.11000692 4:-0.10591116 5:-0.038398339 
10 1:-0.19218703 2:0.28518234 3:0.21791669 4:-0.10591116 5:-0.069130207 
9.9509419631473115 1:-0.19218703 2:2.1017213 3:-0.19265434 4:-0.10591116 5:-0.069130207 
10 1:0.90007586 2:0.41822464 3:-0.0033650958 4:1.0145537 5:1.037217 
10 1:-0.19218703 2:1.4748875 3:-0.15266365 4:0.012032502 5:0.084529134 
10 1:-0.19218703 2:0.28518234 3:-0.17665806 4:0.30689167 5:-0.069130207 
10 1:-0.19218703 2:-0.15743913 3:0.43386639 4:0.24791983 5:-0.069130207 
0.52634564925055782 1:-1.2844499 2:-0.18558269 3:-0.014029278 4:0.3658635 5:-0.069130207 
10 1:-0.19218703 2:0.28518234 3:0.38587757 4:1.3683847 5:-0.069130207 
10 1:-1.2844499 2:0.19307614 3:-0.19532038 4:0.071004335 5:-0.069130207 
10 1:-1.2844499 2:0.95806932 3:-0.20331852 4:-0.10591116 5:-0.069130207 
10 1:-1.2844499 2:2.7566988 3:8.8079158 4:0.24791983 5:-0.038398339 
10 1:-0.19218703 2:1.5209406 3:0.0099651326 4:-0.10591116 5:0.053797266 
10 1:-0.19218703 2:0.92480875 3:-0.16599388 4:-0.10591116 5:-0.038398339 
10 1:-0.19218703 2:1.1729838 3:-0.14199947 4:-0.04693933 5:-0.038398339 
10 1:-0.19218703 2:1.8177272 3:-0.19532038 4:0.188948 5:-0.069130207 
10 1:0.90007586 2:2.1631255 3:0.11927301 4:-0.10591116 5:-0.069130207 
10 1:-1.2844499 2:0.19307614 3:-0.19532038 4:0.071004335 5:-0.069130207 
10 1:-0.19218703 2:3.997574 3:-0.20598457 4:-0.10591116 5:-0.069130207 
10 1:-1.2844499 2:2.7566988 3:-0.08068042 4:-0.10591116 5:-0.069130207 
10 1:0.90007586 2:-0.2776889 3:-0.17665806 4:0.42483533 5:-0.069130207 
10 1:-1.2844499 2:2.7566988 3:-0.08068042 4:-0.10591116 5:0.20745661 
10 1:-0.19218703 2:-0.10882753 3:-0.20065248 4:-0.04693933 5:-0.038398339 
10 1:-1.2844499 2:0.85317059 3:-0.19798643 4:-0.10591116 5:-0.069130207 
10 1:-0.19218703 2:4.5655623 3:-0.20598457 4:-0.10591116 5:-0.069130207 
10 1:0.90007586 2:-0.28280591 3:1.1590308 4:1.5453002 5:-0.069130207 
10 1:-0.19218703 2:0.019097756 3:1.7109023 4:-0.10591116 5:-0.069130207 
10 1:-0.19218703 2:1.9021579 3:-0.094010649 4:0.188948 5:-0.069130207 
10 1:-0.19218703 2:1.1397232 3:-0.091344603 4:-0.10591116 5:0.17672474 
10 1:-0.19218703 2:0.53591589 3:-0.051353918 4:-0.10591116 5:-0.038398339 
10 1:0.90007586 2:-0.28280591 3:-0.19532038 4:0.12997617 5:-0.069130207 
10 1:-0.19218703 2:2.165684 3:-0.096676694 4:-0.10591116 5:-0.069130207 
10 1:-0.19218703 2:1.5669937 3:-0.20065248 4:-0.10591116 5:-0.038398339 
10 1:-0.19218703 2:1.5695522 3:-0.20598457 4:-0.10591116 5:-0.038398339 
10 1:-0.19218703 2:1.7716741 3:-0.20331852 4:-0.10591116 5:-0.038398339 
10 1:-1.2844499 2:0.85317059 3:0.19125624 4:0.42483533 5:-0.069130207 
10 1:-0.19218703 2:3.997574 3:-0.20331852 4:-0.04693933 5:-0.069130207 
10 1:-1.2844499 2:-0.13185408 3:3.3505204 4:-0.10591116 5:2.7582017 
10 1:0.90007586 2:-0.27513039 3:5.5686704 4:-0.10591116 5:-0.069130207 
10 1:-0.19218703 2:-0.034630862 3:-0.16599388 4:-0.10591116 5:0.053797266 
10 1:-0.19218703 2:0.011422239 3:-0.19265434 4:-0.10591116 5:-0.0076664705 
10 1:-0.19218703 2:-0.28280591 3:0.041957681 4:-0.10591116 5:0.39184782 
10 1:-1.2844499 2:0.29797487 3:-0.20598457 4:-0.10591116 5:-0.069130207 
10 1:-0.19218703 2:1.3725472 3:-0.20598457 4:-0.10591116 5:-0.038398339 
7.8278095277195163 1:-1.2844499 2:0.85317059 3:-0.094010649 4:0.83763816 5:-0.069130207 
10 1:-1.2844499 2:0.29797487 3:-0.20598457 4:-0.10591116 5:-0.069130207 
10 1:-1.2844499 2:0.34402797 3:-0.18199016 4:-0.10591116 5:-0.069130207 
10 1:-1.2844499 2:-0.2802474 3:0.19125624 4:0.42483533 5:-0.069130207 
10 1:-0.19218703 2:4.002691 3:-0.20598457 4:-0.10591116 5:-0.069130207 
10 1:0.90007586 2:0.41822464 3:-0.0033650958 4:1.0145537 5:1.037217 
10 1:-0.19218703 2:1.4748875 3:-0.15266365 4:0.012032502 5:0.084529134 
10 1:0.90007586 2:0.41822464 3:-0.0033650958 4:1.0145537 5:1.037217 
10 1:0.90007586 2:-0.28280591 3:-0.20331852 4:0.012032502 5:-0.069130207 
10 1:0.90007586 2:-0.27513039 3:-0.19798643 4:0.12997617 5:-0.069130207 
10 1:-1.2844499 2:0.85317059 3:0.43386639 4:1.604272 5:0.023065398 
10 1:-1.2844499 2:-0.25210384 3:-0.20331852 4:-0.10591116 5:-0.069130207 
10 1:-1.2844499 2:0.32867694 3:-0.18199016 4:-0.10591116 5:-0.069130207 
10 1:-1.2844499 2:0.30309188 3:-0.20598457 4:-0.10591116 5:-0.069130207 
10 1:-0.19218703 2:0.28518234 3:-0.12067111 4:0.89660999 5:-0.069130207 
10 1:-1.2844499 2:0.85317059 3:-0.13666738 4:1.1324973 5:-0.038398339 
10 1:-0.19218703 2:1.4595364 3:0.36454921 4:0.30689167 5:-0.069130207 
10 1:-1.2844499 2:2.0659023 3:-0.014029278 4:-0.10591116 5:0.053797266 
10 1:-1.2844499 2:-0.19325821 3:-0.20331852 4:0.012032502 5:-0.069130207 
10 1:-1.2844499 2:0.34402797 3:-0.18199016 4:-0.10591116 5:-0.069130207 
10 1:-0.19218703 2:-0.10115201 3:-0.20065248 4:-0.04693933 5:-0.038398339 
10 1:-1.2844499 2:2.7566988 3:-0.08068042 4:-0.10591116 5:-0.0076664705 
10 1:-1.2844499 2:0.85317059 3:-0.19798643 4:-0.10591116 5:-0.069130207 
10 1:-0.19218703 2:0.019097756 3:1.7109023 4:-0.10591116 5:-0.069130207 
10 1:-0.19218703 2:3.997574 3:-0.20598457 4:-0.10591116 5:-0.069130207 
10 1:-0.19218703 2:0.23401223 3:-0.20598457 4:-0.04693933 5:-0.069130207 
0.86881655882537667 1:-0.19218703 2:0.65360715 3:-0.20331852 4:-0.10591116 5:-0.038398339 
10 1:-0.19218703 2:0.23401223 3:-0.20598457 4:-0.04693933 5:-0.069130207 
10 1:-0.19218703 2:0.23401223 3:-0.20598457 4:-0.04693933 5:-0.069130207 
1.2161167705662497 1:0.90007586 2:-0.14720511 3:-0.043355781 4:0.48380716 5:-0.069130207 
10 1:-1.2844499 2:0.29797487 3:-0.20598457 4:-0.10591116 5:-0.069130207 
1.3348076320890663 1:-0.19218703 2:1.5209406 3:0.0099651326 4:-0.10591116 5:-0.069130207 
0.80283830355463315 1:-0.19218703 2:0.23401223 3:-0.20598457 4:-0.04693933 5:-0.069130207 
10 1:0.90007586 2:-0.2802474 3:0.42053617 4:0.77866633 5:-0.069130207 
10 1:-0.19218703 2:1.8049347 3:-0.18732225 4:-0.10591116 5:-0.038398339 
10 1:-1.2844499 2:0.85317059 3:0.16726183 4:-0.10591116 5:0.20745661 
10 1:-0.19218703 2:-0.28280591 3:-0.13666738 4:0.66072266 5:0.14599287 
10 1:-0.19218703 2:4.007808 3:-0.20598457 4:-0.10591116 5:-0.069130207 
10 1:-0.19218703 2:2.1017213 3:-0.19265434 4:-0.10591116 5:-0.069130207 
10 1:0.90007586 2:1.5337331 3:0.71646724 4:-0.10591116 5:-0.069130207 
10 1:-0.19218703 2:2.2373221 3:-0.19798643 4:-0.10591116 5:-0.038398339 
10 1:-1.2844499 2:0.85317059 3:-0.19798643 4:-0.10591116 5:-0.069130207 
10 1:-1.2844499 2:0.85317059 3:-0.19798643 4:-0.10591116 5:-0.069130207 
10 1:-1.2844499 2:2.848805 3:-0.17932411 4:-0.10591116 5:0.023065398 
10 1:-1.2844499 2:2.848805 3:-0.19532038 4:0.012032502 5:-0.038398339 
10 1:-1.2844499 2:0.85317059 3:-0.19798643 4:-0.10591116 5:-0.069130207 
10 1:-1.2844499 2:8.2805124 3:-0.18199016 4:-0.10591116 5:-0.0076664705 
10 1:-1.2844499 2:8.2805124 3:-0.17932411 4:-0.04693933 5:-0.038398339 
10 1:-0.19218703 2:4.5655623 3:-0.20598457 4:-0.10591116 5:-0.069130207 
10 1:-1.2844499 2:2.848805 3:-0.17932411 4:-0.10591116 5:-0.0076664705 
10 1:-1.2844499 2:-0.10371051 3:8.8079158 4:-0.10591116 5:0.084529134 
10 1:-1.2844499 2:0.85317059 3:-0.19798643 4:-0.10591116 5:-0.069130207 
10 1:-1.2844499 2:8.2805124 3:-0.17932411 4:-0.04693933 5:-0.038398339 
10 1:-0.19218703 2:-0.28280591 3:-0.13666738 4:0.66072266 5:-0.038398339 
10 1:0.90007586 2:0.29285786 3:1.2630066 4:-0.10591116 5:-0.069130207 
10 1:-1.2844499 2:8.2805124 3:-0.070016238 4:-0.10591116 5:-0.038398339 
10 1:-1.2844499 2:8.2805124 3:-0.20331852 4:-0.10591116 5:-0.038398339 
10 1:-1.2844499 2:0.85317059 3:10.548844 4:0.071004335 5:0.23818848 
10 1:-1.2844499 2:8.2805124 3:-0.17399202 4:-0.04693933 5:-0.038398339 
10 1:-1.2844499 2:0.85317059 3:2.2094528 4:-0.04693933 5:-0.069130207 
10 1:-1.2844499 2:8.2805124 3:-0.20598457 4:-0.04693933 5:-0.069130207 
8.3165784400925666 1:0.90007586 2:-0.2802474 3:0.42053617 4:0.48380716 5:-0.069130207 
10 1:-1.2844499 2:2.0659023 3:-0.18732225 4:-0.04693933 5:-0.069130207 
10 1:-1.2844499 2:2.848805 3:-0.17932411 4:-0.10591116 5:0.023065398 
10 1:0.90007586 2:-0.2802474 3:0.42053617 4:0.77866633 5:-0.069130207 
10 1:-1.2844499 2:2.0659023 3:-0.18732225 4:0.012032502 5:-0.069130207 
10 1:-1.2844499 2:2.7566988 3:-0.20331852 4:-0.10591116 5:-0.038398339 
10 1:-1.2844499 2:1.1218137 3:-0.19265434 4:-0.10591116 5:-0.0076664705 
10 1:-1.2844499 2:8.2805124 3:-0.19265434 4:-0.04693933 5:-0.038398339 
10 1:-1.2844499 2:2.0659023 3:-0.18732225 4:-0.10591116 5:-0.069130207 
10 1:-1.2844499 2:2.7566988 3:-0.18732225 4:-0.10591116 5:-0.069130207 
10 1:-1.2844499 2:2.848805 3:-0.19532038 4:-0.10591116 5:-0.069130207 
10 1:-1.2844499 2:0.97853737 3:7.7201692 4:-0.10591116 5:-0.069130207 
10 1:-1.2844499 2:2.7566988 3:8.8079158 4:-0.10591116 5:-0.069130207 
10 1:-1.2844499 2:2.0659023 3:-0.18732225 4:-0.10591116 5:-0.069130207 
10 1:-1.2844499 2:2.7566988 3:-0.18732225 4:-0.10591116 5:-0.0076664705 
10 1:-0.19218703 2:3.997574 3:-0.19532038 4:-0.10591116 5:-0.069130207 
10 1:-1.2844499 2:3.3528306 3:-0.18199016 4:0.30689167 5:-0.0076664705 
10 1:-0.19218703 2:0.28518234 3:-0.046021826 4:0.188948 5:-0.069130207 
10 1:-1.2844499 2:0.3107674 3:-0.20598457 4:-0.04693933 5:-0.069130207 
10 1:-0.19218703 2:-0.2802474 3:-0.13133529 4:-0.10591116 5:0.39184782 
10 1:-1.2844499 2:1.3034676 3:-0.1846562 4:0.3658635 5:-0.038398339 
10 1:-1.2844499 2:2.848805 3:-0.1846562 4:-0.10591116 5:-0.069130207 
10 1:-1.2844499 2:2.848805 3:-0.1846562 4:-0.10591116 5:-0.069130207 
10 1:-1.2844499 2:8.2805124 3:-0.18199016 4:-0.10591116 5:-0.069130207 
10 1:-0.19218703 2:4.007808 3:-0.20598457 4:-0.10591116 5:-0.069130207 
10 1:-1.2844499 2:0.16237407 3:-0.043355781 4:0.188948 5:-0.069130207 
10 1:-1.2844499 2:2.848805 3:-0.1846562 4:-0.10591116 5:0.084529134 
10 1:-1.2844499 2:1.3034676 3:-0.1846562 4:0.3658635 5:-0.0076664705 
10 1:-1.2844499 2:1.1218137 3:2.9026247 4:-0.10591116 5:-0.069130207 
10 1:-1.2844499 2:2.0659023 3:5.5686704 4:-0.10591116 5:-0.069130207 
10 1:-1.2844499 2:8.2805124 3:-0.20598457 4:-0.10591116 5:-0.069130207 
10 1:-1.2844499 2:8.2805124 3:-0.12333715 4:-0.10591116 5:-0.0076664705 
10 1:-1.2844499 2:-0.04742339 3:3.3505204 4:-0.10591116 5:-0.069130207 
5.5100692980725317 1:-1.2844499 2:0.05235833 3:0.82044302 4:1.1914692 5:-0.069130207 
10 1:-1.2844499 2:-0.011604311 3:1.1350364 4:-0.10591116 5:-0.069130207 
10 1:-1.2844499 2:2.848805 3:-0.1846562 4:-0.10591116 5:-0.069130207 
10 1:-1.2844499 2:1.1218137 3:-0.078014375 4:-0.10591116 5:-0.069130207 
10 1:-1.2844499 2:8.2805124 3:0.041957681 4:-0.10591116 5:-0.0076664705 
10 1:-0.19218703 2:-0.28280591 3:-0.13666738 4:0.66072266 5:-0.069130207 
10 1:0.90007586 2:-0.21372626 3:0.70047096 4:0.42483533 5:-0.069130207 
1.6807416165808258 1:-0.19218703 2:4.0154836 3:-0.20331852 4:-0.10591116 5:-0.069130207 
10 1:-1.2844499 2:8.2805124 3:-0.20598457 4:-0.10591116 5:-0.069130207 
10 1:-1.2844499 2:2.848805 3:-0.1846562 4:-0.10591116 5:-0.069130207 
10 1:-1.2844499 2:0.16237407 3:-0.043355781 4:0.188948 5:-0.069130207 
10 1:-1.2844499 2:1.1218137 3:-0.20065248 4:-0.10591116 5:-0.069130207 
10 1:-1.2844499 2:0.16237407 3:-0.043355781 4:0.012032502 5:-0.069130207 
10 1:-1.2844499 2:1.3034676 3:-0.1846562 4:0.3658635 5:-0.0076664705 
10 1:-1.2844499 2:1.1218137 3:2.9026247 4:-0.10591116 5:-0.069130207 
10 1:-1.2844499 2:0.05235833 3:1.2630066 4:0.89660999 5:-0.069130207 
10 1:-1.2844499 2:2.848805 3:-0.1846562 4:-0.04693933 5:-0.069130207 
10 1:-1.2844499 2:1.3034676 3:-0.1846562 4:-0.10591116 5:-0.038398339 
10 1:-1.2844499 2:2.848805 3:-0.1846562 4:-0.10591116 5:-0.069130207 
10 1:-1.2844499 2:1.3034676 3:-0.1846562 4:0.3658635 5:-0.038398339 
10 1:-1.2844499 2:8.2805124 3:-0.18732225 4:-0.10591116 5:-0.0076664705 
10 1:-0.19218703 2:4.007808 3:-0.20598457 4:-0.10591116 5:-0.069130207 
10 1:-1.2844499 2:1.3034676 3:-0.1846562 4:0.3658635 5:-0.038398339 
10 1:-1.2844499 2:2.7566988 3:-0.08068042 4:-0.10591116 5:0.20745661 
10 1:-1.2844499 2:-0.28280591 3:0.089946503 4:-0.10591116 5:-0.069130207 
3.101050825937425 1:-1.2844499 2:-0.28280591 3:0.089946503 4:-0.10591116 5:-0.069130207 
10 1:-1.2844499 2:0.25703878 3:-0.20331852 4:0.012032502 5:-0.069130207 
7.4106059013360772 1:-1.2844499 2:-0.083242469 3:-0.14199947 4:-0.10591116 5:-0.069130207 
10 1:-1.2844499 2:0.067709363 3:-0.19532038 4:-0.04693933 5:-0.069130207 
10 1:-1.2844499 2:0.3107674 3:-0.20598457 4:-0.04693933 5:-0.069130207 
10 1:-0.19218703 2:3.997574 3:-0.19532038 4:-0.10591116 5:-0.069130207 
10 1:-0.19218703 2:4.007808 3:-0.20598457 4:-0.10591116 5:-0.069130207 
10 1:-1.2844499 2:3.3528306 3:-0.18199016 4:-0.10591116 5:-0.0076664705 
10 1:-0.19218703 2:0.28518234 3:-0.046021826 4:0.188948 5:-0.069130207 
10 1:-1.2844499 2:-0.21372626 3:8.8079158 4:-0.10591116 5:-0.069130207 
10 1:-1.2844499 2:-0.21372626 3:8.8079158 4:-0.10591116 5:-0.069130207 
10 1:-1.2844499 2:-0.21372626 3:8.8079158 4:-0.10591116 5:-0.069130207 
10 1:-1.2844499 2:-0.21372626 3:8.8079158 4:-0.10591116 5:-0.069130207 
10 1:-1.2844499 2:-0.21372626 3:8.8079158 4:-0.10591116 5:-0.069130207 
10 1:-1.2844499 2:-0.21372626 3:8.8079158 4:-0.10591116 5:-0.069130207 
10 1:-1.2844499 2:-0.10371051 3:8.8079158 4:-0.10591116 5:0.084529134 
10 1:-0.19218703 2:0.28518234 3:0.36454921 4:-0.04693933 5:-0.069130207 
10 1:-1.2844499 2:-0.28280591 3:-0.035357644 4:-0.10591116 5:-0.069130207 
10 1:-1.2844499 2:-0.21628476 3:4.4622614 4:-0.04693933 5:-0.069130207 
10 1:-0.19218703 2:-0.19325821 3:0.0099651326 4:0.71969449 5:-0.069130207 
10 1:-1.2844499 2:8.2805124 3:-0.13666738 4:0.12997617 5:-0.069130207 
10 1:-1.2844499 2:8.2805124 3:-0.18199016 4:0.48380716 5:-0.0076664705 
10 1:-0.19218703 2:-0.18046568 3:0.70047096 4:-0.10591116 5:1.8055138 
10 1:-1.2844499 2:1.1218137 3:-0.17665806 4:0.071004335 5:-0.069130207 
9.0232711888280814 1:-1.2844499 2:-0.075566952 3:7.7201692 4:3.373427 5:-0.069130207 
10 1:-1.2844499 2:-0.0064872999 3:9.3624533 4:-0.10591116 5:-0.0076664705 
10 1:-1.2844499 2:2.7566988 3:-0.1553297 4:-0.10591116 5:0.23818848 
10 1:-1.2844499 2:-0.21372626 3:8.8079158 4:-0.10591116 5:-0.038398339 
10 1:-1.2844499 2:8.2805124 3:-0.14733156 4:-0.10591116 5:-0.069130207 
10 1:-1.2844499 2:1.3034676 3:0.10327673 4:0.071004335 5:-0.069130207 
10 1:-1.2844499 2:-0.21372626 3:8.8079158 4:-0.10591116 5:-0.069130207 
10 1:-1.2844499 2:8.2805124 3:-0.19532038 4:-0.04693933 5:-0.038398339 
3.4250488224495843 1:-1.2844499 2:-0.28280591 3:-0.00069905009 4:0.071004335 5:-0.069130207 
10 1:-1.2844499 2:-0.04742339 3:3.3505204 4:-0.10591116 5:2.7582017 
10 1:-1.2844499 2:-0.21372626 3:8.8079158 4:-0.10591116 5:-0.069130207 
10 1:0.90007586 2:0.34658648 3:0.95907739 4:-0.10591116 5:-0.069130207 
0.11271493607924268 1:0.90007586 2:-0.28280591 3:-0.11533901 4:0.3658635 5:-0.069130207 
10 1:-1.2844499 2:1.3034676 3:0.10327673 4:0.3658635 5:-0.0076664705 
10 1:-1.2844499 2:8.2805124 3:-0.18199016 4:-0.10591116 5:-0.069130207 
10 1:-0.19218703 2:4.007808 3:-0.20598457 4:-0.10591116 5:-0.069130207 
10 1:-1.2844499 2:-0.21372626 3:8.8079158 4:-0.10591116 5:-0.069130207 
10 1:-1.2844499 2:-0.21372626 3:8.8079158 4:-0.10591116 5:-0.069130207 
10 1:-1.2844499 2:-0.21372626 3:8.8079158 4:-0.10591116 5:-0.069130207 
10 1:-1.2844499 2:-0.10371051 3:8.8079158 4:-0.10591116 5:0.084529134 
0.97541500190736807 1:-1.2844499 2:-0.21628476 3:4.4622614 4:0.24791983 5:-0.069130207 
10 1:-1.2844499 2:-0.21372626 3:8.8079158 4:-0.10591116 5:-0.069130207 
10 1:-1.2844499 2:-0.13185408 3:2.9026247 4:0.3658635 5:-0.069130207 
10 1:-1.2844499 2:-0.21372626 3:8.8079158 4:-0.10591116 5:-0.069130207 
10 1:-1.2844499 2:-0.21628476 3:4.4622614 4:-0.04693933 5:-0.069130207 
10 1:-1.2844499 2:-0.075566952 3:7.7201692 4:3.373427 5:-0.069130207 
10 1:-1.2844499 2:-0.0064872999 3:9.3624533 4:-0.10591116 5:-0.0076664705 
10 1:-1.2844499 2:-0.21372626 3:8.8079158 4:-0.10591116 5:-0.069130207 
10 1:-1.2844499 2:-0.21372626 3:8.8079158 4:-0.10591116 5:-0.069130207 
10 1:-1.2844499 2:-0.21372626 3:8.8079158 4:-0.10591116 5:-0.069130207 
10 1:-1.2844499 2:-0.21372626 3:8.8079158 4:-0.10591116 5:-0.069130207 
10 1:-1.2844499 2:-0.21372626 3:8.8079158 4:-0.10591116 5:-0.069130207 
10 1:-1.2844499 2:-0.21372626 3:8.8079158 4:1.8991311 5:-0.069130207 
10 1:-1.2844499 2:1.1218137 3:-0.20065248 4:-0.10591116 5:-0.069130207 
10 1:-1.2844499 2:-0.21372626 3:8.8079158 4:-0.10591116 5:-0.069130207 
10 1:-1.2844499 2:0.85317059 3:0.64981609 4:0.012032502 5:0.91428958 
10 1:-1.2844499 2:8.2805124 3:-0.20331852 4:-0.04693933 5:-0.0076664705 
10 1:-1.2844499 2:0.85317059 3:2.9026247 4:-0.10591116 5:-0.069130207 
10 1:-1.2844499 2:8.2805124 3:-0.20331852 4:-0.04693933 5:-0.038398339 
0.48813397760099231 1:0.90007586 2:0.29285786 3:1.1350364 4:-0.10591116 5:-0.069130207 
10 1:-1.2844499 2:0.85317059 3:0.64981609 4:-0.10591116 5:0.91428958 
10 1:-1.2844499 2:8.2805124 3:-0.20331852 4:-0.04693933 5:-0.0076664705 
10 1:-1.2844499 2:-0.10371051 3:8.8079158 4:-0.10591116 5:-0.069130207 
10 1:-1.2844499 2:-0.2802474 3:0.61249145 4:-0.10591116 5:3.6801577 
10 1:-1.2844499 2:-0.21372626 3:8.8079158 4:-0.10591116 5:31.123716 
10 1:-1.2844499 2:0.95806932 3:-0.059352055 4:-0.10591116 5:0.023065398 
10 1:-1.2844499 2:1.1218137 3:-0.20065248 4:-0.10591116 5:-0.069130207 
10 1:-1.2844499 2:-0.21372626 3:8.8079158 4:-0.10591116 5:-0.069130207 
10 1:-1.2844499 2:-0.21372626 3:8.8079158 4:-0.10591116 5:-0.069130207 
10 1:-1.2844499 2:1.1218137 3:-0.20065248 4:-0.10591116 5:-0.069130207 
10 1:-1.2844499 2:2.848805 3:-0.17399202 4:0.12997617 5:0.053797266 
10 1:-1.2844499 2:-0.21372626 3:8.8079158 4:-0.10591116 5:-0.069130207 
10 1:-1.2844499 2:-0.21372626 3:8.8079158 4:-0.10591116 5:-0.069130207 
7.8269234060224893 1:-1.2844499 2:0.090735914 3:1.1350364 4:-0.10591116 5:-0.069130207 
10 1:-1.2844499 2:8.2805124 3:-0.20598457 4:-0.04693933 5:-0.069130207 
10 1:-1.2844499 2:-0.21372626 3:8.8079158 4:-0.10591116 5:-0.069130207 
10 1:-1.2844499 2:-0.21372626 3:8.8079158 4:-0.10591116 5:-0.069130207 
10 1:-1.2844499 2:-0.21372626 3:8.8079158 4:-0.10591116 5:-0.069130207 
10 1:-1.2844499 2:-0.21372626 3:8.8079158 4:-0.10591116 5:-0.069130207 
10 1:-1.2844499 2:-0.21372626 3:8.8079158 4:-0.10591116 5:-0.069130207 
10 1:-1.2844499 2:-0.21372626 3:8.8079158 4:0.542779 5:-0.038398339 
10 1:-1.2844499 2:-0.21372626 3:8.8079158 4:-0.10591116 5:-0.069130207 
10 1:-1.2844499 2:-0.21372626 3:8.8079158 4:-0.10591116 5:-0.069130207 
10 1:-1.2844499 2:-0.21372626 3:8.8079158 4:-0.10591116 5:-0.069130207 
10 1:-1.2844499 2:-0.21372626 3:8.8079158 4:-0.10591116 5:-0.069130207 
10 1:-1.2844499 2:-0.21372626 3:8.8079158 4:-0.10591116 5:-0.069130207 
10 1:-1.2844499 2:-0.21372626 3:8.8079158 4:-0.10591116 5:-0.069130207 
10 1:-1.2844499 2:-0.21372626 3:8.8079158 4:-0.10591116 5:-0.069130207 
10 1:-1.2844499 2:-0.21372626 3:8.8079158 4:-0.10591116 5:-0.069130207 
10 1:-1.2844499 2:-0.21372626 3:8.8079158 4:-0.10591116 5:-0.069130207 
10 1:-1.2844499 2:-0.21372626 3:8.8079158 4:-0.10591116 5:-0.069130207 
10 1:-1.2844499 2:-0.21372626 3:8.8079158 4:-0.10591116 5:-0.069130207 
10 1:-1.2844499 2:-0.21372626 3:8.8079158 4:-0.10591116 5:-0.069130207 
10 1:-1.2844499 2:-0.21372626 3:8.8079158 4:-0.10591116 5:-0.069130207 
10 1:-1.2844499 2:-0.21372626 3:8.8079158 4:-0.10591116 5:-0.069130207 
10 1:0.90007586 2:1.5337331 3:0.71646724 4:-0.10591116 5:-0.069130207 
10 1:-1.2844499 2:-0.21372626 3:8.8079158 4:-0.10591116 5:-0.069130207 
10 1:-1.2844499 2:-0.21628476 3:4.4622614 4:0.071004335 5:-0.069130207 
10 1:-1.2844499 2:-0.21372626 3:8.8079158 4:-0.10591116 5:-0.069130207 
10 1:-1.2844499 2:-0.21372626 3:8.8079158 4:-0.10591116 5:-0.069130207 
10 1:-1.2844499 2:-0.21372626 3:8.8079158 4:-0.10591116 5:-0.069130207 
6.8454376152954248 1:-1.2844499 2:-0.21628476 3:4.4622614 4:-0.10591116 5:-0.069130207 
10 1:-1.2844499 2:2.7566988 3:8.8079158 4:-0.10591116 5:-0.038398339 
10 1:-1.2844499 2:-0.21372626 3:8.8079158 4:-0.10591116 5:-0.069130207 
10 1:-1.2844499 2:-0.21628476 3:4.4622614 4:-0.10591116 5:-0.069130207 
10 1:-1.2844499 2:-0.21628476 3:4.4622614 4:-0.10591116 5:-0.069130207 
10 1:-1.2844499 2:-0.21628476 3:4.4622614 4:-0.10591116 5:0.023065398 
10 1:-1.2844499 2:-0.21628476 3:4.4622614 4:-0.04693933 5:-0.069130207 
10 1:-1.2844499 2:-0.21372626 3:8.8079158 4:-0.10591116 5:-0.069130207 
10 1:-1.2844499 2:-0.21372626 3:8.8079158 4:-0.10591116 5:-0.069130207 
10 1:-1.2844499 2:-0.21628476 3:4.4622614 4:-0.10591116 5:-0.069130207 
10 1:-1.2844499 2:1.3034676 3:0.10327673 4:0.3658635 5:0.42257968 
10 1:-1.2844499 2:-0.21628476 3:4.4622614 4:-0.10591116 5:-0.069130207 
10 1:-1.2844499 2:-0.21628476 3:4.4622614 4:-0.10591116 5:-0.069130207 
10 1:-1.2844499 2:-0.21628476 3:4.4622614 4:-0.10591116 5:-0.069130207 
10 1:0.90007586 2:1.5337331 3:0.71646724 4:-0.10591116 5:-0.069130207 
10 1:-0.19218703 2:2.2373221 3:-0.19798643 4:-0.10591116 5:-0.038398339 
10 1:-1.2844499 2:0.85317059 3:0.43386639 4:-0.10591116 5:-0.069130207 
10 1:-1.2844499 2:8.2805124 3:-0.11800506 4:-0.10591116 5:-0.038398339 
10 1:-1.2844499 2:-0.21372626 3:8.8079158 4:-0.10591116 5:-0.069130207 
10 1:-1.2844499 2:-0.21628476 3:4.4622614 4:-0.10591116 5:-0.069130207 
10 1:-1.2844499 2:-0.21372626 3:8.8079158 4:-0.10591116 5:-0.069130207 
10 1:-1.2844499 2:-0.21628476 3:4.4622614 4:-0.10591116 5:-0.069130207 
10 1:-1.2844499 2:-0.21628476 3:4.4622614 4:-0.10591116 5:-0.069130207 
10 1:-1.2844499 2:-0.21372626 3:8.8079158 4:-0.10591116 5:-0.069130207 
10 1:-1.2844499 2:-0.21372626 3:8.8079158 4:-0.10591116 5:-0.069130207 
10 1:-1.2844499 2:1.1218137 3:-0.19532038 4:-0.10591116 5:-0.069130207 
10 1:-1.2844499 2:-0.21628476 3:4.4622614 4:-0.10591116 5:-0.069130207 
10 1:-1.2844499 2:-0.13185408 3:3.3505204 4:-0.10591116 5:2.7582017 
10 1:-1.2844499 2:0.95806932 3:0.28456784 4:0.542779 5:-0.069130207 
10 1:-1.2844499 2:-0.21628476 3:4.4622614 4:-0.10591116 5:-0.069130207 
1.4859504019541847 1:-0.19218703 2:-0.27513039 3:-0.059352055 4:0.30689167 5:-0.069130207 
10 1:-1.2844499 2:-0.21628476 3:4.4622614 4:-0.10591116 5:-0.069130207 
10 1:-1.2844499 2:0.85317059 3:0.71380119 4:-0.04693933 5:-0.0076664705 
10 1:-1.2844499 2:-0.21372626 3:8.8079158 4:-0.10591116 5:-0.069130207 
10 1:-1.2844499 2:-0.21628476 3:4.4622614 4:-0.10591116 5:-0.069130207 
10 1:-1.2844499 2:-0.21628476 3:4.4622614 4:-0.10591116 5:-0.069130207 
10 1:-1.2844499 2:-0.21628476 3:4.4622614 4:-0.10591116 5:-0.069130207 
10 1:-1.2844499 2:-0.21372626 3:8.8079158 4:-0.10591116 5:-0.069130207 
10 1:-1.2844499 2:-0.21628476 3:4.4622614 4:-0.10591116 5:-0.069130207 
10 1:-1.2844499 2:-0.21372626 3:8.8079158 4:-0.10591116 5:-0.069130207 
10 1:-1.2844499 2:-0.21628476 3:4.4622614 4:-0.10591116 5:-0.069130207 
10 1:-1.2844499 2:-0.21372626 3:8.8079158 4:-0.10591116 5:-0.069130207 
10 1:-1.2844499 2:-0.21628476 3:4.4622614 4:-0.10591116 5:-0.069130207 
10 1:-1.2844499 2:-0.21372626 3:8.8079158 4:0.24791983 5:31.123716 
0.3047963896039364 1:-1.2844499 2:-0.21628476 3:4.4622614 4:-0.10591116 5:1.5596588 
10 1:-1.2844499 2:2.848805 3:-0.11533901 4:-0.04693933 5:0.14599287 
10 1:-1.2844499 2:-0.21372626 3:8.8079158 4:-0.10591116 5:-0.069130207 
10 1:-1.2844499 2:-0.21628476 3:4.4622614 4:-0.10591116 5:-0.069130207 
10 1:-0.19218703 2:2.6952946 3:-0.030025552 4:2.8426805 5:-0.038398339 
10 1:-1.2844499 2:0.090735914 3:1.1350364 4:0.48380716 5:-0.069130207 
10 1:-1.2844499 2:-0.21372626 3:8.8079158 4:-0.10591116 5:-0.069130207 
10 1:-1.2844499 2:-0.21628476 3:4.4622614 4:-0.10591116 5:-0.069130207 
10 1:-1.2844499 2:8.2805124 3:-0.20065248 4:-0.10591116 5:-0.069130207 
10 1:-0.19218703 2:2.6952946 3:-0.18998829 4:-0.04693933 5:-0.038398339 
10 1:-1.2844499 2:-0.21628476 3:4.4622614 4:-0.10591116 5:-0.069130207 
5.7641266951651922 1:-1.2844499 2:-0.21628476 3:4.4622614 4:-0.10591116 5:-0.069130207 
1.5527899016685367 1:-1.2844499 2:-0.28280591 3:-0.20065248 4:0.012032502 5:-0.069130207 
10 1:-1.2844499 2:-0.21372626 3:8.8079158 4:0.48380716 5:-0.069130207 
10 1:-1.2844499 2:-0.26233786 3:-0.1553297 4:-0.10591116 5:-0.069130207 
10 1:-1.2844499 2:-0.21372626 3:8.8079158 4:-0.10591116 5:-0.069130207 
10 1:-1.2844499 2:-0.21372626 3:8.8079158 4:-0.10591116 5:-0.038398339 
10 1:-1.2844499 2:0.024214768 3:8.8079158 4:-0.10591116 5:-0.069130207 
10 1:-1.2844499 2:-0.21372626 3:8.8079158 4:-0.10591116 5:-0.069130207 
10 1:-1.2844499 2:-0.21372626 3:8.8079158 4:-0.10591116 5:-0.069130207 
10 1:-1.2844499 2:0.024214768 3:8.8079158 4:-0.10591116 5:-0.069130207 
10 1:-1.2844499 2:2.7566988 3:8.8079158 4:0.12997617 5:-0.069130207 
10 1:-1.2844499 2:-0.21372626 3:8.8079158 4:-0.10591116 5:-0.069130207 
10 1:-1.2844499 2:0.95806932 3:9.3624533 4:-0.10591116 5:-0.069130207 
10 1:-0.19218703 2:4.007808 3:-0.20598457 4:-0.10591116 5:-0.069130207 
2.2843232882878501 1:-1.2844499 2:-0.2802474 3:0.61249145 4:-0.10591116 5:-0.069130207 
10 1:-1.2844499 2:-0.21372626 3:8.8079158 4:-0.10591116 5:-0.069130207 
10 1:-1.2844499 2:-0.2802474 3:0.61249145 4:-0.10591116 5:-0.069130207 
10 1:-1.2844499 2:-0.21372626 3:8.8079158 4:-0.10591116 5:-0.069130207 
10 1:-1.2844499 2:-0.2802474 3:0.61249145 4:-0.10591116 5:-0.069130207 
10 1:-1.2844499 2:-0.21372626 3:8.8079158 4:-0.10591116 5:-0.069130207 
10 1:-1.2844499 2:-0.2802474 3:0.61249145 4:-0.10591116 5:-0.069130207 
10 1:-1.2844499 2:-0.21372626 3:8.8079158 4:-0.10591116 5:-0.069130207 
10 1:-1.2844499 2:-0.2802474 3:0.61249145 4:-0.10591116 5:-0.069130207 
10 1:-1.2844499 2:-0.21372626 3:8.8079158 4:-0.10591116 5:-0.069130207 
10 1:-1.2844499 2:-0.2802474 3:0.61249145 4:-0.10591116 5:-0.069130207 
10 1:-1.2844499 2:-0.21372626 3:8.8079158 4:-0.10591116 5:-0.069130207 
10 1:-1.2844499 2:-0.2802474 3:0.61249145 4:-0.10591116 5:-0.069130207 
10 1:-1.2844499 2:-0.21372626 3:8.8079158 4:-0.10591116 5:-0.069130207 
10 1:-1.2844499 2:-0.2802474 3:0.61249145 4:-0.10591116 5:-0.069130207 
10 1:-1.2844499 2:-0.21372626 3:8.8079158 4:-0.10591116 5:-0.069130207 
10 1:-1.2844499 2:-0.2802474 3:0.61249145 4:-0.10591116 5:-0.069130207 
10 1:-1.2844499 2:-0.21372626 3:8.8079158 4:-0.10591116 5:-0.069130207 
10 1:-1.2844499 2:-0.2802474 3:0.61249145 4:-0.10591116 5:-0.069130207 
10 1:-1.2844499 2:-0.21372626 3:8.8079158 4:-0.10591116 5:-0.069130207 
10 1:-1.2844499 2:-0.2802474 3:0.61249145 4:-0.10591116 5:-0.069130207 
10 1:-1.2844499 2:-0.21372626 3:8.8079158 4:-0.10591116 5:-0.069130207 
0.94073626475454231 1:-1.2844499 2:-0.17279017 3:0.51917986 4:-0.10591116 5:-0.069130207 
10 1:-0.19218703 2:2.2373221 3:-0.20331852 4:-0.10591116 5:-0.0076664705 
10 1:-0.19218703 2:0.89922369 3:0.38587757 4:-0.10591116 5:-0.069130207 
10 1:-1.2844499 2:2.0659023 3:-0.014029278 4:-0.10591116 5:0.20745661 
10 1:-0.19218703 2:1.5209406 3:0.0099651326 4:-0.04693933 5:-0.069130207 
10 1:-1.2844499 2:-0.28280591 3:0.71380119 4:-0.10591116 5:-0.069130207 
10 1:-0.19218703 2:0.019097756 3:1.7109023 4:-0.10591116 5:-0.069130207 
10 1:-1.2844499 2:8.2805124 3:0.041957681 4:-0.10591116 5:-0.069130207 
10 1:-1.2844499 2:0.85317059 3:0.29523202 4:6.6168778 5:-0.069130207 
8.6077772405112754 1:-0.19218703 2:-0.2802474 3:-0.14733156 4:1.1324973 5:-0.069130207 
0.0071579629774518594 1:-0.19218703 2:0.28518234 3:-0.20598457 4:-0.10591116 5:-0.038398339 
0.90827274489185328 1:-1.2844499 2:0.85317059 3:0.012631178 4:-0.10591116 5:-0.0076664705 
10 1:-0.19218703 2:-0.065332929 3:-0.17932411 4:-0.10591116 5:0.084529134 
10 1:-1.2844499 2:0.85317059 3:0.42053617 4:0.012032502 5:0.20745661 
10 1:-1.2844499 2:-0.12929557 3:-0.16865993 4:0.77866633 5:-0.069130207 
10 1:-1.2844499 2:8.2805124 3:-0.20331852 4:-0.10591116 5:-0.069130207 
10 1:-1.2844499 2:0.32867694 3:-0.18199016 4:-0.10591116 5:-0.069130207 
10 1:-1.2844499 2:0.30309188 3:-0.20598457 4:-0.10591116 5:-0.069130207 
10 1:-1.2844499 2:0.85317059 3:-0.1846562 4:0.30689167 5:-0.069130207 
10 1:-0.19218703 2:-0.2802474 3:-0.048687872 4:0.48380716 5:-0.069130207 
10 1:-1.2844499 2:-0.13185408 3:3.3505204 4:-0.10591116 5:0.023065398 
8.4181752728342758 1:-1.2844499 2:0.85317059 3:-0.18998829 4:0.12997617 5:-0.069130207 
10 1:-1.2844499 2:0.29797487 3:-0.20598457 4:-0.10591116 5:-0.069130207 
2.5713778820322624 1:-1.2844499 2:0.85317059 3:5.5686704 4:5.7912721 5:4.8172368 
10 1:-1.2844499 2:0.85317059 3:-0.18998829 4:0.12997617 5:-0.069130207 
10 1:0.90007586 2:-0.28280591 3:-0.20331852 4:0.012032502 5:-0.069130207 
10 1:-0.19218703 2:-0.065332929 3:-0.17932411 4:-0.10591116 5:0.084529134 
10 1:-1.2844499 2:-0.13185408 3:3.3505204 4:-0.10591116 5:2.7582017 
3.758347273489278 1:0.90007586 2:0.52824038 3:0.42053617 4:-0.10591116 5:-0.069130207 
1.3017030110151488 1:-0.19218703 2:-0.28280591 3:-0.070016238 4:0.66072266 5:-0.069130207 
10 1:-0.19218703 2:-0.19581672 3:-0.062018101 4:0.60175083 5:-0.069130207 
10 1:-1.2844499 2:-0.13185408 3:3.3505204 4:-0.10591116 5:0.023065398 
9.4735910059221276 1:0.90007586 2:-0.060215918 3:-0.20598457 4:-0.04693933 5:-0.069130207 
10 1:-1.2844499 2:0.28518234 3:-0.20598457 4:-0.10591116 5:-0.069130207 
10 1:-1.2844499 2:0.85317059 3:-0.19798643 4:-0.10591116 5:-0.069130207 
10 1:-1.2844499 2:8.2805124 3:-0.20598457 4:-0.10591116 5:-0.069130207 
10 1:-1.2844499 2:0.32867694 3:-0.19798643 4:-0.10591116 5:-0.069130207 
10 1:-1.2844499 2:0.29029935 3:-0.20331852 4:-0.10591116 5:-0.069130207 
10 1:-0.19218703 2:-0.065332929 3:-0.17932411 4:-0.10591116 5:0.084529134 
10 1:-1.2844499 2:0.85317059 3:-0.20598457 4:-0.04693933 5:-0.069130207 
10 1:-0.19218703 2:0.30565039 3:-0.1846562 4:0.42483533 5:-0.069130207 
10 1:-1.2844499 2:0.85317059 3:1.1590308 4:9.0936947 5:-0.0076664705 
10 1:-1.2844499 2:-0.28280591 3:-0.19265434 4:0.24791983 5:-0.069130207 
10 1:-1.2844499 2:2.7566988 3:8.8079158 4:0.24791983 5:0.115261 
10 1:0.90007586 2:2.6390075 3:-0.20331852 4:-0.10591116 5:-0.069130207 
10 1:-0.19218703 2:1.8509878 3:-0.19265434 4:-0.10591116 5:0.023065398 
10 1:-0.19218703 2:-0.28280591 3:-0.17399202 4:-0.10591116 5:0.20745661 
10 1:-1.2844499 2:0.85317059 3:9.3624533 4:-0.04693933 5:-0.069130207 
3.7642063400162007 1:-1.2844499 2:0.85317059 3:0.033959544 4:-0.04693933 5:0.42257968 
10 1:-1.2844499 2:0.85317059 3:0.028627452 4:0.48380716 5:-0.0076664705 
0.45043449042703182 1:-0.19218703 2:-0.15743913 3:1.7109023 4:40.46671 5:-0.069130207 
1.596585014281052 1:-0.19218703 2:-0.24954534 3:5.5686704 4:-0.10591116 5:-0.069130207 
8.5538036630783996 1:-1.2844499 2:0.95806932 3:0.047289772 4:-0.10591116 5:-0.069130207 
10 1:-1.2844499 2:2.7566988 3:-0.20598457 4:-0.10591116 5:-0.069130207 
10 1:-0.19218703 2:-0.15743913 3:1.7109023 4:40.46671 5:-0.069130207 
9.5461243283270587 1:-1.2844499 2:0.131672 3:-0.12866924 4:-0.10591116 5:-0.069130207 
3.271554800641661 1:-1.2844499 2:-0.28280591 3:0.40453989 4:-0.10591116 5:-0.069130207 
10 1:-1.2844499 2:0.05235833 3:2.9159549 4:-0.10591116 5:-0.069130207 
10 1:-1.2844499 2:2.848805 3:-0.11533901 4:0.012032502 5:-0.038398339 
10 1:-1.2844499 2:-0.04742339 3:3.3505204 4:-0.10591116 5:12.162153 
10 1:-1.2844499 2:0.28262384 3:-0.19532038 4:0.012032502 5:-0.069130207 
4.0147041056509991 1:-1.2844499 2:-0.27001338 3:-0.14466552 4:0.48380716 5:-0.069130207 
10 1:-1.2844499 2:0.05235833 3:2.9159549 4:-0.10591116 5:-0.069130207 
10 1:-0.19218703 2:-0.15743913 3:1.7109023 4:-0.10591116 5:-0.069130207 
10 1:-1.2844499 2:8.2805124 3:-0.20331852 4:-0.10591116 5:-0.069130207 
10 1:-1.2844499 2:0.97853737 3:-0.15799574 4:-0.10591116 5:-0.038398339 
10 1:-1.2844499 2:0.95806932 3:0.2125846 4:-0.10591116 5:-0.069130207 
10 1:-1.2844499 2:8.2805124 3:-0.14733156 4:-0.10591116 5:0.084529134 
10 1:-1.2844499 2:-0.28280591 3:-0.00069905009 4:-0.04693933 5:-0.069130207 
0.71937350586129245 1:-1.2844499 2:-0.28280591 3:0.40453989 4:0.83763816 5:-0.069130207 
10 1:-1.2844499 2:0.05235833 3:2.9159549 4:1.3094128 5:-0.069130207 
10 1:-1.2844499 2:2.7566988 3:8.8079158 4:-0.10591116 5:1.1908764 
10 1:-1.2844499 2:0.131672 3:4.4622614 4:-0.10591116 5:-0.069130207 
10 1:-1.2844499 2:0.131672 3:-0.19798643 4:-0.04693933 5:-0.069130207 
10 1:-1.2844499 2:0.072826375 3:0.61249145 4:0.012032502 5:-0.069130207 
10 1:-1.2844499 2:0.97853737 3:-0.16066179 4:0.188948 5:0.053797266 
10 1:-1.2844499 2:-0.13185408 3:2.9026247 4:-0.10591116 5:-0.069130207 
2.8650645835743065 1:-1.2844499 2:0.072826375 3:0.61249145 4:-0.04693933 5:-0.069130207 
10 1:-1.2844499 2:8.2805124 3:-0.14733156 4:-0.04693933 5:-0.038398339 
10 1:-1.2844499 2:2.7566988 3:-0.08068042 4:-0.10591116 5:-0.069130207 
9.3216118357083531 1:-1.2844499 2:0.072826375 3:0.61249145 4:-0.10591116 5:-0.069130207 
10 1:-1.2844499 2:0.072826375 3:0.61249145 4:-0.10591116 5:-0.069130207 
10 1:-1.2844499 2:2.848805 3:0.084614411 4:0.012032502 5:-0.069130207 
10 1:-1.2844499 2:0.072826375 3:0.61249145 4:-0.10591116 5:-0.069130207 
10 1:-1.2844499 2:0.072826375 3:0.61249145 4:-0.10591116 5:-0.069130207 
10 1:-1.2844499 2:0.024214768 3:8.8079158 4:-0.10591116 5:-0.069130207 
10 1:-1.2844499 2:0.031890285 3:2.9026247 4:0.012032502 5:-0.038398339 
10 1:-1.2844499 2:-0.04742339 3:3.3505204 4:-0.10591116 5:-0.069130207 
10 1:-0.19218703 2:-0.15743913 3:1.7109023 4:40.46671 5:-0.069130207 
10 1:-1.2844499 2:-0.10371051 3:8.8079158 4:-0.04693933 5:5.5855335 
9.8957424461065244 1:-1.2844499 2:0.66384118 3:0.0099651326 4:-0.10591116 5:-0.038398339 
10 1:-0.19218703 2:2.6952946 3:-0.19798643 4:0.012032502 5:-0.069130207 
10 1:-1.2844499 2:3.3528306 3:-0.20598457 4:-0.04693933 5:-0.038398339 
10 1:-1.2844499 2:1.1218137 3:2.9026247 4:-0.04693933 5:-0.069130207 
10 1:-0.19218703 2:-0.2802474 3:-0.1846562 4:0.42483533 5:-0.038398339 
10 1:-1.2844499 2:0.28262384 3:-0.14466552 4:0.42483533 5:-0.069130207 
10 1:-1.2844499 2:1.1218137 3:2.9026247 4:-0.04693933 5:-0.069130207 
10 1:-1.2844499 2:1.1218137 3:2.9026247 4:0.012032502 5:-0.069130207 
10 1:-0.19218703 2:-0.15743913 3:1.7109023 4:40.46671 5:-0.069130207 
10 1:-1.2844499 2:0.131672 3:7.7201692 4:7.6193989 5:-0.069130207 
10 1:-1.2844499 2:0.024214768 3:1.1350364 4:0.83763816 5:-0.069130207 
10 1:-1.2844499 2:0.28262384 3:-0.18199016 4:0.12997617 5:-0.069130207 
6.8393138427195934 1:-1.2844499 2:-0.062774424 3:0.71380119 4:-0.10591116 5:-0.069130207 
10 1:-1.2844499 2:-0.28280591 3:1.1616969 4:1.1914692 5:-0.069130207 
10 1:-1.2844499 2:-0.23675281 3:0.23657901 4:0.71969449 5:-0.069130207 
10 1:-1.2844499 2:8.2805124 3:-0.19798643 4:0.012032502 5:-0.0076664705 
9.5096490168491989 1:-1.2844499 2:-0.28280591 3:-0.051353918 4:0.89660999 5:-0.069130207 
9.2806789408931891 1:0.90007586 2:0.33635245 3:-0.20331852 4:0.012032502 5:-0.069130207 
10 1:-1.2844499 2:0.97853737 3:0.84710347 4:-0.10591116 5:-0.038398339 
10 1:-1.2844499 2:0.97853737 3:-0.19798643 4:-0.10591116 5:-0.038398339 
10 1:-1.2844499 2:0.97853737 3:0.84710347 4:10.037244 5:2.5123467 
10 1:-1.2844499 2:0.024214768 3:1.1350364 4:0.3658635 5:-0.069130207 
10 1:-1.2844499 2:-0.067891435 3:2.9026247 4:0.071004335 5:-0.069130207 
10 1:-1.2844499 2:8.2805124 3:-0.16332784 4:-0.04693933 5:-0.038398339 
10 1:-1.2844499 2:0.66384118 3:0.0099651326 4:4.6708073 5:-0.0076664705 
10 1:-1.2844499 2:-0.10371051 3:8.8079158 4:-0.04693933 5:5.5855335 
10 1:-1.2844499 2:2.0659023 3:-0.10467483 4:-0.10591116 5:0.14599287 
10 1:-1.2844499 2:0.97853737 3:7.7201692 4:-0.10591116 5:0.115261 
10 1:-1.2844499 2:0.97853737 3:7.7201692 4:-0.10591116 5:-0.069130207 
10 1:-1.2844499 2:0.19051763 3:10.548844 4:0.95558182 5:-0.069130207 
10 1:-1.2844499 2:0.97853737 3:-0.20065248 4:-0.10591116 5:-0.069130207 
10 1:-1.2844499 2:0.97853737 3:-0.14466552 4:-0.10591116 5:-0.0076664705 
10 1:-1.2844499 2:2.0659023 3:-0.10467483 4:-0.04693933 5:-0.069130207 
10 1:-1.2844499 2:-0.13185408 3:2.9026247 4:-0.10591116 5:-0.069130207 
10 1:-1.2844499 2:-0.21116775 3:-0.20598457 4:-0.10591116 5:-0.069130207 
6.8494587896907513 1:-1.2844499 2:0.85317059 3:0.51651381 4:5.7323003 5:0.48404342 
10 1:-1.2844499 2:2.848805 3:-0.20598457 4:-0.04693933 5:-0.038398339 
10 1:-0.19218703 2:3.997574 3:0.025961407 4:-0.04693933 5:-0.0076664705 
10 1:0.90007586 2:0.29285786 3:1.2630066 4:-0.10591116 5:-0.069130207 
10 1:-1.2844499 2:8.2805124 3:-0.070016238 4:-0.04693933 5:0.26892034 
10 1:-1.2844499 2:2.7566988 3:8.8079158 4:-0.04693933 5:31.123716 
10 1:-1.2844499 2:-0.13185408 3:4.4622614 4:-0.10591116 5:-0.069130207 
10 1:-1.2844499 2:0.037007296 3:1.1350364 4:0.83763816 5:-0.069130207 
10 1:-1.2844499 2:0.97853737 3:7.7201692 4:-0.10591116 5:-0.069130207 
10 1:-1.2844499 2:-0.075566952 3:1.1350364 4:0.89660999 5:-0.069130207 
10 1:-1.2844499 2:1.1218137 3:2.9026247 4:-0.10591116 5:-0.038398339 
0.59266175374323493 1:-1.2844499 2:0.66384118 3:0.0099651326 4:4.6708073 5:0.23818848 
10 1:-1.2844499 2:0.97853737 3:-0.19798643 4:-0.10591116 5:-0.038398339 
10 1:-1.2844499 2:0.024214768 3:1.1350364 4:0.3658635 5:-0.069130207 
10 1:-1.2844499 2:-0.067891435 3:2.9026247 4:0.071004335 5:-0.069130207 
10 1:-0.19218703 2:0.19307614 3:-0.19532038 4:-0.04693933 5:-0.069130207 
10 1:-1.2844499 2:0.28262384 3:0.10061069 4:-0.10591116 5:-0.069130207 
10 1:-0.19218703 2:-0.28280591 3:5.5686704 4:0.42483533 5:9.5192127 
10 1:-1.2844499 2:1.1218137 3:-0.20598457 4:-0.10591116 5:-0.038398339 
10 1:-1.2844499 2:2.7566988 3:8.8079158 4:-0.04693933 5:31.123716 
10 1:0.90007586 2:0.29285786 3:1.2630066 4:-0.10591116 5:-0.069130207 
10 1:-1.2844499 2:0.85317059 3:9.2184869 4:0.188948 5:0.26892034 
10 1:-1.2844499 2:8.2805124 3:-0.070016238 4:-0.04693933 5:-0.0076664705 
10 1:-1.2844499 2:1.1218137 3:-0.18199016 4:-0.10591116 5:0.053797266 
10 1:-1.2844499 2:0.97853737 3:-0.091344603 4:-0.10591116 5:-0.069130207 
10 1:-1.2844499 2:0.85317059 3:0.044623726 4:-0.10591116 5:0.26892034 
10 1:-1.2844499 2:-0.21116775 3:-0.20598457 4:-0.10591116 5:-0.069130207 
10 1:-1.2844499 2:1.1218137 3:2.9026247 4:-0.10591116 5:-0.069130207 
10 1:-1.2844499 2:-0.28280591 3:-0.091344603 4:-0.10591116 5:-0.069130207 
1.4575142584797849 1:-1.2844499 2:-0.28280591 3:-0.16332784 4:-0.10591116 5:-0.069130207 
10 1:-1.2844499 2:-0.28280591 3:10.548844 4:-0.10591116 5:-0.069130207 
10 1:-1.2844499 2:1.1218137 3:2.9026247 4:0.3658635 5:-0.069130207 
10 1:-1.2844499 2:0.97853737 3:0.51651381 4:0.012032502 5:0.26892034 
10 1:-1.2844499 2:8.2805124 3:-0.20598457 4:-0.04693933 5:-0.038398339 
10 1:-1.2844499 2:1.1218137 3:2.9026247 4:0.012032502 5:-0.069130207 
10 1:-1.2844499 2:1.1218137 3:2.9026247 4:0.012032502 5:-0.069130207 
10 1:-0.19218703 2:2.6952946 3:-0.20331852 4:-0.04693933 5:-0.0076664705 
10 1:-0.19218703 2:-0.27513039 3:-0.030025552 4:-0.10591116 5:0.54550716 
10 1:-1.2844499 2:0.131672 3:4.4622614 4:-0.10591116 5:-0.069130207 
10 1:-0.19218703 2:0.3568205 3:-0.1846562 4:0.42483533 5:-0.069130207 
10 1:-0.19218703 2:-0.28280591 3:-0.17132597 4:0.188948 5:0.084529134 
10 1:-1.2844499 2:-0.28280591 3:-0.19265434 4:0.24791983 5:-0.069130207 
0.65901171493871602 1:0.90007586 2:0.33891096 3:-0.16865993 4:0.42483533 5:-0.069130207 
10 1:-1.2844499 2:-0.075566952 3:1.1350364 4:0.89660999 5:-0.069130207 
10 1:-1.2844499 2:0.131672 3:-0.19798643 4:-0.04693933 5:-0.069130207 
10 1:-1.2844499 2:-0.13185408 3:4.4622614 4:-0.10591116 5:-0.069130207 
10 1:-1.2844499 2:2.7566988 3:-0.054019964 4:-0.10591116 5:-0.038398339 
10 1:-1.2844499 2:-0.25210384 3:0.97507367 4:0.95558182 5:-0.069130207 
10 1:-1.2844499 2:8.2805124 3:-0.20331852 4:-0.10591116 5:-0.069130207 
10 1:-1.2844499 2:0.32867694 3:-0.18199016 4:-0.10591116 5:-0.069130207 
10 1:-0.19218703 2:-0.19069971 3:-0.13666738 4:0.66072266 5:0.20745661 
10 1:-1.2844499 2:0.30309188 3:-0.20598457 4:-0.10591116 5:-0.069130207 
10 1:-1.2844499 2:-0.24954534 3:4.4622614 4:-0.10591116 5:1.5596588 
3.5616596252022639 1:-1.2844499 2:0.3107674 3:-0.13933342 4:-0.04693933 5:-0.069130207 
3.9898929080426715 1:-1.2844499 2:0.131672 3:-0.20065248 4:-0.10591116 5:-0.069130207 
10 1:-1.2844499 2:2.7566988 3:4.4622614 4:6.2630468 5:0.14599287 
10 1:-1.2844499 2:-0.28280591 3:10.548844 4:-0.10591116 5:-0.069130207 
10 1:-1.2844499 2:-0.28280591 3:10.548844 4:3.019596 5:-0.069130207 
10 1:-1.2844499 2:0.66384118 3:0.0099651326 4:4.6708073 5:0.23818848 
10 1:-1.2844499 2:-0.13185408 3:2.9026247 4:0.071004335 5:-0.069130207 
10 1:-1.2844499 2:1.1218137 3:-0.1846562 4:0.012032502 5:-0.069130207 
10 1:-1.2844499 2:0.131672 3:-0.20065248 4:-0.10591116 5:-0.069130207 
10 1:-1.2844499 2:-0.0064872999 3:-0.17932411 4:-0.10591116 5:-0.069130207 
10 1:-1.2844499 2:0.85317059 3:1.111042 4:25.075061 5:-0.038398339 
10 1:-1.2844499 2:8.2805124 3:-0.014029278 4:3.6093143 5:0.29965221 
10 1:-1.2844499 2:0.131672 3:-0.19798643 4:-0.04693933 5:-0.069130207 
10 1:-1.2844499 2:0.090735914 3:1.1350364 4:0.3658635 5:-0.069130207 
10 1:-1.2844499 2:0.077943386 3:5.5686704 4:-0.10591116 5:-0.069130207 
10 1:-1.2844499 2:-0.0064872999 3:9.3624533 4:-0.10591116 5:-0.069130207 
10 1:-1.2844499 2:-0.13185408 3:2.9026247 4:-0.10591116 5:-0.069130207 
10 1:-1.2844499 2:0.090735914 3:1.1350364 4:-0.10591116 5:-0.069130207 
10 1:-1.2844499 2:1.1218137 3:-0.12866924 4:-0.04693933 5:-0.0076664705 
10 1:-1.2844499 2:-0.10371051 3:8.8079158 4:-0.04693933 5:3.2191797 
10 1:-1.2844499 2:0.95806932 3:0.84710347 4:1.4863283 5:-0.069130207 
10 1:-1.2844499 2:1.1218137 3:-0.1553297 4:-0.10591116 5:-0.069130207 
10 1:-1.2844499 2:0.024214768 3:1.1350364 4:0.3658635 5:-0.069130207 
10 1:-1.2844499 2:-0.0064872999 3:9.3624533 4:-0.10591116 5:-0.069130207 
10 1:-1.2844499 2:-0.13185408 3:2.9026247 4:-0.10591116 5:-0.069130207 
10 1:-1.2844499 2:0.024214768 3:8.8079158 4:-0.10591116 5:-0.069130207 
10 1:-1.2844499 2:-0.0064872999 3:-0.16332784 4:-0.10591116 5:-0.069130207 
10 1:0.90007586 2:0.29285786 3:1.2630066 4:-0.10591116 5:-0.069130207 
10 1:-1.2844499 2:0.85317059 3:9.2184869 4:0.42483533 5:0.39184782 
10 1:-1.2844499 2:8.2805124 3:-0.1260032 4:-0.04693933 5:-0.038398339 
10 1:-1.2844499 2:-0.04742339 3:3.3505204 4:1.3094128 5:0.48404342 
10 1:-1.2844499 2:-0.17279017 3:5.5686704 4:5.7912721 5:-0.069130207 
10 1:-1.2844499 2:0.97853737 3:-0.083346466 4:-0.10591116 5:0.39184782 
10 1:-1.2844499 2:0.05235833 3:2.9159549 4:1.4273565 5:-0.069130207 
10 1:-1.2844499 2:0.85317059 3:0.32722457 4:0.30689167 5:0.084529134 
10 1:-1.2844499 2:8.2805124 3:-0.17932411 4:-0.04693933 5:-0.0076664705 
10 1:-1.2844499 2:0.28262384 3:-0.15266365 4:0.24791983 5:-0.069130207 
10 1:-1.2844499 2:0.28262384 3:-0.048687872 4:0.48380716 5:-0.069130207 
10 1:-1.2844499 2:1.1218137 3:2.9026247 4:0.12997617 5:-0.069130207 
10 1:-1.2844499 2:1.1218137 3:0.033959544 4:-0.10591116 5:0.94502144 
10 1:-1.2844499 2:1.1218137 3:0.033959544 4:1.1324973 5:0.42257968 
10 1:-1.2844499 2:0.97853737 3:-0.20065248 4:-0.10591116 5:-0.069130207 
10 1:-1.2844499 2:0.95806932 3:0.82044302 4:0.12997617 5:-0.038398339 
10 1:-1.2844499 2:-0.28280591 3:0.17792601 4:0.012032502 5:3.9260127 
10 1:-1.2844499 2:1.1218137 3:-0.1553297 4:-0.10591116 5:-0.069130207 
10 1:0.90007586 2:5.4866243 3:-0.20065248 4:-0.04693933 5:-0.038398339 
10 1:-1.2844499 2:8.2805124 3:-0.17132597 4:0.012032502 5:0.084529134 
10 1:-1.2844499 2:-0.13185408 3:4.4622614 4:-0.10591116 5:-0.069130207 
10 1:-1.2844499 2:0.037007296 3:1.1350364 4:0.071004335 5:-0.069130207 
10 1:-1.2844499 2:-0.12417856 3:1.2630066 4:0.012032502 5:-0.069130207 
10 1:-1.2844499 2:-0.22651878 3:0.97507367 4:0.48380716 5:-0.069130207 
10 1:-1.2844499 2:-0.13185408 3:4.4622614 4:-0.10591116 5:0.23818848 
10 1:-0.19218703 2:-0.27513039 3:0.0099651326 4:0.71969449 5:-0.038398339 
10 1:-1.2844499 2:0.97853737 3:-0.16599388 4:-0.04693933 5:-0.0076664705 
10 1:-1.2844499 2:-0.075566952 3:1.1350364 4:0.48380716 5:-0.069130207 
10 1:-1.2844499 2:0.05235833 3:1.2630066 4:0.071004335 5:-0.069130207 
10 1:-1.2844499 2:-0.075566952 3:0.95907739 4:1.1324973 5:-0.069130207 
10 1:-1.2844499 2:2.848805 3:-0.096676694 4:-0.04693933 5:0.023065398 
10 1:-0.19218703 2:-0.26745487 3:-0.10200879 4:0.71969449 5:-0.0076664705 
10 1:-1.2844499 2:0.85317059 3:1.3696484 4:17.467695 5:0.115261 
10 1:-1.2844499 2:8.2805124 3:-0.067350192 4:0.77866633 5:-0.0076664705 
10 1:-1.2844499 2:-0.2802474 3:-0.19798643 4:0.12997617 5:-0.069130207 
10 1:-1.2844499 2:0.19051763 3:10.548844 4:-0.10591116 5:-0.069130207 
10 1:-1.2844499 2:-0.13185408 3:4.4622614 4:-0.10591116 5:-0.069130207 
10 1:-0.19218703 2:0.33635245 3:-0.14199947 4:0.188948 5:-0.069130207 
10 1:-1.2844499 2:-0.13185408 3:2.9026247 4:-0.10591116 5:-0.069130207 
10 1:-1.2844499 2:0.19051763 3:1.2630066 4:0.12997617 5:-0.069130207 
10 1:-1.2844499 2:1.1218137 3:1.1590308 4:9.0936947 5:-0.038398339 
10 1:-1.2844499 2:0.97853737 3:7.7201692 4:-0.10591116 5:-0.038398339 
6.6543817905506053 1:-0.19218703 2:-0.28280591 3:-0.14199947 4:1.0735255 5:0.053797266 
10 1:-0.19218703 2:2.6952946 3:-0.043355781 4:-0.04693933 5:-0.038398339 
10 1:-1.2844499 2:-0.14976362 3:8.8079158 4:0.89660999 5:-0.069130207 
10 1:-1.2844499 2:-0.24954534 3:4.4622614 4:7.2655679 5:-0.069130207 
10 1:-1.2844499 2:-0.17279017 3:5.5686704 4:-0.10591116 5:0.023065398 
10 1:-1.2844499 2:-0.10371051 3:8.8079158 4:1.5453002 5:-0.069130207 
10 1:-1.2844499 2:-0.04742339 3:3.3505204 4:1.1914692 5:-0.069130207 
10 1:-1.2844499 2:0.090735914 3:1.1350364 4:0.83763816 5:-0.069130207 
10 1:-1.2844499 2:1.1218137 3:-0.024693461 4:-0.10591116 5:0.053797266 
10 1:-1.2844499 2:0.090735914 3:1.1350364 4:-0.10591116 5:-0.069130207 
10 1:-1.2844499 2:-0.10371051 3:8.8079158 4:0.48380716 5:-0.069130207 
10 1:-1.2844499 2:0.031890285 3:2.9026247 4:0.42483533 5:-0.069130207 
10 1:-1.2844499 2:0.19051763 3:10.548844 4:-0.10591116 5:-0.038398339 
10 1:-1.2844499 2:0.19051763 3:10.548844 4:-0.10591116 5:-0.069130207 
10 1:-1.2844499 2:1.1218137 3:-0.17932411 4:-0.10591116 5:-0.069130207 
10 1:-1.2844499 2:0.97853737 3:0.43386639 4:-0.10591116 5:-0.0076664705 
10 1:-1.2844499 2:0.95806932 3:-0.20331852 4:-0.10591116 5:-0.069130207 
10 1:-1.2844499 2:2.848805 3:-0.11533901 4:-0.10591116 5:-0.069130207 
10 1:0.90007586 2:-0.28280591 3:-0.19798643 4:0.12997617 5:-0.069130207 
10 1:0.90007586 2:-0.28280591 3:-0.20331852 4:0.012032502 5:-0.069130207 
10 1:-1.2844499 2:-0.075566952 3:1.1350364 4:0.66072266 5:-0.069130207 
10 1:-1.2844499 2:1.1218137 3:2.9026247 4:-0.10591116 5:-0.069130207 
10 1:-1.2844499 2:0.05235833 3:1.2630066 4:0.12997617 5:-0.069130207 
10 1:-1.2844499 2:-0.075566952 3:1.1350364 4:1.1914692 5:-0.069130207 
10 1:-1.2844499 2:1.1218137 3:2.9026247 4:-0.10591116 5:-0.069130207 
10 1:-1.2844499 2:0.05235833 3:1.2630066 4:0.42483533 5:-0.069130207 
10 1:-1.2844499 2:-0.28280591 3:-0.091344603 4:-0.10591116 5:-0.069130207 
10 1:-1.2844499 2:-0.28280591 3:-0.16332784 4:-0.10591116 5:-0.069130207 
10 1:-1.2844499 2:-0.28280591 3:10.548844 4:-0.10591116 5:-0.069130207 
10 1:-1.2844499 2:8.2805124 3:-0.20065248 4:-0.10591116 5:-0.038398339 
10 1:-1.2844499 2:-0.28280591 3:-0.091344603 4:-0.10591116 5:-0.069130207 
10 1:-1.2844499 2:-0.28280591 3:-0.16332784 4:-0.10591116 5:-0.069130207 
10 1:-1.2844499 2:-0.28280591 3:10.548844 4:-0.10591116 5:-0.069130207 
10 1:-1.2844499 2:0.85317059 3:-0.12333715 4:-0.10591116 5:0.17672474 
10 1:-1.2844499 2:8.2805124 3:-0.20065248 4:-0.10591116 5:-0.038398339 
10 1:-1.2844499 2:-0.28280591 3:10.548844 4:-0.10591116 5:-0.069130207 
10 1:-1.2844499 2:-0.28280591 3:10.548844 4:3.019596 5:-0.069130207 
10 1:-1.2844499 2:-0.28280591 3:10.548844 4:-0.10591116 5:-0.069130207 
10 1:-1.2844499 2:0.31844292 3:-0.030025552 4:0.012032502 5:-0.069130207 
10 1:-1.2844499 2:-0.075566952 3:1.1350364 4:0.89660999 5:-0.069130207 
10 1:-1.2844499 2:1.1218137 3:2.9026247 4:-0.10591116 5:-0.069130207 
10 1:-1.2844499 2:-0.075566952 3:1.1350364 4:0.89660999 5:-0.069130207 
10 1:-1.2844499 2:1.1218137 3:2.9026247 4:-0.10591116 5:-0.069130207 
10 1:-1.2844499 2:1.1218137 3:2.9026247 4:-0.10591116 5:-0.069130207 
10 1:-1.2844499 2:0.05235833 3:1.2630066 4:0.89660999 5:-0.069130207 
10 1:-1.2844499 2:-0.075566952 3:1.1350364 4:0.66072266 5:-0.069130207 
10 1:-1.2844499 2:1.1218137 3:2.9026247 4:-0.10591116 5:-0.069130207 
10 1:-1.2844499 2:0.05235833 3:1.2630066 4:0.12997617 5:-0.069130207 
10 1:-1.2844499 2:-0.13185408 3:2.9026247 4:-0.10591116 5:-0.069130207 
10 1:-1.2844499 2:0.85317059 3:-0.00069905009 4:-0.10591116 5:-0.069130207 
10 1:-1.2844499 2:0.95806932 3:0.19125624 4:-0.10591116 5:-0.069130207 
10 1:-1.2844499 2:0.97853737 3:7.7201692 4:-0.10591116 5:-0.069130207 
10 1:-1.2844499 2:0.85317059 3:-0.19798643 4:-0.10591116 5:-0.069130207 
10 1:-1.2844499 2:8.2805124 3:-0.17932411 4:-0.10591116 5:0.17672474 
10 1:-1.2844499 2:3.3528306 3:-0.18199016 4:0.30689167 5:0.115261 
10 1:-1.2844499 2:-0.28280591 3:0.71380119 4:-0.10591116 5:-0.069130207 
10 1:-1.2844499 2:3.3528306 3:0.012631178 4:1.8401593 5:0.17672474 
10 1:-0.19218703 2:1.5209406 3:0.020629315 4:-0.10591116 5:0.23818848 
10 1:-0.19218703 2:1.1729838 3:-0.11000692 4:-0.10591116 5:-0.038398339 
10 1:-1.2844499 2:0.85317059 3:0.29523202 4:6.6168778 5:-0.069130207 
10 1:-0.19218703 2:0.57429348 3:-0.078014375 4:-0.10591116 5:0.17672474 
10 1:-0.19218703 2:0.019097756 3:1.7109023 4:-0.10591116 5:-0.069130207 
10 1:-1.2844499 2:0.85317059 3:0.29523202 4:6.6168778 5:-0.069130207 
10 1:-1.2844499 2:0.95806932 3:0.047289772 4:-0.10591116 5:-0.069130207 
10 1:-1.2844499 2:0.95806932 3:-0.20331852 4:-0.10591116 5:-0.069130207 
10 1:0.90007586 2:0.52824038 3:0.42053617 4:-0.10591116 5:-0.069130207 
10 1:-0.19218703 2:1.5209406 3:0.020629315 4:-0.10591116 5:0.23818848 
1.8044194754838307 1:-0.19218703 2:0.92480875 3:-0.17132597 4:-0.10591116 5:-0.038398339 
10 1:-0.19218703 2:1.1729838 3:-0.11000692 4:-0.10591116 5:-0.038398339 
10 1:-1.2844499 2:0.85317059 3:0.29523202 4:6.6168778 5:-0.069130207 
10 1:-0.19218703 2:0.57429348 3:-0.078014375 4:-0.10591116 5:0.17672474 
10 1:-0.19218703 2:-0.19581672 3:0.047289772 4:1.5453002 5:0.023065398 
10 1:-1.2844499 2:0.85317059 3:0.29523202 4:6.6168778 5:-0.069130207 
10 1:-1.2844499 2:8.2805124 3:-0.20331852 4:-0.10591116 5:-0.069130207 
10 1:-1.2844499 2:0.32867694 3:-0.18199016 4:-0.10591116 5:-0.069130207 
10 1:-1.2844499 2:0.30309188 3:-0.20598457 4:-0.10591116 5:-0.069130207 
10 1:-1.2844499 2:8.2805124 3:-0.20331852 4:-0.10591116 5:-0.069130207 
10 1:-1.2844499 2:0.32867694 3:-0.18199016 4:-0.10591116 5:-0.069130207 
10 1:-1.2844499 2:0.30309188 3:-0.20598457 4:-0.10591116 5:-0.069130207 
8.3990888394418892 1:-1.2844499 2:0.85317059 3:0.63915191 4:-0.04693933 5:-0.069130207 
10 1:-1.2844499 2:0.090735914 3:-0.20065248 4:-0.10591116 5:-0.069130207 
10 1:-0.19218703 2:3.997574 3:-0.20598457 4:-0.10591116 5:-0.069130207 
1.6418206636750357 1:0.90007586 2:-0.23675281 3:-0.18998829 4:0.24791983 5:-0.069130207 
10 1:0.90007586 2:-0.2776889 3:-0.1846562 4:0.42483533 5:-0.069130207 
10 1:-0.19218703 2:4.0359516 3:-0.18998829 4:-0.10591116 5:-0.069130207 
10 1:-1.2844499 2:0.85317059 3:0.65514819 4:7.5014552 5:-0.069130207 
10 1:-1.2844499 2:2.7566988 3:-0.08068042 4:-0.10591116 5:-0.069130207 
5.8904617915619299 1:0.90007586 2:-0.23931131 3:-0.16865993 4:0.66072266 5:-0.069130207 
10 1:-1.2844499 2:8.2805124 3:-0.20331852 4:-0.10591116 5:-0.069130207 
10 1:-1.2844499 2:0.32867694 3:-0.18199016 4:-0.10591116 5:-0.069130207 
10 1:-1.2844499 2:0.30309188 3:-0.20598457 4:-0.10591116 5:-0.069130207 
10 1:-1.2844499 2:0.85317059 3:1.1590308 4:-0.04693933 5:0.82209397 
9.6589740846633205 1:0.90007586 2:0.11376246 3:-0.20331852 4:0.012032502 5:-0.069130207 
3.0586705440756607 1:-0.19218703 2:-0.057657413 3:-0.20598457 4:-0.04693933 5:-0.069130207 
10 1:-0.19218703 2:0.083060397 3:-0.20331852 4:-0.10591116 5:-0.038398339 
10 1:-1.2844499 2:-0.13185408 3:3.3505204 4:-0.10591116 5:0.023065398 
10 1:-0.19218703 2:0.28518234 3:0.089946503 4:4.5528636 5:0.29965221 
10 1:-1.2844499 2:-0.12929557 3:-0.16865993 4:0.77866633 5:-0.069130207 
10 1:-0.19218703 2:0.28518234 3:-0.14999761 4:-0.10591116 5:0.023065398 
10 1:-1.2844499 2:0.29797487 3:-0.20598457 4:-0.10591116 5:-0.069130207 
10 1:-1.2844499 2:0.85317059 3:0.43386639 4:-0.10591116 5:-0.069130207 
10 1:-0.19218703 2:1.5209406 3:-0.040689735 4:-0.10591116 5:-0.069130207 
10 1:-1.2844499 2:0.85317059 3:-0.20598457 4:-0.04693933 5:-0.069130207 
10 1:-0.19218703 2:-0.15743913 3:1.7109023 4:40.46671 5:-0.038398339 
10 1:-0.19218703 2:1.5925787 3:-0.17132597 4:-0.10591116 5:-0.038398339 
7.9805373295329778 1:0.90007586 2:0.10352844 3:-0.19532038 4:0.071004335 5:-0.069130207 
10 1:-0.19218703 2:4.0359516 3:-0.18998829 4:-0.10591116 5:-0.069130207 
