svm_type c_svc
kernel_type polynomial
degree 3
gamma 1
coef0 1
nr_class 2
total_sv 23796
rho -1.022668736423332
label 0 1
nr_sv 11911 11885
SV
10 1:0.66666667 2:0.50194204 
10 1:0.66666667 2:0.21063639 3:0.0072509176 4:0.00063251107 
10 1:0.66666667 2:0.50194204 
10 1:0.66666667 2:0.21063639 3:0.0002685525 
10 1:0.66666667 2:0.22796534 
10 1:0.66666667 2:0.21063639 3:0.0076089876 
10 1:0.66666667 2:0.21063639 3:0.0002685525 
10 1:0.66666667 2:0.18314909 3:0.0069823651 
10 1:0.66666667 2:0.2942934 3:8.9517501e-05 5:0.0019704433 
10 1:0.33333333 2:0.14490589 
10 1:0.66666667 2:0.20525844 4:0.00063251107 
10 1:0.33333333 2:0.13265611 3:0.0214842 5:0.002955665 
10 1:0.66666667 2:0.21063639 3:0.0002685525 
10 1:0.66666667 2:0.21063639 3:0.0002685525 
10 1:0.66666667 2:0.21900209 3:0.0011637275 
10 1:0.33333333 2:0.14490589 
10 1:0.66666667 2:0.21900209 3:0.0011637275 
10 1:0.66666667 2:0.21063639 3:0.0002685525 
10 1:0.66666667 2:0.20525844 3:0.0002685525 
10 1:0.66666667 2:0.21033762 3:8.9517501e-05 
10 1:0.66666667 2:0.21063639 3:0.0002685525 
10 1:0.66666667 2:0.21063639 3:0.0002685525 
10 1:0.66666667 2:0.21063639 3:0.0002685525 
10 1:0.66666667 2:0.21063639 3:0.0002685525 
10 1:0.66666667 2:0.21063639 3:0.0002685525 
10 1:0.33333333 2:0.13265611 3:0.0045653925 4:0.0082226439 
10 1:0.66666667 2:0.21063639 3:0.0002685525 
10 1:0.66666667 2:0.50044816 3:0.0013427625 
10 1:0.66666667 2:0.2942934 3:8.9517501e-05 
10 1:0.66666667 2:0.20944129 3:0.000179035 
10 1:0.33333333 2:0.13265611 3:0.001253245 4:0.0012650221 
10 1:0.33333333 2:0.14729609 3:8.9517501e-05 
10 1:0.33333333 2:0.13265611 3:0.00107421 4:0.0012650221 
10 1:0.33333333 2:0.00029877502 3:0.01647122 
10 1:0.33333333 2:0.13265611 3:0.002327455 4:0.0037950664 
10 1:1 2:0.050492979 3:0.0040282875 5:0.039408867 
10 1:0.66666667 2:0.21063639 3:0.0002685525 
10 1:0.66666667 2:0.21063639 3:0.0002685525 
10 1:0.66666667 2:0.21063639 3:0.0002685525 
10 1:0.33333333 2:0.13265611 3:0.0078775401 4:0.0025300443 
10 1:1 2:0.49985061 3:0.001969385 5:0.0049261084 
10 1:0.66666667 2:0.21063639 3:0.0002685525 
10 1:0.66666667 2:0.21900209 3:0.0011637275 
10 1:0.66666667 2:0.21900209 3:0.0011637275 
10 1:0.33333333 2:0.13265611 3:0.0085041626 5:0.00098522167 
10 1:0.66666667 2:0.21063639 3:0.0002685525 
10 1:0.33333333 2:0.13265611 3:0.014054248 
10 1:0.66666667 2:0.50014939 
10 1:0.66666667 2:0.19330744 3:0.0086831976 5:0.002955665 
10 1:0.66666667 2:0.20525844 
10 1:0.66666667 2:0.21033762 
10 1:0.66666667 2:0.50194204 3:8.9517501e-05 
10 1:0.33333333 2:0.13265611 3:0.0089517501 
10 1:0.33333333 2:0.13265611 3:0.0018798675 4:0.0018975332 
10 1:0.66666667 2:0.2942934 3:0.00080565751 
10 1:0.66666667 2:0.21900209 3:0.0011637275 
10 1:0.33333333 2:0.14490589 
10 1:0.33333333 2:0.14729609 3:8.9517501e-05 
10 1:0.66666667 2:0.21063639 3:0.0002685525 
10 1:0.66666667 2:0.25515387 3:0.003043595 
10 1:0.66666667 2:0.2942934 3:8.9517501e-05 
10 1:0.33333333 2:0.14490589 
10 1:0.66666667 2:0.21900209 3:0.0011637275 
10 1:0.66666667 2:0.21063639 3:0.0002685525 
10 1:0.33333333 2:0.13265611 3:0.0025960075 4:0.0075901328 
10 1:0.33333333 2:0.13265611 3:0.0018798675 4:0.0018975332 
10 1:0.33333333 2:0.13265611 3:0.0214842 
10 1:0.33333333 3:0.0068928476 
10 1:1 3:0.01038403 4:0.0050600886 5:0.015763547 
10 1:1 2:0.081864356 3:0.0068033301 4:0.01201771 5:0.03546798 
10 1:0.33333333 2:0.13265611 3:0.0018798675 4:0.0018975332 
10 1:0.33333333 2:0.13265611 3:0.005550085 5:0.00098522167 
10 1:1 2:0.50044816 5:0.00098522167 
10 1:0.33333333 2:0.13265611 3:0.044848268 4:0.0044275775 5:0.00098522167 
10 1:0.33333333 2:0.13265611 3:0.0214842 5:0.002955665 
10 1:0.66666667 2:0.21063639 3:0.0002685525 
10 1:0.66666667 2:0.50702121 
10 1:0.66666667 2:0.21063639 
10 1:0.33333333 2:0.13265611 3:0.002327455 4:0.013282732 
10 1:0.33333333 3:0.030883538 
10 1:1 3:0.0011637275 5:0.0088669951 
10 1:0.33333333 2:0.13265611 3:0.0085041626 
10 1:0.33333333 3:0.030883538 
10 1:1 3:0.0011637275 5:0.0088669951 
10 1:0.33333333 2:0.13265611 3:0.0085041626 
10 1:0.33333333 2:1 3:8.9517501e-05 
10 1:0.66666667 2:0.27845832 3:0.0004475875 
10 1:0.66666667 2:0.21720944 3:0.0002685525 
10 1:0.66666667 2:0.2847326 3:0.0004475875 
10 1:0.66666667 2:0.21840454 3:0.000179035 
10 1:0.66666667 2:0.21959964 
10 1:0.33333333 2:0.42455931 3:0.32127831 
10 1:0.33333333 3:0.030883538 
10 1:0.66666667 2:0.21900209 3:0.00035807 
10 1:0.66666667 2:0.21242904 
10 1:0.66666667 2:0.21213027 
10 1:0.66666667 2:0.18314909 3:0.0069823651 
10 1:1 2:0.0071706005 3:0.014233283 4:0.089816572 
10 1:1 2:0.00029877502 3:0.015128458 4:0.0069576218 5:0.0039408867 
10 1:0.66666667 2:0.20525844 3:0.0002685525 
10 1:0.66666667 2:0.21033762 3:8.9517501e-05 
10 1:1 3:0.01038403 5:0.015763547 
10 1:1 2:0.081864356 3:0.0068033301 5:0.03546798 
10 1:0.66666667 2:0.23991634 3:0.000179035 
10 1:0.66666667 2:0.24529429 
10 1:0.66666667 2:0.2942934 5:0.00098522167 
10 1:1 3:0.0045653925 5:0.013793103 
10 1:0.66666667 3:0.000537105 5:0.0039408867 
10 1:0.33333333 2:0.14490589 3:8.9517501e-05 
10 1:0.33333333 2:0.13265611 3:0.0085041626 
10 1:0.33333333 2:0.35494473 3:0.30265867 4:0.0012650221 5:1 
10 1:0.66666667 2:0.20346579 3:0.0017008325 5:0.00098522167 
10 1:0.33333333 3:0.0068928476 
10 1:0.33333333 2:0.13265611 3:0.0068928476 4:0.019607843 
10 1:0.33333333 2:0.14490589 
10 1:0.66666667 2:0.00059755004 3:0.00080565751 4:0.0037950664 5:0.0088669951 
10 1:0.66666667 3:0.00143228 4:0.010120177 5:0.0049261084 
10 1:0.66666667 3:0.001253245 4:0.009487666 5:0.013793103 
10 1:0.33333333 2:0.14729609 3:0.0018798675 
10 1:0.33333333 2:0.35494473 
10 1:1 2:0.0071706005 3:0.014233283 4:0.089816572 
10 1:1 2:0.0071706005 3:0.014233283 4:0.089816572 
10 1:0.33333333 2:0.13265611 3:8.9517501e-05 4:0.0012650221 
10 1:0.66666667 2:0.00029877502 3:0.0083251276 4:0.0025300443 5:0.0078817734 
10 1:0.33333333 3:0.117626 
10 1:0.33333333 3:0.0017008325 4:0.00063251107 5:0.010837438 
10 1:0.66666667 2:0.21063639 
10 1:0.33333333 2:0.14490589 
10 1:0.33333333 2:0.35494473 3:0.30265867 4:0.0037950664 5:0.084729064 
10 1:0.66666667 2:0.24380042 4:0.00063251107 
10 1:0.33333333 2:1 
10 1:0.66666667 2:0.21063639 3:0.0072509176 5:0.0068965517 
10 1:0.33333333 2:0.00059755004 3:0.03043595 
10 1:0.66666667 2:0.50014939 3:8.9517501e-05 
10 1:0.66666667 2:0.49985061 
10 1:0.66666667 2:0.50014939 3:8.9517501e-05 
10 1:0.66666667 2:0.49985061 
10 1:0.66666667 2:0.25933672 3:0.000537105 
10 1:0.66666667 2:0.25933672 3:0.000537105 
10 1:0.33333333 2:0.13265611 3:0.027481873 
10 1:0.66666667 2:0.25933672 3:0.000537105 
10 1:0.66666667 2:0.0020914252 3:0.034911825 4:0.0069576218 
10 1:0.66666667 2:0.25933672 3:0.000537105 
10 1:0.66666667 2:0.21063639 3:0.0013427625 
10 1:0.66666667 2:0.20944129 3:0.019156745 4:0.0044275775 
10 1:0.33333333 2:0.35494473 3:0.000537105 
10 1:0.66666667 2:0.20525844 3:8.9517501e-05 
10 1:0.66666667 2:0.21033762 
10 1:0.33333333 2:0.14490589 3:8.9517501e-05 
10 1:0.66666667 2:0.21063639 3:0.0076089876 5:0.0098522167 
10 1:0.66666667 2:0.25933672 3:0.000537105 
10 1:0.33333333 2:0.13265611 3:0.027481873 
10 1:0.33333333 2:1 3:8.9517501e-05 
10 1:0.66666667 2:0.21063639 3:0.0002685525 
10 1:0.33333333 2:0.00059755004 3:0.039656253 
10 1:0.33333333 3:0.022379375 
10 1:0.66666667 2:0.18314909 3:0.0069823651 
10 1:1 2:0.0071706005 3:0.014233283 4:0.089816572 5:0.00098522167 
10 1:1 2:0.0071706005 3:0.014233283 4:0.089816572 
10 1:0.33333333 2:0.14490589 
10 1:0.66666667 2:0.25097102 3:0.010921135 4:0.0031625553 5:0.0098522167 
10 1:0.66666667 2:0.21033762 3:8.9517501e-05 
10 1:0.66666667 2:0.21063639 3:0.0002685525 
10 1:0.33333333 2:0.13265611 3:0.00035807 4:0.0025300443 
10 1:0.66666667 2:0.21063639 3:0.0002685525 
10 1:0.33333333 2:0.14729609 
10 1:0.66666667 2:0.21063639 3:0.0002685525 
10 1:0.66666667 2:0.20525844 3:0.0002685525 
10 1:0.66666667 2:0.21033762 3:8.9517501e-05 
10 1:1 3:0.01038403 5:0.015763547 
10 1:1 2:0.081864356 3:0.0068033301 5:0.03546798 
10 1:0.66666667 2:0.0020914252 3:0.034911825 4:0.094244149 
10 1:0.66666667 2:0.21033762 
10 1:0.66666667 2:0.50074694 
10 1:0.66666667 2:0.50104571 
10 1:1 2:0.0071706005 3:0.014233283 4:0.089816572 
10 1:0.33333333 2:0.00059755004 3:0.038582043 
10 1:0.33333333 2:0.14490589 3:8.9517501e-05 
10 1:0.66666667 3:0.0083251276 5:0.014778325 
10 1:0.66666667 3:0.0054605675 5:0.010837438 
10 1:0.66666667 2:0.23991634 3:8.9517501e-05 
10 1:1 2:0.0044816253 3:0.0077880226 4:0.011385199 5:0.030541872 
10 1:0.33333333 2:0.00059755004 3:0.039656253 
10 1:0.33333333 3:0.022379375 
10 1:0.33333333 2:1 
10 1:0.66666667 2:0.50134449 
10 1:1 2:0.0071706005 3:0.014233283 4:0.089816572 
10 1:0.33333333 2:0.14490589 
10 1:0.66666667 2:0.25097102 3:0.010921135 4:0.0031625553 5:0.0098522167 
10 1:0.66666667 2:0.21033762 3:8.9517501e-05 
10 1:0.66666667 2:0.21063639 3:0.0002685525 
10 1:1 2:0.0071706005 3:0.014233283 4:0.089816572 
10 1:0.66666667 2:0.21063639 3:0.0002685525 
10 1:0.33333333 2:0.00059755004 3:0.039656253 
10 1:0.33333333 3:0.022379375 
10 1:0.33333333 2:0.00029877502 3:0.0068928476 5:0.0019704433 
10 1:0.33333333 3:0.00089517501 5:0.00591133 
10 1:0.33333333 2:0.13265611 3:0.00572912 5:0.0039408867 
10 1:0.33333333 2:0.13265611 3:0.31644436 4:0.010752688 5:0.00098522167 
10 1:0.33333333 2:0.13265611 3:0.0027750425 4:0.0044275775 5:0.00098522167 
10 1:0.33333333 2:1 
10 1:0.66666667 2:0.50134449 
10 1:0.33333333 2:0.00059755004 3:0.039656253 
10 1:0.33333333 3:0.022379375 
10 1:0.66666667 2:0.21063639 3:0.0002685525 
10 1:0.33333333 2:0.13265611 3:0.044848268 5:0.018719212 
10 1:0.33333333 2:0.14490589 
10 1:0.33333333 2:0.00029877502 3:0.0068928476 5:0.025615764 
10 1:0.33333333 3:0.00089517501 5:0.002955665 
10 1:0.33333333 3:0.0004475875 5:0.0049261084 
10 1:0.33333333 3:0.0068928476 4:0.00063251107 5:0.002955665 
10 1:0.33333333 2:0.35494473 3:0.0042073225 
10 1:0.66666667 2:0.21063639 3:0.0002685525 
10 1:0.33333333 2:0.00059755004 3:0.039656253 
10 1:0.33333333 3:0.022379375 
10 1:0.33333333 2:0.020914252 3:0.027481873 5:0.12019704 
10 1:0.33333333 2:0.0035853003 3:0.117626 5:0.037438424 
10 1:0.33333333 2:0.032267702 3:0.32127831 
10 1:0.33333333 2:0.16402749 3:0.00071614001 
10 1:0.33333333 2:1 
10 1:0.66666667 2:0.50134449 
10 1:0.33333333 2:0.35494473 3:0.0042073225 
10 1:0.33333333 2:1 3:0.001969385 5:0.0019704433 
10 1:0.33333333 3:0.014233283 4:0.089816572 5:0.0088669951 
10 1:0.33333333 2:0.16402749 3:0.10437741 
7.3316723077002637 1:0.33333333 3:0.000537105 5:0.002955665 
10 1:0.33333333 2:0.00029877502 3:0.000537105 5:0.0068965517 
10 1:0.33333333 3:0.00179035 5:0.01773399 
10 1:0.33333333 2:1 3:0.0025960075 
10 1:0.33333333 2:0.00089632507 3:0.30265867 
10 1:0.33333333 2:0.00029877502 3:0.00179035 5:0.01773399 
10 1:0.33333333 2:1 3:0.0025960075 
10 1:1 2:0.49985061 3:8.9517501e-05 5:0.00098522167 
10 1:1 2:0.49985061 5:0.00098522167 
10 1:1 2:0.49985061 5:0.00098522167 
10 1:1 2:0.49985061 5:0.00098522167 
10 1:1 2:0.49985061 3:0.000179035 5:0.00098522167 
10 1:0.33333333 2:0.14729609 3:0.0025960075 
10 1:0.33333333 2:1 3:0.00035807 5:0.00098522167 
10 1:0.66666667 2:0.50014939 3:0.00071614001 
10 1:0.33333333 2:1 5:0.00098522167 
10 1:0.33333333 2:0.13265611 3:0.0214842 
10 1:0.33333333 2:1 3:0.0029540775 5:0.00098522167 
10 1:0.33333333 3:0.000537105 5:0.002955665 
10 1:0.33333333 2:0.00029877502 3:0.000537105 5:0.0068965517 
10 1:0.33333333 3:0.00179035 5:0.01773399 
10 1:0.33333333 2:1 3:0.00071614001 5:0.0039408867 
10 1:0.33333333 3:0.000537105 5:0.002955665 
10 1:0.33333333 2:0.00029877502 3:0.000537105 5:0.0068965517 
10 1:0.33333333 3:0.00179035 5:0.01773399 
10 1:0.33333333 3:0.000537105 5:0.0039408867 
10 1:0.33333333 3:0.00179035 5:0.002955665 
10 1:0.33333333 3:0.10437741 
10 1:0.33333333 2:0.00059755004 3:0.039656253 
10 1:0.33333333 3:0.022379375 
10 1:0.66666667 2:0.49985061 3:0.00080565751 4:0.0031625553 
10 1:0.33333333 2:0.00029877502 3:0.15674514 
10 1:0.33333333 3:0.13919971 
10 1:0.33333333 3:0.080386716 
10 1:0.33333333 2:0.00059755004 3:0.039656253 
10 1:0.33333333 3:0.022379375 
10 1:0.33333333 2:0.27427547 3:0.0034911825 
10 1:0.33333333 3:0.000537105 5:0.002955665 
10 1:0.33333333 2:0.00029877502 3:0.000537105 5:0.0068965517 
10 1:0.33333333 3:0.00179035 5:0.01773399 
10 1:0.33333333 3:0.117626 
10 1:0.33333333 2:0.14729609 3:0.00501298 
10 1:0.33333333 3:0.000537105 5:0.002955665 
10 1:0.33333333 2:0.00029877502 3:0.000537105 5:0.0068965517 
10 1:0.33333333 3:0.00179035 5:0.01773399 
10 1:0.33333333 3:0.117626 
10 1:0.33333333 2:1 3:0.00089517501 4:0.00063251107 
10 1:0.33333333 2:1 3:0.00071614001 5:0.0039408867 
10 1:0.33333333 2:0.020914252 3:0.30265867 4:0.0012650221 
10 1:0.33333333 2:0.0059755004 3:0.117626 4:0.0012650221 
10 1:0.33333333 3:0.000537105 5:0.002955665 
10 1:0.33333333 2:0.00029877502 3:0.000537105 5:0.0068965517 
10 1:0.33333333 3:0.00179035 5:0.01773399 
10 1:0.33333333 3:0.117626 
10 1:0.33333333 2:0.14729609 3:0.00501298 
10 1:0.33333333 2:1 3:0.00071614001 
10 1:0.33333333 3:0.0089517501 
10 1:0.33333333 2:0.14729609 3:0.00501298 
10 1:0.33333333 2:0.14490589 
10 1:0.66666667 2:0.21063639 3:0.0002685525 
10 1:0.33333333 2:0.00029877502 3:0.01647122 
10 1:0.33333333 2:0.14490589 
10 1:1 2:0.00059755004 3:0.0054605675 4:0.0012650221 5:0.00591133 
10 1:1 2:0.0017926501 3:0.0015217975 5:0.0078817734 
10 1:1 3:0.002685525 5:0.0078817734 
10 1:0.33333333 2:0.13265611 3:0.0020589025 4:0.0056925996 
10 1:0.33333333 2:0.13265611 3:0.001969385 4:0.0031625553 
10 1:0.66666667 2:0.20525844 3:0.00179035 
10 1:0.66666667 2:0.21033762 3:0.00286456 
10 1:0.66666667 2:0.27845832 3:0.0004475875 
10 1:0.66666667 2:0.22109352 
10 1:0.66666667 2:0.21720944 
10 1:1 3:0.01038403 4:0.0050600886 5:0.015763547 
10 1:1 2:0.081864356 3:0.0068033301 4:0.01201771 5:0.03546798 
10 1:0.66666667 2:0.20525844 3:0.00179035 4:0.0012650221 5:0.0049261084 
10 1:0.66666667 2:0.21033762 3:0.00286456 4:0.00063251107 
10 1:0.66666667 3:0.039119148 
10 1:0.33333333 2:0.00059755004 3:0.038582043 
10 1:0.33333333 2:0.35494473 
10 1:0.66666667 3:0.0083251276 5:0.014778325 
10 1:0.66666667 3:0.0054605675 5:0.010837438 
10 1:0.66666667 2:0.23991634 3:8.9517501e-05 
10 1:1 2:0.0044816253 3:0.0077880226 4:0.011385199 5:0.030541872 
10 1:0.33333333 2:1 
10 1:0.66666667 2:0.50134449 
10 1:0.66666667 2:0.21063639 3:0.0002685525 
10 1:0.66666667 2:0.21063639 3:0.0002685525 
10 1:1 2:0.0071706005 3:0.014233283 4:0.089816572 
10 1:0.33333333 2:0.13265611 3:0.014770388 
10 1:0.33333333 2:1 
10 1:0.66666667 2:0.50134449 
10 1:0.66666667 3:0.00107421 4:0.00063251107 5:0.0049261084 
10 1:0.33333333 2:0.13265611 3:0.0038492525 5:0.002955665 
10 1:0.66666667 3:0.0054605675 5:0.0039408867 
10 1:0.33333333 2:0.13265611 3:0.003043595 5:0.0049261084 
10 1:0.33333333 2:0.14729609 3:0.0029540775 
10 1:0.33333333 2:0.0020914252 3:0.10437741 4:0.00063251107 
10 1:0.33333333 3:0.15674514 4:0.00063251107 
10 1:0.33333333 2:0.00059755004 3:0.039656253 
10 1:0.33333333 3:0.022379375 
10 1:0.66666667 2:0.49985061 3:0.00080565751 4:0.0031625553 
10 1:0.66666667 2:0.21063639 3:0.0002685525 
10 1:0.66666667 2:0.50014939 3:8.9517501e-05 
10 1:0.33333333 2:0.13265611 3:0.00214842 4:0.0056925996 
10 1:0.66666667 2:0.50014939 
10 1:0.66666667 2:0.21063639 3:0.0002685525 4:0.00063251107 
10 1:0.66666667 2:0.21063639 3:0.0002685525 4:0.00063251107 
10 1:0.33333333 2:0.35494473 3:0.0042073225 
10 1:0.33333333 2:0.00059755004 3:0.039656253 
10 1:0.33333333 3:0.022379375 
10 1:0.66666667 2:0.21063639 3:0.0002685525 4:0.00063251107 
10 1:0.33333333 2:0.14729609 3:0.26613553 4:0.0012650221 
10 1:0.66666667 2:0.21063639 3:0.0002685525 
10 1:0.66666667 2:0.21063639 3:0.0002685525 4:0.00063251107 
10 1:0.33333333 2:0.13265611 3:0.010921135 
10 1:0.33333333 2:0.13265611 3:0.0018798675 4:0.0012650221 
10 1:0.33333333 2:0.35494473 3:0.0042073225 
10 1:0.33333333 2:0.00059755004 3:0.039656253 
10 1:0.33333333 3:0.022379375 
10 1:0.66666667 2:0.21063639 3:0.0002685525 4:0.00063251107 
10 1:0.66666667 2:0.20525844 3:0.00179035 
10 1:0.66666667 2:0.21033762 3:0.00286456 
10 1:0.66666667 2:0.21063639 3:0.0002685525 4:0.00063251107 
10 1:0.33333333 2:0.13265611 3:0.044848268 4:0.00063251107 5:0.025615764 
10 1:0.33333333 2:0.13265611 3:0.15674514 4:0.079063884 
10 1:0.66666667 2:0.21063639 3:0.0002685525 
10 1:0.33333333 2:0.14490589 
10 1:1 2:0.0071706005 3:0.014233283 4:0.089816572 
10 1:0.33333333 2:0.00059755004 3:0.039656253 
10 1:0.33333333 3:0.022379375 
10 1:0.66666667 2:0.21063639 3:0.0002685525 
10 1:0.33333333 2:0.00059755004 3:0.039656253 
10 1:0.33333333 3:0.022379375 
10 1:0.33333333 2:0.13265611 3:0.0076089876 
10 1:0.66666667 2:0.21063639 3:0.0002685525 
10 1:0.66666667 2:0.18344786 3:0.00071614001 5:0.0019704433 
10 1:0.66666667 2:0.26471467 3:0.0002685525 4:0.00063251107 5:0.00098522167 
10 1:0.66666667 2:0.50044816 
10 1:0.66666667 2:0.50044816 
10 1:0.66666667 2:0.21063639 3:0.0002685525 
10 1:0.33333333 2:0.13265611 3:0.0085041626 5:0.002955665 
10 1:0.66666667 2:0.21063639 3:0.0002685525 
10 1:1 3:0.0068033301 5:0.018719212 
10 1:0.33333333 2:0.13265611 3:0.0029540775 4:0.0012650221 
10 1:0.66666667 2:0.066328055 3:0.014233283 4:0.089816572 
10 1:0.33333333 2:0.14490589 
10 1:0.66666667 2:0.20525844 3:0.000179035 
10 1:0.66666667 2:0.21033762 3:0.0006266225 
10 1:0.33333333 2:0.13265611 3:0.02076806 4:0.0018975332 5:0.018719212 
10 1:0.33333333 2:1 
10 1:0.66666667 2:0.50134449 
10 1:0.33333333 2:0.13265611 3:0.0085041626 
10 1:1 3:0.00098469251 5:0.0098522167 
10 1:0.66666667 2:0.19330744 3:0.0018798675 
10 1:0.33333333 2:0.00029877502 3:0.15674514 
10 1:0.66666667 2:0.24380042 3:0.00089517501 
10 1:0.66666667 2:0.24380042 3:0.00089517501 
10 1:0.33333333 2:0.00059755004 3:0.039656253 
10 1:0.33333333 3:0.022379375 
10 1:0.33333333 2:0.00059755004 3:0.039656253 
10 1:0.33333333 3:0.022379375 
10 1:0.33333333 2:0.00059755004 3:0.039656253 
10 1:0.33333333 3:0.022379375 
10 1:0.33333333 3:0.32127831 
10 1:0.33333333 3:0.030883538 
10 1:0.33333333 2:0.00059755004 3:0.039656253 
10 1:0.33333333 3:0.022379375 
10 1:0.33333333 2:0.00059755004 3:0.039656253 
10 1:0.33333333 3:0.022379375 
10 1:0.66666667 2:0.21063639 3:0.0002685525 
10 1:0.33333333 2:0.00059755004 3:0.039656253 
10 1:0.33333333 3:0.022379375 
10 1:0.66666667 2:0.21063639 3:0.0002685525 
10 1:0.33333333 2:0.00059755004 3:0.039656253 
10 1:0.33333333 3:0.022379375 
10 1:0.33333333 2:0.00059755004 3:0.039656253 
10 1:0.33333333 3:0.022379375 
10 1:0.66666667 2:0.23991634 3:8.9517501e-05 
10 1:0.66666667 2:0.2942934 
10 1:0.66666667 2:0.21242904 
10 1:0.66666667 2:0.21213027 
10 1:0.66666667 2:0.21900209 3:0.019872885 
10 1:0.66666667 2:0.21063639 3:0.0034911825 4:0.0012650221 5:0.0098522167 
10 1:1 2:0.49985061 3:0.0002685525 
10 1:1 2:0.49985061 3:0.0002685525 
10 1:0.66666667 2:0.21063639 3:0.0002685525 
10 1:0.66666667 2:0.21063639 3:0.0002685525 
10 1:0.66666667 2:0.21063639 3:0.0002685525 
10 1:0.66666667 2:0.21063639 3:0.0002685525 4:0.00063251107 
10 1:1 2:0.0071706005 3:0.014233283 4:0.089816572 
10 1:0.33333333 2:0.16402749 
10 1:0.66666667 2:0.25097102 3:0.010921135 4:0.00063251107 
10 1:0.66666667 2:0.21033762 3:8.9517501e-05 
10 1:0.66666667 2:0.21063639 3:0.0002685525 
10 1:0.66666667 2:0.21063639 3:0.0002685525 4:0.00063251107 
10 1:0.33333333 2:0.13265611 3:0.0036702175 4:0.017077799 
10 1:1 2:0.49985061 3:0.001969385 
10 1:0.66666667 2:0.010457126 3:0.010921135 5:0.0098522167 
10 1:0.66666667 2:0.066328055 3:0.0081460926 5:0.030541872 
10 1:0.66666667 2:0.25515387 3:0.0002685525 4:0.00063251107 
10 1:0.66666667 2:0.18912459 3:8.9517501e-05 
10 1:0.66666667 2:0.21063639 3:0.0002685525 
10 1:0.66666667 2:0.0011951001 3:0.010921135 4:0.030993042 
10 1:0.33333333 2:0.13265611 3:0.31644436 4:0.021505376 5:0.0078817734 
10 1:0.33333333 2:0.14490589 
10 1:0.66666667 2:0.20525844 3:0.000179035 
10 1:0.66666667 2:0.21033762 3:0.0006266225 
10 1:0.33333333 2:0.14490589 
10 1:0.33333333 2:0.35494473 3:0.30265867 4:0.0037950664 5:0.045320197 
10 1:0.66666667 2:0.21063639 3:0.0002685525 
10 1:0.33333333 2:1 
10 1:0.66666667 2:0.50134449 
10 1:0.33333333 2:0.13265611 3:0.00537105 4:0.0025300443 
10 1:1 2:0.0071706005 3:0.014233283 4:0.089816572 
10 1:0.66666667 2:0.26471467 3:0.0002685525 
10 1:0.66666667 2:0.20525844 3:0.000179035 
10 1:0.66666667 2:0.21033762 3:0.0006266225 5:0.0019704433 
10 1:0.33333333 2:0.00029877502 3:0.01647122 
10 1:0.33333333 2:0.13265611 3:0.31644436 4:0.021505376 5:0.0078817734 
10 1:0.66666667 2:0.066328055 3:0.014233283 4:0.089816572 5:0.00098522167 
10 1:0.66666667 2:0.21063639 3:0.0002685525 
10 1:0.33333333 2:1 
10 1:0.66666667 2:0.50134449 
10 1:0.33333333 2:0.14490589 
10 1:0.66666667 2:0.25097102 3:0.0006266225 
10 1:0.33333333 2:0.13265611 3:0.31644436 4:0.021505376 5:0.0078817734 
10 1:0.33333333 2:0.14490589 
10 1:0.33333333 2:1 
10 1:0.66666667 2:0.50134449 
10 1:0.66666667 2:0.25097102 3:0.010921135 5:0.0039408867 
10 1:0.66666667 2:0.21033762 3:8.9517501e-05 
10 1:0.66666667 2:0.21063639 3:0.0002685525 
10 1:0.33333333 2:0.13265611 3:0.0018798675 5:0.002955665 
10 1:0.66666667 2:0.21063639 3:0.0002685525 
10 1:0.33333333 2:0.14490589 
10 1:0.66666667 2:0.25097102 3:0.010921135 4:0.030993042 5:0.0098522167 
10 1:0.66666667 2:0.17986256 3:0.0017008325 4:0.0082226439 
10 1:0.66666667 2:0.17986256 3:0.0011637275 4:0.0031625553 
10 1:0.66666667 2:0.21033762 3:8.9517501e-05 
10 1:0.66666667 2:0.21063639 3:0.0002685525 
10 1:0.33333333 2:0.14490589 
10 1:0.66666667 2:0.25097102 3:0.010921135 4:0.030993042 5:0.0098522167 
10 1:0.66666667 2:0.17986256 3:0.0017008325 4:0.0082226439 
10 1:0.66666667 2:0.17986256 3:0.0011637275 4:0.0031625553 
10 1:0.66666667 2:0.21033762 3:8.9517501e-05 
10 1:0.33333333 2:0.14490589 
10 1:0.33333333 2:0.13265611 3:0.0043863575 4:0.00063251107 
10 1:0.66666667 2:0.25097102 3:0.010921135 
10 1:0.66666667 2:0.21033762 3:8.9517501e-05 
10 1:1 2:0.49985061 5:0.00098522167 
10 1:0.33333333 2:0.14490589 
10 1:0.33333333 2:1 
10 1:0.66666667 2:0.50134449 
10 1:0.66666667 2:0.21063639 3:0.0002685525 
10 1:1 2:0.0071706005 3:0.014233283 4:0.089816572 
10 1:0.33333333 2:0.14490589 
10 1:0.66666667 2:0.20525844 3:0.000179035 
10 1:0.66666667 2:0.21033762 3:0.0006266225 
10 1:0.33333333 2:0.14490589 
10 1:0.66666667 2:0.25097102 3:0.0006266225 
10 1:0.66666667 2:0.25097102 3:0.010921135 4:0.030993042 5:0.0098522167 
10 1:0.66666667 2:0.17986256 3:0.0017008325 4:0.0082226439 
10 1:0.66666667 2:0.17986256 3:0.0011637275 4:0.0031625553 
10 1:0.66666667 2:0.21033762 3:8.9517501e-05 
10 1:1 2:0.0011951001 3:0.0018798675 5:0.0088669951 
10 1:0.33333333 3:0.0043863575 5:0.048275862 
10 1:0.66666667 2:0.21063639 3:0.0002685525 
10 1:0.33333333 2:0.14490589 
10 1:0.33333333 2:0.14490589 
10 1:0.66666667 2:0.20525844 3:0.000179035 
10 1:0.66666667 2:0.21033762 3:0.0006266225 
10 1:0.66666667 2:0.21033762 3:8.9517501e-05 
10 1:1 2:0.0071706005 3:0.014233283 4:0.089816572 
10 1:0.66666667 2:0.21063639 3:0.0002685525 4:0.00063251107 
10 1:0.33333333 2:0.14490589 
10 1:0.66666667 2:0.25097102 3:0.010921135 4:0.030993042 5:0.0098522167 
10 1:0.66666667 2:0.17986256 3:0.0017008325 4:0.0082226439 
10 1:0.66666667 2:0.17986256 3:0.0011637275 4:0.0031625553 
10 1:0.66666667 2:0.21033762 3:8.9517501e-05 
10 1:0.33333333 2:0.14490589 
10 1:0.33333333 2:0.35494473 3:0.15674514 
10 1:0.33333333 2:0.14729609 3:8.9517501e-05 
10 1:0.33333333 2:0.18524051 3:0.005192015 5:0.0068965517 
10 1:0.33333333 2:0.14490589 
10 1:0.66666667 2:0.25097102 3:0.010921135 5:0.0039408867 
10 1:0.66666667 2:0.21033762 3:8.9517501e-05 
10 1:0.66666667 2:0.21063639 3:0.0002685525 4:0.00063251107 
10 1:0.33333333 2:0.14490589 
10 1:0.33333333 2:0.15446669 
10 1:0.33333333 2:0.14729609 3:8.9517501e-05 
10 1:0.66666667 2:0.25097102 3:0.010921135 4:0.030993042 5:0.0098522167 
10 1:0.66666667 2:0.17986256 3:0.0017008325 4:0.0082226439 
10 1:0.66666667 2:0.17986256 3:0.0011637275 4:0.0031625553 
10 1:0.66666667 2:0.21033762 3:8.9517501e-05 
10 1:0.66666667 2:0.26471467 3:0.0002685525 4:0.00063251107 
10 1:0.33333333 2:0.14490589 
10 1:0.33333333 2:0.35494473 3:0.010921135 5:0.00098522167 
10 1:0.66666667 2:0.20525844 3:0.000179035 
10 1:0.66666667 2:0.21033762 3:0.0006266225 
10 1:0.66666667 2:0.25097102 3:0.010921135 4:0.030993042 5:0.0098522167 
10 1:0.66666667 2:0.17986256 3:0.0017008325 4:0.0082226439 
10 1:0.66666667 2:0.17986256 3:0.0011637275 4:0.0031625553 
10 1:0.66666667 2:0.21033762 3:8.9517501e-05 
10 1:1 2:0.0071706005 3:0.014233283 4:0.089816572 
10 1:0.66666667 2:0.25097102 3:0.010921135 4:0.030993042 5:0.0098522167 
10 1:0.66666667 2:0.17986256 3:0.0017008325 4:0.0082226439 
10 1:0.66666667 2:0.17986256 3:0.0011637275 4:0.0031625553 
10 1:0.66666667 2:0.21033762 3:8.9517501e-05 
10 1:0.33333333 2:0.14490589 
10 1:0.66666667 2:0.25097102 3:0.010921135 4:0.030993042 5:0.0098522167 
10 1:0.66666667 2:0.17986256 3:0.0017008325 4:0.0082226439 
10 1:0.66666667 2:0.17986256 3:0.0011637275 4:0.0031625553 
10 1:0.66666667 2:0.21033762 3:8.9517501e-05 
10 1:0.33333333 2:0.14490589 
10 1:0.66666667 2:0.20525844 3:0.000179035 4:0.0012650221 
10 1:0.66666667 2:0.21033762 3:0.0006266225 4:0.0025300443 
10 1:0.66666667 2:0.21063639 3:0.0002685525 
10 1:0.33333333 2:0.13265611 3:0.0107421 4:0.0056925996 
10 1:0.33333333 2:0.14490589 
10 1:0.66666667 2:0.20525844 3:0.000179035 4:0.0012650221 
10 1:0.66666667 2:0.21033762 3:0.0006266225 4:0.0025300443 
10 1:0.66666667 2:0.24917837 3:0.003043595 
10 1:0.66666667 2:0.19181356 3:0.0002685525 
10 1:0.33333333 2:0.14490589 
10 1:0.66666667 2:0.20525844 3:0.000179035 4:0.0012650221 
10 1:0.66666667 2:0.21033762 3:0.0006266225 4:0.0025300443 
10 1:0.33333333 2:0.14490589 
10 1:0.33333333 2:0.35494473 3:0.010921135 4:0.01771031 5:0.0019704433 
10 1:0.66666667 2:0.20525844 3:0.000179035 
10 1:0.66666667 2:0.21033762 3:0.0006266225 
10 1:0.33333333 2:0.13265611 3:0.0068928476 
10 1:0.33333333 2:0.13265611 3:0.0089517501 5:0.0039408867 
10 1:0.33333333 2:1 3:0.00107421 4:0.0044275775 
10 1:0.33333333 2:0.14490589 
10 1:0.33333333 2:0.14490589 
10 1:0.33333333 2:0.14490589 
10 1:0.66666667 2:0.20525844 3:0.000179035 
10 1:0.66666667 2:0.21033762 3:0.0006266225 
10 1:1 2:0.012847326 3:0.0020589025 5:0.022660099 
10 1:1 2:0.0071706005 3:0.014233283 4:0.089816572 
10 1:0.66666667 2:0.21063639 3:0.0002685525 
10 1:0.66666667 2:0.21063639 3:0.0002685525 4:0.00063251107 
10 1:0.66666667 2:0.21063639 3:0.0002685525 
10 1:0.66666667 2:0.21063639 3:0.0002685525 
10 1:0.33333333 2:0.14490589 
10 1:0.66666667 2:0.20525844 3:0.000179035 4:0.0012650221 
10 1:0.66666667 2:0.21033762 3:0.0006266225 4:0.0025300443 
10 1:1 2:0.081864356 3:0.0081460926 4:0.017077799 5:0.030541872 
10 1:0.66666667 2:0.21063639 3:0.0002685525 
10 1:0.66666667 2:0.21063639 3:0.0002685525 
10 1:0.33333333 2:0.13265611 3:0.0068928476 
10 1:0.66666667 2:0.21063639 3:0.0002685525 
10 1:0.33333333 2:0.13265611 3:0.044848268 5:0.0019704433 
10 1:0.66666667 2:0.21063639 3:0.0002685525 
10 1:0.66666667 2:0.21063639 3:0.0002685525 
10 1:0.66666667 2:0.21063639 3:0.0002685525 
10 1:1 2:0.0071706005 3:0.014233283 4:0.089816572 
10 1:0.33333333 2:0.13265611 3:0.014770388 
10 1:0.66666667 2:0.21063639 3:0.0002685525 
10 1:0.33333333 2:0.13265611 3:0.0043863575 4:0.0050600886 5:0.002955665 
10 1:0.66666667 2:0.21063639 3:0.0002685525 
10 1:0.66666667 2:0.21063639 3:0.0002685525 
10 1:0.33333333 2:0.16402749 3:0.0004475875 
10 1:0.66666667 2:0.25097102 3:0.010921135 
10 1:0.66666667 2:0.21033762 3:8.9517501e-05 4:0.00063251107 
10 1:0.66666667 2:0.21063639 3:0.0002685525 
10 1:0.66666667 2:0.50014939 3:8.9517501e-05 
10 1:0.33333333 2:0.13265611 3:0.00214842 4:0.0056925996 
10 1:0.66666667 2:0.50014939 
10 1:0.66666667 2:0.25097102 3:0.010921135 5:0.00098522167 
10 1:0.66666667 2:0.21033762 3:8.9517501e-05 
10 1:0.33333333 2:0.00059755004 3:0.039656253 
10 1:0.33333333 3:0.022379375 
10 1:0.33333333 2:0.00059755004 3:0.039656253 
10 1:0.33333333 3:0.022379375 
10 1:0.66666667 2:0.21063639 3:0.0002685525 
10 1:0.33333333 2:0.13265611 3:0.0061767075 4:0.0025300443 
10 1:0.33333333 2:0.14490589 
10 1:0.33333333 2:0.13265611 3:0.006624295 4:0.00063251107 
10 1:0.33333333 2:1 
10 1:0.33333333 2:0.13265611 3:0.00250649 4:0.0025300443 5:0.00098522167 
10 1:1 2:0.0071706005 3:0.014233283 4:0.089816572 
10 1:1 2:0.030475052 3:0.028735118 5:0.031527094 
10 1:0.66666667 2:0.025395877 3:0.31644436 4:0.0031625553 5:0.68275862 
10 1:1 3:0.0034911825 5:0.0049261084 
10 1:0.66666667 2:0.21063639 3:0.0002685525 
10 1:0.33333333 2:0.022706902 3:0.10437741 5:0.13694581 
10 1:0.33333333 2:0.14729609 3:8.9517501e-05 
10 1:0.66666667 2:0.21063639 3:0.0002685525 
10 1:1 2:0.0071706005 3:0.014233283 4:0.089816572 
10 1:0.33333333 3:0.00089517501 5:0.002955665 
10 1:0.66666667 2:0.21063639 3:0.0002685525 
10 1:0.66666667 2:0.50014939 3:8.9517501e-05 
10 1:0.66666667 2:0.25634897 3:0.0002685525 
10 1:0.66666667 2:0.25515387 4:0.00063251107 
10 1:0.33333333 2:0.015536301 3:0.30265867 
10 1:0.33333333 2:0.0038840753 3:0.15674514 5:0.19901478 
10 1:0.33333333 2:0.14490589 
10 1:0.66666667 2:0.25097102 3:0.010921135 
10 1:0.66666667 2:0.21033762 3:8.9517501e-05 
10 1:0.66666667 2:0.25634897 3:0.003043595 4:0.0012650221 5:0.00098522167 
10 1:0.33333333 2:0.14490589 
10 1:0.66666667 2:0.25097102 3:0.010921135 
10 1:0.66666667 2:0.21033762 3:8.9517501e-05 
10 1:0.33333333 2:0.00029877502 3:0.00286456 5:0.0068965517 
10 1:0.33333333 2:0.00029877502 3:0.0029540775 5:0.00591133 
10 1:0.33333333 3:0.0025960075 5:0.002955665 
10 1:0.33333333 3:0.0038492525 5:0.002955665 
10 1:0.33333333 3:0.0025960075 4:0.00063251107 5:0.00591133 
10 1:0.33333333 2:0.14490589 
10 1:0.33333333 2:0.14729609 3:8.9517501e-05 
10 1:0.66666667 2:0.24380042 3:8.9517501e-05 
10 1:0.33333333 2:0.13265611 3:0.0179035 
10 1:1 2:0.012249776 3:0.10437741 5:0.0078817734 
10 1:1 2:0.49985061 3:0.0002685525 
10 1:0.66666667 2:0.21063639 3:8.9517501e-05 
10 1:0.66666667 2:0.24380042 3:0.000179035 
10 1:0.66666667 2:0.24917837 3:0.003043595 5:0.002955665 
10 1:0.66666667 2:0.19181356 3:0.0002685525 
10 1:0.33333333 2:0.13265611 3:0.0179035 
10 1:1 2:0.49985061 3:0.0002685525 
10 1:1 2:0.00029877502 3:0.19389491 4:0.00063251107 5:0.30738916 
10 1:0.66666667 3:0.0054605675 5:0.012807882 
10 1:1 3:0.015128458 5:0.019704433 
10 1:0.66666667 2:0.20525844 3:0.0006266225 5:0.0019704433 
10 1:0.66666667 2:0.25634897 3:0.000179035 
10 1:0.66666667 2:0.21063639 3:8.9517501e-05 
10 1:0.66666667 2:0.21571557 4:0.00063251107 
10 1:0.33333333 2:0.13265611 3:0.004117805 4:0.0018975332 5:0.002955665 
10 1:0.66666667 2:0.21063639 3:0.0002685525 
10 1:0.33333333 2:0.13265611 3:0.00250649 4:0.0025300443 5:0.00098522167 
10 1:0.66666667 2:0.21063639 3:0.0002685525 
10 1:0.66666667 2:0.21063639 3:0.0002685525 
10 1:0.66666667 2:0.21063639 3:0.0002685525 4:0.00063251107 
10 1:1 2:0.49985061 3:0.001969385 
10 1:0.66666667 2:0.24917837 3:0.0002685525 
10 1:0.66666667 2:0.19181356 
10 1:0.66666667 3:0.039119148 5:0.039408867 
10 1:0.33333333 2:0.14490589 
10 1:0.66666667 2:0.20525844 3:0.000179035 4:0.0012650221 
10 1:0.66666667 2:0.21033762 3:0.0006266225 4:0.0025300443 
10 1:0.66666667 2:0.21063639 3:0.0002685525 
10 1:0.66666667 2:0.24380042 4:0.00063251107 
10 1:0.33333333 2:0.14490589 
10 1:0.33333333 2:0.14490589 
10 1:0.66666667 2:0.20525844 
10 1:0.66666667 2:0.21063639 3:0.0002685525 
10 1:0.33333333 2:0.14490589 
10 1:0.66666667 2:0.21033762 3:8.9517501e-05 
10 1:0.66666667 2:0.21063639 3:0.0002685525 
10 1:0.33333333 2:0.35494473 3:0.027481873 4:0.00063251107 5:0.0019704433 
10 1:0.33333333 2:0.037346878 3:0.30265867 4:0.009487666 
10 1:0.66666667 2:0.21063639 3:0.0002685525 
10 1:0.33333333 2:0.037346878 3:0.30265867 4:0.0012650221 
10 1:0.33333333 3:0.0093993376 
10 1:0.33333333 2:0.0035853003 3:0.039656253 4:0.00063251107 5:0.025615764 
10 1:0.33333333 2:0.0011951001 3:0.045027303 4:0.0037950664 
10 1:0.33333333 2:0.0011951001 3:0.049324143 
10 1:0.33333333 2:0.012847326 3:0.19389491 
10 1:0.33333333 2:0.14490589 
10 1:0.66666667 2:0.49985061 3:8.9517501e-05 
10 1:0.33333333 2:0.13265611 3:0.00214842 4:0.0025300443 
10 1:0.33333333 2:0.14729609 3:0.26613553 
10 1:0.66666667 2:0.17777114 3:0.010921135 5:0.0019704433 
10 1:0.33333333 2:0.13265611 3:0.10482499 4:0.030993042 
10 1:0.33333333 2:0.13265611 3:0.001969385 4:0.0018975332 
10 1:0.66666667 2:0.21063639 3:0.0002685525 
10 1:0.33333333 2:0.13265611 3:0.0089517501 5:0.0039408867 
10 1:0.33333333 2:0.13265611 3:0.3611136 4:0.009487666 
10 1:0.33333333 2:0.13265611 3:0.0068928476 
10 1:0.66666667 2:0.50014939 3:8.9517501e-05 
10 1:0.33333333 2:0.13265611 3:0.00214842 4:0.0056925996 
10 1:0.66666667 2:0.50014939 
10 1:1 2:0.0044816253 3:0.19389491 4:0.013282732 5:0.020689655 
10 1:1 2:0.49985061 4:0.00063251107 
10 1:0.66666667 2:0.24917837 3:0.0002685525 
10 1:0.66666667 2:0.19181356 
10 1:0.33333333 2:0.35494473 3:0.0006266225 
10 1:0.66666667 2:0.25933672 3:8.9517501e-05 
10 1:0.66666667 2:0.21063639 3:0.0002685525 
10 1:1 2:0.49985061 3:0.0013427625 
10 1:0.33333333 2:0.14490589 
10 1:0.66666667 2:0.20525844 3:0.000179035 
10 1:0.66666667 2:0.21033762 3:0.0006266225 
10 1:0.66666667 2:0.21063639 3:0.0002685525 4:0.00063251107 
10 1:0.66666667 2:0.21063639 3:0.0002685525 
10 1:0.66666667 2:0.24380042 3:8.9517501e-05 
10 1:0.66666667 2:0.21063639 3:0.0002685525 
10 1:0.66666667 2:0.50194204 3:8.9517501e-05 
10 1:0.33333333 2:0.13265611 3:0.046011995 5:0.00098522167 
10 1:1 3:0.01038403 5:0.00591133 
10 1:0.66666667 2:0.21063639 3:0.0002685525 
10 1:0.33333333 2:0.14490589 
10 1:0.33333333 2:0.022706902 3:0.10437741 5:0.13694581 
10 1:0.33333333 2:0.14729609 3:8.9517501e-05 
10 1:0.66666667 2:0.25634897 
10 1:0.66666667 2:0.21063639 3:0.0002685525 
10 1:0.66666667 2:0.21063639 3:0.0002685525 
10 1:0.66666667 2:0.21033762 3:8.9517501e-05 
10 1:0.33333333 2:0.16402749 3:8.9517501e-05 
10 1:0.33333333 3:0.0068928476 5:0.002955665 
10 1:0.33333333 2:0.14490589 
10 1:0.66666667 2:0.25097102 3:0.010921135 
10 1:0.66666667 2:0.21033762 3:8.9517501e-05 
10 1:0.66666667 2:0.24917837 3:0.000179035 
10 1:0.66666667 2:0.19181356 3:0.0002685525 
10 1:0.33333333 2:0.13265611 3:0.002685525 4:0.00063251107 5:0.00098522167 
10 1:0.33333333 2:0.13265611 3:0.00089517501 4:0.0025300443 
10 1:0.66666667 2:0.25634897 3:0.0002685525 
10 1:0.66666667 2:0.25515387 4:0.00063251107 
10 1:0.66666667 2:0.24380042 3:0.000179035 
10 1:0.66666667 2:0.25515387 3:0.000179035 
10 1:0.66666667 2:0.18912459 
10 1:0.33333333 2:0.13265611 3:0.010921135 4:0.030993042 
10 1:0.66666667 2:0.21063639 3:0.0002685525 
10 1:0.66666667 2:0.21063639 3:0.0002685525 
10 1:0.33333333 2:0.13265611 3:0.006266225 4:0.00063251107 
10 1:0.33333333 2:0.14490589 
10 1:0.33333333 2:1 3:0.000537105 
10 1:1 3:0.00098469251 4:0.0025300443 5:0.0098522167 
10 1:0.33333333 2:0.0059755004 3:0.117626 5:0.049261084 
10 1:0.66666667 2:0.20525844 3:0.000179035 
10 1:0.66666667 2:0.21033762 3:0.0006266225 
10 1:0.33333333 2:0.16402749 
10 1:0.66666667 2:0.21063639 3:0.0002685525 4:0.00063251107 
10 1:0.66666667 2:0.20525844 3:0.000179035 4:0.0012650221 
10 1:0.66666667 2:0.21033762 3:0.0006266225 4:0.0025300443 
10 1:0.33333333 2:0.14729609 3:8.9517501e-05 
10 1:0.66666667 2:0.20525844 
10 1:0.66666667 2:0.21033762 
10 1:0.33333333 2:0.13265611 3:0.023364068 4:0.0037950664 
10 1:0.66666667 2:0.20525844 3:0.000179035 4:0.0012650221 
10 1:0.66666667 2:0.21033762 3:0.0006266225 4:0.0025300443 
10 1:0.33333333 2:0.14490589 
10 1:0.33333333 2:0.13265611 3:0.0029540775 4:0.00063251107 
10 1:0.33333333 2:0.13265611 3:0.00098469251 5:0.0098522167 
10 1:0.66666667 2:0.21063639 3:0.0017008325 
10 1:1 3:0.016202668 5:0.012807882 
10 1:0.33333333 2:0.13265611 3:0.006266225 4:0.00063251107 
10 1:1 3:0.0038492525 5:0.0078817734 
10 1:0.66666667 2:0.20525844 3:0.000179035 4:0.0012650221 
10 1:0.66666667 2:0.21033762 3:0.0006266225 4:0.0025300443 
10 1:0.66666667 2:0.24380042 3:0.000179035 
10 1:0.33333333 2:0.14729609 
10 1:0.66666667 2:0.00059755004 3:0.0096678901 5:0.0039408867 
10 1:0.66666667 2:0.21063639 3:0.0002685525 4:0.00063251107 
10 1:0.66666667 2:0.21063639 3:0.0002685525 
10 1:0.66666667 2:0.21063639 3:0.0002685525 
10 1:0.33333333 2:0.14490589 
10 1:0.66666667 2:0.20525844 3:0.000179035 4:0.0012650221 
10 1:0.66666667 2:0.21033762 3:0.0006266225 4:0.0025300443 
10 1:1 2:0.081864356 3:0.0081460926 4:0.017077799 5:0.030541872 
10 1:0.66666667 2:0.50014939 3:8.9517501e-05 
10 1:0.33333333 2:0.13265611 3:0.00214842 4:0.0056925996 5:0.0019704433 
10 1:0.66666667 2:0.50014939 
10 1:0.66666667 2:0.0038840753 3:0.19389491 
10 1:0.66666667 2:0.20525844 3:0.000179035 4:0.0012650221 
10 1:0.66666667 2:0.21033762 3:0.0006266225 4:0.0025300443 5:0.0019704433 
10 1:0.33333333 2:0.14729609 3:0.000179035 
10 1:0.66666667 2:0.21063639 3:0.0002685525 
10 1:0.66666667 2:0.21063639 3:0.0002685525 
10 1:0.66666667 2:0.21063639 3:0.0034911825 4:0.0012650221 5:0.0098522167 
10 1:1 3:0.00071614001 5:0.0049261084 
10 1:0.66666667 2:0.19330744 3:0.0018798675 
10 1:0.66666667 2:0.19330744 3:0.0018798675 
10 1:0.66666667 2:0.19330744 3:0.0018798675 
10 1:0.33333333 3:0.02076806 5:0.18423645 
10 1:0.66666667 2:0.19330744 3:0.0018798675 
10 1:0.66666667 2:0.21063639 3:0.0002685525 
10 1:0.66666667 2:0.19330744 3:0.0018798675 
10 1:1 2:0.49985061 4:0.00063251107 
10 1:0.66666667 2:0.19330744 3:0.0018798675 
10 1:0.66666667 2:0.19330744 3:0.0018798675 
10 1:0.66666667 2:0.19330744 3:0.0018798675 
10 1:0.66666667 2:0.19330744 3:0.0018798675 
10 1:0.33333333 2:0.13265611 3:0.010921135 4:0.030993042 
10 1:0.66666667 2:0.19330744 3:0.0018798675 
10 1:0.66666667 2:0.19330744 3:0.0018798675 
10 1:0.66666667 2:0.19330744 3:0.0018798675 
10 1:0.66666667 3:0.0051024975 5:0.016748768 
10 1:0.66666667 2:0.19330744 3:0.0018798675 
10 1:0.66666667 2:0.19330744 3:0.0018798675 
10 1:0.33333333 2:0.14729609 3:0.0107421 4:0.0025300443 5:0.0068965517 
10 1:1 3:0.00322263 4:0.0044275775 5:0.0049261084 
10 1:0.66666667 2:0.19330744 3:0.0018798675 
10 1:0.66666667 2:0.19330744 3:0.0018798675 
10 1:0.66666667 2:0.00029877502 3:0.0011637275 5:0.0039408867 
10 1:0.66666667 2:0.066328055 3:0.014233283 4:0.089816572 
10 1:0.66666667 2:0.19330744 3:0.0018798675 
10 1:0.66666667 2:0.19330744 3:0.0018798675 
10 1:0.66666667 2:0.19330744 3:0.0018798675 
10 1:0.33333333 2:0.13265611 3:0.31644436 4:0.0069576218 5:0.00098522167 
10 1:0.33333333 2:0.13265611 3:0.0018798675 4:0.0044275775 
10 1:0.33333333 2:0.00059755004 3:0.039656253 
10 1:0.33333333 3:0.022379375 
10 1:0.33333333 3:0.0011637275 5:0.0049261084 
10 1:0.66666667 2:0.066328055 3:0.014233283 4:0.089816572 
10 1:0.66666667 2:0.17448461 3:0.0017008325 5:0.016748768 
10 1:0.66666667 2:0.21063639 3:0.0002685525 
10 1:0.66666667 2:0.50044816 3:8.9517501e-05 
10 1:0.33333333 2:0.13265611 3:0.0034911825 4:0.0037950664 5:0.0039408867 
10 1:0.33333333 2:0.13265611 3:0.0063557425 4:0.0069576218 
10 1:0.33333333 2:0.14490589 
10 1:0.66666667 2:0.25097102 3:0.010921135 5:0.0078817734 
10 1:0.66666667 2:0.21033762 3:8.9517501e-05 
10 1:0.66666667 2:0.21063639 3:0.0002685525 
10 1:1 2:0.0071706005 3:0.014233283 4:0.089816572 
10 1:0.33333333 2:0.13265611 3:0.013338108 
10 1:0.33333333 2:0.13265611 3:0.0068928476 
10 1:0.66666667 2:0.21900209 3:0.0017008325 
10 1:0.66666667 2:0.21063639 3:0.0002685525 
10 1:0.66666667 2:0.21063639 3:0.0002685525 
10 1:0.33333333 2:0.14490589 
10 1:0.33333333 2:0.14729609 3:8.9517501e-05 
10 1:1 2:0.0071706005 3:0.014233283 4:0.089816572 
10 1:0.33333333 2:0.16402749 3:0.000179035 
10 1:1 2:0.00059755004 3:0.015128458 5:0.01773399 
10 1:0.33333333 2:0.14490589 
10 1:0.66666667 2:0.25097102 3:0.010921135 5:0.00098522167 
10 1:0.66666667 2:0.21033762 3:8.9517501e-05 
10 1:1 2:0.33552435 3:0.001969385 5:0.01182266 
10 1:0.66666667 2:0.19330744 3:0.0018798675 
10 1:0.33333333 2:0.00029877502 3:0.01647122 4:0.0031625553 
10 1:0.66666667 2:0.19330744 3:0.0018798675 
10 1:0.33333333 2:0.13265611 3:0.016650255 4:0.0037950664 
10 1:0.66666667 2:0.50044816 3:8.9517501e-05 
10 1:0.33333333 2:0.13265611 3:0.0020589025 4:0.0018975332 5:0.00098522167 
10 1:0.66666667 2:0.19330744 3:0.0018798675 
10 1:0.33333333 2:1 
10 1:0.66666667 2:0.50134449 
10 1:0.33333333 2:0.13265611 3:0.044848268 4:0.024035421 5:0.0049261084 
10 1:0.66666667 2:0.0011951001 3:0.010921135 4:0.030993042 
10 1:0.33333333 2:0.14490589 
10 1:0.33333333 2:0.35494473 3:0.15674514 5:0.00098522167 
10 1:0.33333333 2:0.14729609 3:8.9517501e-05 
10 1:0.33333333 3:0.0068928476 4:0.00063251107 5:0.025615764 
10 1:0.33333333 3:0.00089517501 5:0.002955665 
10 1:0.33333333 3:0.0004475875 5:0.0049261084 
10 1:0.33333333 3:0.0011637275 5:0.0049261084 
10 1:0.33333333 2:0.14490589 
10 1:0.33333333 2:0.14490589 
10 1:0.33333333 2:0.14490589 
10 1:0.33333333 3:0.0011637275 5:0.0049261084 
10 1:0.33333333 2:1 
10 1:0.66666667 2:0.50134449 
10 1:0.66666667 2:0.21900209 3:0.00286456 4:0.0012650221 5:0.016748768 
10 1:1 2:0.0071706005 3:0.014233283 4:0.089816572 5:0.00098522167 
10 1:0.33333333 2:0.00029877502 3:0.15674514 
10 1:0.33333333 2:0.00029877502 3:0.15674514 
10 1:0.66666667 2:0.19330744 3:0.00035807 
10 1:0.33333333 2:0.13265611 3:8.9517501e-05 4:0.0012650221 
10 1:1 2:0.49985061 3:0.0002685525 
10 1:0.33333333 2:0.13265611 3:0.0083251276 4:0.00063251107 5:0.0088669951 
10 1:0.33333333 2:0.13265611 3:0.0088622326 
10 1:1 2:0.49985061 3:0.000537105 
10 1:0.66666667 2:0.21063639 3:0.0002685525 
10 1:0.66666667 2:0.21063639 3:0.0002685525 
10 1:0.66666667 2:0.21063639 3:0.0002685525 
10 1:0.66666667 2:0.21063639 3:0.0002685525 
10 1:1 3:0.016202668 5:0.010837438 
10 1:0.33333333 2:0.13265611 3:0.00071614001 4:0.00063251107 5:0.0019704433 
10 1:0.33333333 2:0.13265611 3:0.31644436 4:0.036053131 5:0.016748768 
10 1:0.33333333 2:0.13265611 3:0.0036702175 4:0.0031625553 
10 1:0.33333333 2:0.13265611 3:0.00286456 4:0.0018975332 
10 1:0.33333333 2:0.13265611 3:0.001611315 4:0.0037950664 
10 1:0.33333333 2:0.13265611 3:0.00107421 4:0.0031625553 
10 1:1 2:0.0071706005 3:0.014233283 4:0.089816572 
10 1:0.66666667 2:0.21063639 3:0.0002685525 
10 1:1 2:0.0071706005 3:0.014233283 4:0.089816572 
10 1:0.66666667 2:0.21063639 3:0.0002685525 
10 1:1 2:0.0071706005 3:0.014233283 4:0.089816572 
10 1:0.33333333 2:0.14490589 
10 1:1 3:0.015128458 4:0.0012650221 5:0.0098522167 
10 1:0.66666667 2:0.25634897 3:0.000179035 4:0.00063251107 
10 1:0.66666667 2:0.21063639 3:8.9517501e-05 
10 1:0.66666667 2:0.21571557 
10 1:0.66666667 2:0.21063639 3:0.0002685525 
10 1:0.33333333 2:0.0020914252 3:0.0093993376 5:0.013793103 
10 1:0.33333333 2:0.00059755004 3:0.039656253 
10 1:0.33333333 3:0.022379375 
10 1:0.33333333 2:0.14490589 
10 1:0.33333333 2:0.35494473 3:0.051741115 5:0.030541872 
10 1:0.66666667 3:0.0051024975 5:0.016748768 
10 1:0.33333333 2:0.13265611 3:0.013338108 
10 1:0.66666667 2:0.24917837 3:0.0006266225 
10 1:0.33333333 2:0.13265611 3:0.00537105 4:0.0012650221 
10 1:1 2:0.49985061 5:0.00098522167 
10 1:1 2:0.0071706005 3:0.014233283 4:0.089816572 5:0.00098522167 
10 1:1 2:0.0071706005 3:0.014233283 4:0.089816572 
10 1:1 2:0.0071706005 3:0.014233283 4:0.089816572 
10 1:0.33333333 2:0.14490589 
10 1:0.33333333 2:0.13265611 3:0.018172053 
10 1:0.66666667 2:0.24380042 3:0.000179035 
10 1:0.33333333 2:0.13265611 3:0.012621968 
10 1:0.33333333 2:0.14729609 3:8.9517501e-05 
10 1:1 2:0.0071706005 3:0.014233283 4:0.089816572 
10 1:0.66666667 3:0.081102856 4:0.00063251107 
9.683340716558245 1:1 3:0.0089517501 5:0.0039408867 
10 1:0.33333333 2:0.13265611 3:0.3611136 4:0.009487666 5:0.55763547 
10 1:0.33333333 2:0.14490589 
10 1:0.33333333 3:0.32127831 4:0.00063251107 
10 1:0.33333333 2:0.00029877502 3:0.030883538 
10 1:0.33333333 2:0.00059755004 3:0.039656253 
10 1:0.33333333 3:0.022379375 
10 1:0.33333333 2:0.13265611 3:0.0054605675 4:0.0018975332 5:0.00591133 
10 1:0.66666667 2:0.00059755004 3:0.0015217975 5:0.0078817734 
10 1:1 2:0.00029877502 3:0.00089517501 4:0.00063251107 5:0.0049261084 
10 1:1 2:0.0071706005 3:0.014233283 4:0.089816572 
10 1:0.66666667 2:0.50014939 3:0.0013427625 
10 1:0.33333333 2:0.00059755004 3:0.039656253 
10 1:0.33333333 3:0.022379375 
10 1:0.33333333 2:0.13265611 3:0.00286456 4:0.0018975332 
10 1:0.33333333 2:0.13265611 3:0.0085041626 
10 1:0.33333333 2:0.13265611 3:0.005550085 5:0.00098522167 
10 1:0.33333333 2:0.00029877502 3:0.15674514 
10 1:0.33333333 3:0.014233283 4:0.067678684 
10 1:0.33333333 2:0.13265611 3:0.0061767075 5:0.00098522167 
10 1:1 2:0.00029877502 3:0.006266225 5:0.024630542 
10 1:0.33333333 2:0.13265611 3:0.000179035 4:0.0012650221 
10 1:0.33333333 2:0.14490589 
10 1:0.33333333 2:0.14729609 3:8.9517501e-05 
10 1:0.33333333 2:0.00059755004 3:0.039656253 
10 1:0.33333333 3:0.022379375 
10 1:0.33333333 2:0.00059755004 3:0.039656253 
10 1:0.33333333 3:0.022379375 
10 1:0.33333333 3:0.0068928476 
10 1:0.33333333 2:0.14490589 
10 1:0.66666667 2:0.21063639 3:0.0002685525 
10 1:0.33333333 2:0.035853003 3:0.30265867 4:0.0012650221 
10 1:0.33333333 2:0.16402749 3:0.034464238 4:0.00063251107 
10 1:0.33333333 2:0.13265611 3:0.32127831 5:0.0019704433 
10 1:0.33333333 2:1 3:0.0027750425 5:0.00098522167 
10 1:0.33333333 2:0.14490589 
10 1:0.33333333 2:0.035853003 3:0.30265867 
10 1:0.33333333 2:0.16402749 3:0.034464238 
10 1:0.33333333 2:0.35494473 3:0.0006266225 4:0.0025300443 
10 1:0.66666667 2:0.25933672 3:8.9517501e-05 
10 1:0.33333333 2:0.14729609 3:0.0006266225 
10 1:0.33333333 2:0.13265611 3:0.0068928476 
10 1:0.33333333 2:0.00059755004 3:0.039656253 
10 1:0.33333333 3:0.022379375 
10 1:0.33333333 3:0.00098469251 4:0.00063251107 5:0.0049261084 
10 1:0.33333333 2:0.00059755004 3:0.039656253 
10 1:0.33333333 3:0.022379375 
10 1:0.33333333 2:0.16402749 5:0.00098522167 
10 1:0.33333333 2:0.14729609 3:0.26613553 
10 1:0.33333333 2:0.00059755004 3:0.039656253 
10 1:0.33333333 3:0.022379375 
10 1:0.66666667 2:0.49985061 3:0.00035807 5:0.00098522167 
10 1:0.33333333 2:0.14490589 3:0.0029540775 
10 1:0.33333333 2:0.00059755004 3:0.039656253 
10 1:0.33333333 3:0.022379375 
10 1:0.33333333 2:0.00059755004 3:0.039656253 
10 1:0.33333333 3:0.022379375 
10 1:0.33333333 2:1 4:0.00063251107 5:0.00098522167 
10 1:0.33333333 2:0.0032865252 3:0.027481873 5:0.034482759 
10 1:0.33333333 2:0.0032865252 3:0.027481873 5:0.034482759 
10 1:0.33333333 2:0.00059755004 3:0.039656253 
10 1:0.33333333 3:0.022379375 
10 1:0.33333333 2:0.00059755004 3:0.039656253 
10 1:0.33333333 3:0.022379375 
10 1:0.33333333 2:0.0032865252 3:0.027481873 5:0.034482759 
10 1:1 3:0.016202668 5:0.012807882 
10 1:0.66666667 2:0.21063639 3:0.0002685525 
10 1:0.66666667 2:0.20525844 3:0.000179035 
10 1:0.66666667 2:0.21033762 3:0.0006266225 
10 1:0.33333333 2:0.00029877502 3:0.01647122 
10 1:0.66666667 2:0.21063639 3:0.0002685525 
10 1:0.66666667 2:0.21063639 3:0.0002685525 
10 1:0.66666667 2:0.25634897 3:0.000179035 5:0.00098522167 
10 1:0.66666667 2:0.21063639 3:8.9517501e-05 
10 1:0.66666667 2:0.21571557 
10 1:0.66666667 2:0.21063639 3:0.0002685525 
10 1:1 2:0.49985061 3:0.0013427625 5:0.0039408867 
10 1:0.33333333 3:0.10482499 5:0.00098522167 
10 1:0.33333333 2:0.14490589 
10 1:0.33333333 2:0.35494473 3:0.30265867 4:0.0037950664 5:0.045320197 
10 1:0.33333333 2:1 
10 1:0.66666667 2:0.50134449 
10 1:0.33333333 2:1 
10 1:0.66666667 2:0.50134449 
10 1:0.33333333 2:0.14490589 
10 1:0.33333333 2:0.14490589 3:8.9517501e-05 
10 1:0.33333333 2:0.13265611 3:0.0068928476 
10 1:0.33333333 3:0.0089517501 
10 1:0.33333333 2:0.00059755004 3:0.020499508 
10 1:0.33333333 2:0.00089632507 3:0.3611136 
10 1:0.33333333 2:0.037346878 3:0.30265867 4:0.0018975332 
10 1:0.33333333 2:0.027487302 3:0.11941635 4:0.0056925996 5:0.39211823 
10 1:0.33333333 2:0.14490589 
10 1:0.33333333 3:0.020499508 4:0.010120177 5:0.0049261084 
10 1:1 2:0.00029877502 3:0.0054605675 4:0.0025300443 5:0.0098522167 
10 1:0.33333333 2:0.36570063 3:0.00089517501 4:0.00063251107 5:0.0039408867 
10 1:0.33333333 2:0.012847326 3:0.19389491 
10 1:0.33333333 3:0.0089517501 
10 1:0.33333333 2:0.00059755004 3:0.020499508 
10 1:0.33333333 2:0.00089632507 3:0.3611136 4:0.010752688 
10 1:0.66666667 2:0.34777413 
10 1:0.33333333 2:1 3:0.0045653925 4:0.0012650221 
10 1:0.33333333 3:0.0089517501 
10 1:0.33333333 2:0.00089632507 3:0.3611136 
10 1:0.66666667 2:0.34777413 3:0.00179035 4:0.0012650221 
10 1:0.33333333 2:0.14729609 3:8.9517501e-05 
10 1:0.33333333 2:0.14729609 3:8.9517501e-05 
10 1:0.33333333 2:1 3:0.00035807 4:0.0018975332 5:0.00098522167 
10 1:0.33333333 2:0.14490589 
10 1:0.33333333 3:0.0068928476 
10 1:0.33333333 3:0.00179035 5:0.0068965517 
10 1:0.33333333 2:0.16402749 3:0.00035807 
10 1:0.33333333 2:0.00029877502 3:0.15674514 4:0.0044275775 
10 1:0.33333333 2:0.032267702 3:0.32127831 
10 1:0.33333333 2:0.039139528 3:0.30265867 
10 1:0.33333333 2:0.16402749 3:0.00071614001 
10 1:0.66666667 2:0.49985061 3:0.0006266225 4:0.00063251107 5:0.00098522167 
10 1:0.33333333 3:0.117626 
10 1:0.33333333 2:0.14729609 3:0.00501298 
10 1:0.33333333 3:0.0068928476 
10 1:0.33333333 2:1 3:0.0013427625 4:0.00063251107 5:0.00098522167 
10 1:0.33333333 2:1 3:0.0002685525 4:0.00063251107 5:0.00098522167 
10 1:0.33333333 2:0.35494473 3:0.0042073225 
10 1:0.66666667 2:0.50044816 
10 1:0.33333333 2:0.36570063 3:0.00098469251 4:0.00063251107 
10 1:0.33333333 2:0.048401554 3:0.26613553 
10 1:0.66666667 2:0.26471467 3:0.000537105 
10 1:0.33333333 2:0.13265611 3:0.0017008325 4:0.0063251107 
10 1:1 2:0.0071706005 3:0.014233283 4:0.089816572 
10 1:0.33333333 3:0.0068928476 4:0.00063251107 5:0.025615764 
10 1:0.33333333 3:0.00089517501 5:0.002955665 
10 1:0.33333333 3:0.0004475875 5:0.0049261084 
10 1:0.33333333 2:0.14729609 3:0.26613553 
10 1:0.33333333 2:0.16402749 3:0.034464238 
10 1:0.33333333 2:0.36570063 3:0.000537105 4:0.00063251107 5:0.00098522167 
10 1:0.66666667 2:0.21063639 
10 1:0.33333333 3:0.0089517501 
10 1:0.33333333 2:0.00059755004 3:0.020499508 
10 1:0.33333333 2:0.13265611 3:0.014859905 4:0.01201771 
10 1:0.33333333 2:1 4:0.00063251107 
10 1:0.33333333 2:0.36570063 3:0.001253245 5:0.00098522167 
10 1:0.33333333 2:0.35494473 3:0.30265867 4:0.00063251107 5:1 
10 1:0.66666667 2:0.63698835 3:0.0002685525 4:0.0018975332 5:0.00098522167 
10 1:0.33333333 2:0.00059755004 3:0.039656253 
10 1:0.33333333 3:0.022379375 
10 1:0.33333333 2:0.13265611 3:0.0002685525 4:0.0025300443 
10 1:0.33333333 2:1 3:0.0004475875 4:0.0031625553 5:0.00098522167 
10 1:0.33333333 2:0.00059755004 3:0.039656253 
10 1:0.33333333 3:0.022379375 
10 1:0.33333333 3:0.045027303 
10 1:0.33333333 2:0.00029877502 3:0.30265867 4:0.00063251107 
10 1:0.33333333 3:0.11941635 
10 1:0.33333333 2:0.14729609 
10 1:0.33333333 3:0.0089517501 
10 1:0.33333333 2:0.00059755004 3:0.020499508 4:0.00063251107 
10 1:0.33333333 2:0.00089632507 3:0.3611136 
10 1:0.33333333 2:0.14729609 3:0.26613553 
10 1:1 2:0.0071706005 3:0.014233283 4:0.089816572 
10 1:0.33333333 2:0.35494473 3:0.30265867 4:0.00063251107 
10 1:0.33333333 3:0.0081460926 4:0.00063251107 5:0.0019704433 
10 1:0.33333333 2:0.024200777 3:0.26613553 4:0.0031625553 
10 1:0.33333333 2:0.039139528 3:0.30265867 
10 1:0.33333333 2:0.16402749 3:0.00071614001 
10 1:0.33333333 2:0.14490589 3:0.00089517501 
10 1:0.33333333 3:0.0089517501 
10 1:0.33333333 2:0.00059755004 3:0.020499508 4:0.00063251107 
10 1:0.33333333 2:0.00089632507 3:0.3611136 
10 1:0.33333333 3:0.0089517501 
10 1:0.33333333 2:0.00059755004 3:0.020499508 4:0.00063251107 
10 1:0.33333333 2:0.00089632507 3:0.3611136 
10 1:0.66666667 2:0.0011951001 3:0.010921135 4:0.030993042 
10 1:0.33333333 2:0.0032865252 3:0.027481873 5:0.034482759 
10 1:0.33333333 2:0.16402749 3:0.10437741 4:0.0018975332 
10 1:0.33333333 3:0.01647122 5:0.010837438 
10 1:0.33333333 2:0.020914252 3:0.30265867 4:0.0018975332 
10 1:0.33333333 2:0.0059755004 3:0.117626 4:0.0012650221 
10 1:0.33333333 2:0.14490589 
10 1:0.33333333 2:0.13265611 3:0.31644436 
10 1:0.33333333 2:1 3:0.0045653925 
10 1:0.33333333 2:0.35494473 3:0.051741115 5:0.0078817734 
10 1:0.66666667 2:0.23274574 3:0.0011637275 4:0.00063251107 5:0.0019704433 
10 1:0.33333333 2:0.14729609 3:0.26613553 
10 1:0.33333333 2:0.16402749 3:0.10437741 
10 1:0.33333333 2:0.16402749 
10 1:0.33333333 2:0.14490589 
10 1:0.33333333 2:0.0020914252 3:0.0093993376 4:0.0025300443 5:0.013793103 
10 1:0.33333333 2:0.00059755004 3:0.039656253 
10 1:0.33333333 3:0.022379375 
10 1:0.33333333 2:0.13265611 3:0.0002685525 4:0.0025300443 
10 1:0.33333333 2:1 3:0.0004475875 4:0.0031625553 5:0.0039408867 
10 1:0.33333333 2:0.0020914252 3:0.0093993376 4:0.0025300443 5:0.013793103 
10 1:0.33333333 2:0.00059755004 3:0.039656253 
10 1:0.33333333 3:0.022379375 
10 1:0.33333333 2:0.16402749 3:0.005192015 
10 1:0.33333333 2:0.13265611 3:0.0002685525 4:0.0025300443 
10 1:0.33333333 2:1 3:0.0004475875 4:0.0031625553 5:0.0039408867 
10 1:0.66666667 3:0.004117805 4:0.029095509 5:0.002955665 
10 1:0.33333333 2:0.00029877502 3:0.15674514 
10 1:0.33333333 2:0.0020914252 3:0.0093993376 4:0.0025300443 5:0.013793103 
10 1:0.33333333 2:0.00059755004 3:0.039656253 
10 1:0.33333333 3:0.022379375 
10 1:0.33333333 2:0.00059755004 3:0.039656253 
10 1:0.33333333 3:0.022379375 
10 1:0.33333333 2:0.00059755004 3:0.039656253 
10 1:0.33333333 3:0.022379375 
10 1:0.33333333 2:0.00059755004 3:0.039656253 
10 1:0.33333333 3:0.022379375 
10 1:0.33333333 2:0.00059755004 3:0.039656253 
10 1:0.33333333 3:0.022379375 
10 1:0.33333333 3:0.000537105 5:0.0039408867 
10 1:0.33333333 3:0.00179035 5:0.002955665 
10 1:0.33333333 3:0.10437741 
10 1:0.33333333 2:0.00029877502 3:0.15674514 
10 1:0.33333333 3:0.030883538 
10 1:0.33333333 2:0.14490589 3:0.00393877 
10 1:0.33333333 2:1 3:0.0004475875 4:0.00063251107 5:0.0039408867 
10 1:0.33333333 2:0.00029877502 3:0.0029540775 5:0.0039408867 
10 1:0.33333333 2:0.16402749 3:0.0029540775 5:0.00098522167 
10 1:0.33333333 2:0.0014938751 3:0.11941635 
10 1:0.33333333 2:0.0020914252 3:0.117626 4:0.00063251107 
10 1:0.66666667 2:0.21063639 3:0.0002685525 
10 1:0.66666667 2:0.20525844 3:0.000179035 
10 1:0.66666667 2:0.21033762 3:0.0006266225 
10 1:0.66666667 2:0.21063639 3:0.0002685525 
10 1:0.33333333 2:0.16402749 3:0.0029540775 
10 1:0.33333333 2:0.13265611 3:0.01539701 4:0.03542062 5:0.00098522167 
10 1:1 2:0.50044816 3:8.9517501e-05 5:0.0019704433 
10 1:0.33333333 2:0.13265611 3:0.00035807 4:0.0012650221 5:0.00098522167 
10 1:0.66666667 2:0.21063639 3:0.0002685525 
10 1:0.66666667 2:0.21063639 3:0.0002685525 
10 1:0.33333333 2:0.14490589 
10 1:0.33333333 2:0.35494473 3:0.051741115 5:0.012807882 
10 1:0.33333333 2:0.13265611 3:0.0018798675 4:0.0012650221 
10 1:0.66666667 2:0.21063639 3:0.0002685525 
10 1:0.66666667 2:0.21063639 3:0.0004475875 
10 1:0.66666667 2:0.21571557 3:0.00071614001 
10 1:0.66666667 2:0.26471467 
10 1:0.66666667 2:0.21063639 3:0.0002685525 
10 1:0.66666667 2:0.21063639 3:0.0002685525 
10 1:0.66666667 2:0.21063639 3:0.0002685525 
10 1:0.33333333 2:0.14490589 
10 1:0.33333333 2:0.14729609 3:8.9517501e-05 
10 1:1 2:0.0071706005 3:0.014233283 4:0.089816572 
10 1:0.33333333 2:0.14490589 
10 1:0.66666667 2:0.25097102 3:0.010921135 5:0.00098522167 
10 1:0.66666667 2:0.21033762 3:8.9517501e-05 
10 1:0.33333333 2:0.13265611 3:0.04440068 
10 1:1 2:0.49985061 3:0.00143228 5:0.00098522167 
10 1:0.33333333 2:0.14490589 
10 1:0.66666667 2:0.24380042 3:0.000537105 
10 1:0.33333333 2:0.13265611 3:0.0068928476 
10 1:0.66666667 2:0.21063639 3:0.0002685525 4:0.00063251107 
10 1:0.33333333 2:0.13265611 3:0.0002685525 4:0.0018975332 
10 1:0.66666667 2:0.50224081 
10 1:0.33333333 2:0.13265611 3:0.0068928476 
10 1:1 2:0.25575142 3:0.0054605675 4:0.008855155 5:0.022660099 
10 1:0.66666667 2:0.21571557 
10 1:0.33333333 2:0.14490589 
10 1:0.66666667 2:0.21063639 3:0.0002685525 
10 1:0.66666667 2:0.20525844 3:0.000179035 4:0.0012650221 
10 1:0.66666667 2:0.21033762 3:0.0006266225 4:0.0025300443 
10 1:0.66666667 2:0.21063639 3:0.0076089876 
10 1:0.33333333 2:0.13265611 3:0.0085041626 
10 1:0.33333333 2:0.13265611 3:0.034911825 
10 1:0.66666667 2:0.20525844 3:0.00179035 
10 1:0.66666667 2:0.21033762 3:0.00286456 
10 1:1 3:0.01038403 5:0.015763547 
10 1:1 2:0.081864356 3:0.0068033301 5:0.03546798 
10 1:0.66666667 2:0.21063639 3:0.0002685525 
10 1:0.33333333 3:0.10482499 5:0.00098522167 
10 1:1 2:0.0071706005 3:0.014233283 4:0.089816572 5:0.00098522167 
10 1:0.33333333 2:0.13265611 3:0.0068928476 4:0.0012650221 
10 1:0.33333333 2:0.13265611 3:0.0061767075 5:0.03546798 
10 1:0.66666667 2:0.21063639 3:0.0002685525 
10 1:0.33333333 2:0.13265611 3:0.0069823651 4:0.00063251107 
10 1:0.66666667 2:0.21063639 3:0.0076089876 5:0.0098522167 
10 1:0.66666667 2:0.20525844 3:0.00179035 
10 1:0.66666667 2:0.21033762 3:0.00286456 
10 1:0.66666667 2:0.27845832 3:0.0004475875 
10 1:0.66666667 2:0.22109352 
10 1:0.66666667 2:0.21720944 
10 1:1 3:0.01038403 4:0.0050600886 5:0.015763547 
10 1:1 2:0.081864356 3:0.0068033301 4:0.01201771 5:0.03546798 
10 1:0.66666667 2:0.20525844 3:0.00179035 4:0.0012650221 5:0.0049261084 
10 1:0.66666667 2:0.21033762 3:0.00286456 4:0.00063251107 
10 1:1 3:0.01038403 5:0.015763547 
10 1:1 2:0.081864356 3:0.0068033301 5:0.03546798 
10 1:0.66666667 3:0.039119148 
10 1:1 3:0.00080565751 4:0.0037950664 5:0.0088669951 
10 1:1 3:0.00143228 4:0.010120177 5:0.0049261084 
10 1:1 2:0.00029877502 3:0.001253245 4:0.009487666 5:0.013793103 
10 1:0.33333333 2:0.14490589 
10 1:0.33333333 2:0.14490589 
10 1:0.33333333 2:0.14729609 
10 1:0.66666667 2:0.21063639 
10 1:0.66666667 2:0.21063639 
10 1:0.33333333 2:0.14490589 3:8.9517501e-05 
10 1:0.33333333 2:0.14490589 
10 1:0.33333333 2:0.35494473 3:0.30265867 4:0.0037950664 5:0.00098522167 
10 1:0.66666667 2:0.24380042 4:0.00063251107 
10 1:0.66666667 2:0.21063639 3:0.0072509176 5:0.0039408867 
10 1:0.66666667 2:0.23991634 3:8.9517501e-05 
10 1:0.66666667 2:0.24529429 3:0.00035807 4:0.0031625553 
10 1:0.66666667 2:0.2942934 
10 1:0.66666667 2:0.21063639 3:0.0002685525 
10 1:0.33333333 2:0.13265611 3:0.0018798675 4:0.0012650221 
10 1:0.66666667 2:0.50014939 
10 1:0.66666667 2:0.49985061 
10 1:0.33333333 2:0.35494473 3:0.0042073225 
10 1:1 3:0.0083251276 5:0.0078817734 
10 1:1 2:0.0071706005 3:0.014233283 4:0.089816572 
10 1:0.33333333 2:0.00059755004 3:0.006266225 5:0.01182266 
10 1:0.33333333 2:0.35494473 3:0.0042073225 5:0.0088669951 
10 1:0.33333333 2:0.00029877502 3:0.0006266225 4:0.0025300443 5:0.0039408867 
10 1:0.66666667 2:0.56617867 
10 1:1 3:0.0083251276 5:0.0078817734 
10 1:0.33333333 3:0.0068928476 
10 1:0.66666667 3:0.0004475875 5:0.0039408867 
10 1:1 3:0.0045653925 5:0.013793103 
10 1:0.66666667 2:0.21900209 3:0.00035807 
10 1:0.66666667 2:0.18314909 3:0.0069823651 
10 1:1 2:0.49985061 3:0.000179035 
10 1:0.66666667 2:0.25515387 3:0.003759735 4:0.0031625553 
10 1:0.66666667 2:0.18912459 3:0.0004475875 4:0.00063251107 
10 1:0.66666667 2:0.19002091 
10 1:0.66666667 2:0.26471467 
10 1:0.66666667 2:0.20525844 3:0.0002685525 
10 1:0.66666667 2:0.21033762 3:8.9517501e-05 
10 1:0.66666667 2:0.24917837 
10 1:0.33333333 3:0.0088622326 
10 1:1 2:0.49985061 3:0.00080565751 
10 1:0.66666667 2:0.16611891 3:0.0038492525 5:0.0078817734 
10 1:0.66666667 2:0.2859277 3:0.0036702175 
10 1:0.66666667 2:0.21601434 3:0.000179035 5:0.00098522167 
10 1:0.66666667 2:0.21631312 5:0.00098522167 
10 1:0.66666667 2:0.23991634 3:8.9517501e-05 5:0.00098522167 
10 1:0.33333333 2:0.13265611 3:0.013338108 4:0.0056925996 
10 1:0.66666667 3:0.0054605675 4:0.0012650221 5:0.002955665 
10 1:0.66666667 2:0.49985061 3:8.9517501e-05 4:0.00063251107 
10 1:0.33333333 2:0.13265611 3:0.0052815325 4:0.0037950664 
10 1:0.66666667 2:0.50014939 
10 1:0.33333333 2:0.14490589 
10 1:1 2:0.49985061 3:0.0002685525 
10 1:0.66666667 3:0.0083251276 5:0.014778325 
10 1:0.66666667 3:0.0054605675 5:0.010837438 
10 1:0.33333333 2:0.13265611 3:0.0085041626 5:0.00098522167 
10 1:0.33333333 2:0.13265611 3:0.0076985051 4:0.0025300443 
10 1:0.33333333 2:0.13265611 3:0.004833945 5:0.00098522167 
10 1:1 2:0.49985061 3:0.000179035 
10 1:0.66666667 2:0.19330744 5:0.00098522167 
10 1:0.66666667 2:0.19330744 3:0.00035807 
10 1:0.33333333 2:0.13265611 3:0.0076985051 5:0.00098522167 
10 1:0.66666667 2:0.19330744 3:0.00035807 
10 1:1 3:0.0092203026 5:0.0098522167 
10 1:0.33333333 2:0.13265611 3:0.003759735 4:0.010120177 
10 1:0.66666667 2:0.19330744 3:0.00035807 
10 1:0.66666667 2:0.23991634 3:8.9517501e-05 
10 1:0.66666667 2:0.2942934 
10 1:0.33333333 2:0.14490589 3:0.0029540775 
10 1:1 2:0.012548551 3:0.0036702175 4:0.010752688 5:0.013793103 
10 1:0.33333333 2:0.00029877502 3:0.013338108 4:0.0056925996 
10 1:1 2:0.0062742755 3:0.0035807 5:0.01182266 
10 1:0.66666667 2:0.21900209 3:0.000179035 
10 1:0.66666667 2:0.50044816 
10 1:1 3:0.01038403 4:0.0050600886 5:0.015763547 
10 1:1 2:0.081864356 3:0.0068033301 4:0.01201771 5:0.03546798 
10 1:0.66666667 2:0.20525844 3:0.00179035 4:0.0012650221 5:0.0049261084 
10 1:0.66666667 2:0.21033762 3:0.00286456 4:0.00063251107 
10 1:1 3:0.01038403 4:0.0050600886 5:0.015763547 
10 1:1 2:0.081864356 3:0.0068033301 4:0.01201771 5:0.03546798 
10 1:0.33333333 2:0.14490589 
10 1:0.66666667 2:0.21063639 3:0.0004475875 4:0.00063251107 
10 1:0.66666667 2:0.21571557 3:0.00071614001 
10 1:0.66666667 2:0.26471467 
10 1:0.33333333 2:0.14729609 3:8.9517501e-05 
10 1:0.33333333 2:0.13265611 3:0.0214842 4:0.018342821 5:0.002955665 
10 1:0.66666667 2:0.50194204 
10 1:0.66666667 2:0.21063639 3:0.0004475875 4:0.00063251107 
10 1:0.66666667 2:0.21571557 3:0.00071614001 
10 1:0.66666667 2:0.26471467 
10 1:0.33333333 2:0.13265611 3:0.0085041626 
10 1:0.66666667 2:0.24977592 
10 1:1 2:0.49985061 3:0.00089517501 
10 1:0.66666667 2:0.25515387 
10 1:0.33333333 2:0.13265611 3:0.002327455 4:0.013282732 5:0.00098522167 
10 1:0.66666667 2:0.20346579 3:0.019156745 4:0.0044275775 
10 1:0.33333333 2:0.27427547 3:0.00644526 5:0.0039408867 
10 1:1 3:0.0020589025 5:0.022660099 
10 1:0.33333333 2:0.14490589 3:0.0029540775 
10 1:0.33333333 2:0.35494473 3:0.0042073225 5:0.0019704433 
10 1:0.33333333 2:0.13265611 3:0.004833945 4:0.0031625553 
10 1:0.66666667 2:0.25515387 
10 1:0.33333333 2:0.14490589 
10 1:0.66666667 2:0.18314909 3:0.0069823651 
10 1:0.66666667 2:0.49985061 
10 1:0.66666667 2:0.21571557 3:0.00035807 
10 1:0.66666667 2:0.24977592 3:0.0006266225 
10 1:0.66666667 2:0.21571557 3:0.00035807 
10 1:0.66666667 2:0.20525844 3:0.0002685525 
10 1:0.66666667 2:0.21033762 3:8.9517501e-05 
10 1:0.66666667 3:0.002327455 5:0.0068965517 
10 1:0.66666667 2:0.21063639 3:0.0072509176 
10 1:0.66666667 2:0.21571557 3:0.00035807 4:0.0012650221 
10 1:0.33333333 2:0.13265611 3:0.0085041626 
10 1:0.33333333 2:0.13265611 3:0.0085041626 
10 1:0.66666667 2:0.21571557 3:0.00035807 
10 1:0.66666667 2:0.24380042 3:0.0006266225 5:0.00098522167 
10 1:0.33333333 2:0.13265611 3:0.01253245 5:0.0088669951 
10 1:0.66666667 2:0.21571557 3:0.00035807 
10 1:0.33333333 2:0.13265611 3:0.0085041626 
10 1:0.66666667 3:0.002327455 4:0.0082226439 5:0.0068965517 
10 1:0.66666667 2:0.50104571 
10 1:0.66666667 2:0.27845832 3:0.0004475875 
10 1:0.66666667 2:0.21720944 3:0.0002685525 
10 1:0.66666667 2:0.23991634 3:0.000537105 
10 1:0.66666667 2:0.2942934 3:0.0002685525 5:0.00098522167 
10 1:1 3:0.002327455 5:0.0068965517 
10 1:0.33333333 2:1 3:0.000537105 
10 1:0.33333333 2:1 3:0.00080565751 5:0.00098522167 
10 1:0.66666667 2:0.00029877502 3:0.0054605675 5:0.0039408867 
10 1:0.66666667 2:0.21571557 3:0.00035807 4:0.0012650221 
10 1:0.33333333 2:1 3:0.00089517501 5:0.00098522167 
10 1:0.66666667 3:0.002327455 5:0.0068965517 
10 1:0.66666667 2:0.21571557 3:0.00035807 
10 1:0.33333333 2:0.36570063 3:0.00089517501 5:0.002955665 
10 1:0.66666667 2:0.21571557 3:0.00035807 
10 1:0.33333333 2:0.36570063 3:0.00035807 4:0.0012650221 5:0.00098522167 
10 1:0.66666667 2:0.21571557 3:0.00035807 
10 1:1 3:0.002327455 4:0.0082226439 5:0.0068965517 
10 1:0.33333333 2:1 3:0.00080565751 5:0.0019704433 
10 1:0.66666667 2:0.00029877502 3:0.0083251276 5:0.0078817734 
10 1:0.33333333 2:1 3:0.00089517501 4:0.00063251107 5:0.00098522167 
10 1:1 3:0.002327455 4:0.0082226439 5:0.0068965517 
10 1:0.66666667 2:0.56617867 
10 1:0.33333333 2:0.36570063 3:0.00089517501 5:0.0019704433 
10 1:0.66666667 2:0.21571557 3:0.00035807 
10 1:0.33333333 3:0.0093993376 
10 1:0.33333333 2:0.020914252 3:0.30265867 5:0.0049261084 
10 1:0.33333333 2:0.0059755004 3:0.117626 
10 1:1 3:0.002327455 4:0.0082226439 5:0.0068965517 
10 1:0.33333333 2:1 3:0.00089517501 4:0.00063251107 5:0.00098522167 
10 1:0.33333333 2:1 3:0.00089517501 4:0.00063251107 5:0.0039408867 
10 1:0.33333333 2:0.13265611 3:0.31644436 
10 1:0.33333333 2:1 3:0.0045653925 5:0.00098522167 
10 1:0.33333333 2:0.13265611 3:0.0092203026 
10 1:0.33333333 2:1 3:8.9517501e-05 5:0.00098522167 
10 1:0.33333333 2:0.13265611 3:0.3611136 4:0.0018975332 5:0.0098522167 
10 1:0.33333333 2:1 3:0.00107421 4:0.00063251107 5:0.00098522167 
10 1:0.33333333 2:0.13265611 3:0.081102856 4:0.00063251107 
10 1:0.33333333 2:1 4:0.00063251107 
10 1:0.33333333 2:0.0014938751 3:0.0068928476 5:0.025615764 
10 1:0.33333333 2:0.00029877502 3:0.0004475875 5:0.0049261084 
10 1:0.33333333 2:0.27427547 3:0.0006266225 4:0.00063251107 
10 1:0.33333333 2:0.16402749 3:0.0002685525 
10 1:0.33333333 2:0.36570063 3:0.00089517501 5:0.002955665 
10 1:0.66666667 2:0.21571557 3:0.00035807 
10 1:0.33333333 2:0.27427547 3:0.0006266225 4:0.0012650221 
10 1:0.33333333 2:0.35494473 3:8.9517501e-05 5:0.00098522167 
10 1:0.33333333 2:0.16402749 3:0.0004475875 5:0.0019704433 
10 1:0.33333333 2:0.14490589 
10 1:0.33333333 2:1 3:0.0004475875 4:0.00063251107 5:0.00098522167 
10 1:0.33333333 2:0.14490589 3:0.00098469251 4:0.00063251107 
10 1:0.33333333 2:0.27427547 3:0.0006266225 
10 1:0.33333333 2:0.35494473 3:0.0006266225 
10 1:0.33333333 2:0.36570063 3:0.00035807 
10 1:0.33333333 2:0.14729609 3:0.26613553 
10 1:0.33333333 2:1 3:0.000537105 
10 1:0.33333333 2:0.35494473 3:0.30265867 
10 1:0.33333333 2:0.27427547 3:0.0006266225 
10 1:0.33333333 2:0.35494473 3:0.0006266225 5:0.0019704433 
10 1:0.66666667 2:0.49985061 3:0.00035807 
10 1:0.33333333 2:0.14490589 
10 1:0.33333333 2:0.42455931 3:0.00080565751 4:0.0044275775 5:0.0019704433 
10 1:0.33333333 2:0.14490589 
10 1:1 3:0.01038403 5:0.015763547 
10 1:1 2:0.081864356 3:0.0068033301 5:0.03546798 
10 1:0.66666667 2:0.21033762 
10 1:0.33333333 2:0.14490589 
10 1:0.33333333 2:0.14490589 
10 1:0.33333333 2:0.14490589 
10 1:0.66666667 2:0.21033762 
10 1:0.66666667 2:0.25933672 3:0.0006266225 
10 1:0.66666667 2:0.21063639 3:0.00214842 
10 1:1 2:0.073797431 3:0.0068033301 5:0.03546798 
10 1:0.66666667 2:0.00029877502 3:0.00250649 5:0.014778325 
10 1:0.33333333 2:0.0014938751 3:0.0068928476 5:0.025615764 
10 1:0.33333333 2:0.00029877502 3:0.0004475875 5:0.0049261084 
10 1:1 2:0.00089632507 3:0.00080565751 4:0.0018975332 5:0.00591133 
10 1:1 3:0.0054605675 5:0.0098522167 
10 1:0.33333333 2:0.0014938751 3:0.03043595 5:0.0049261084 
10 1:0.33333333 2:0.18524051 3:0.00071614001 4:0.0050600886 5:0.00098522167 
10 1:0.33333333 2:0.36570063 3:0.00071614001 
10 1:0.66666667 2:0.21063639 3:8.9517501e-05 
10 1:0.33333333 2:0.0014938751 3:0.03043595 
10 1:0.33333333 2:0.36570063 3:0.00071614001 
10 1:0.66666667 2:0.21063639 3:8.9517501e-05 
10 1:0.33333333 2:1 3:0.00143228 4:0.0012650221 
0.54911248474600671 1:1 2:0.49985061 3:0.000179035 
10 1:0.33333333 2:1 3:0.00080565751 
10 1:0.66666667 2:0.50104571 
10 1:0.33333333 2:0.36570063 3:0.00071614001 4:0.0012650221 
10 1:0.33333333 2:0.36570063 3:0.00071614001 5:0.0049261084 
10 1:0.33333333 2:0.0014938751 3:0.03043595 5:0.00098522167 
10 1:0.33333333 2:0.18524051 3:0.00071614001 4:0.0050600886 5:0.0019704433 
10 1:0.33333333 2:0.16402749 3:0.10437741 
10 1:0.33333333 2:0.27427547 3:0.19389491 
10 1:0.33333333 2:1 
10 1:0.33333333 2:1 3:0.0027750425 5:0.0019704433 
10 1:0.33333333 2:0.0014938751 3:0.0068928476 5:0.025615764 
10 1:0.33333333 2:0.00029877502 3:0.0004475875 5:0.0049261084 
10 1:1 2:0.00089632507 3:0.00080565751 4:0.0018975332 5:0.00591133 
10 1:1 2:0.00089632507 3:0.00080565751 4:0.0018975332 5:0.00591133 
10 1:0.33333333 3:0.0093993376 
10 1:1 2:0.00089632507 3:0.00080565751 4:0.0018975332 5:0.00591133 
10 1:0.33333333 2:0.0014938751 3:0.0068928476 5:0.025615764 
10 1:0.33333333 2:0.00029877502 3:0.0004475875 5:0.0049261084 
10 1:1 2:0.00089632507 3:0.00080565751 4:0.0018975332 5:0.00591133 
10 1:0.33333333 2:0.36570063 3:0.00071614001 
10 1:0.66666667 2:0.21063639 3:8.9517501e-05 
10 1:0.33333333 2:0.16402749 3:0.00429684 
10 1:0.33333333 2:0.13265611 3:0.0085041626 5:0.00098522167 
10 1:0.33333333 2:1 3:0.0083251276 5:0.0019704433 
10 1:0.66666667 2:0.21063639 3:8.9517501e-05 
10 1:0.33333333 2:0.0014938751 3:0.03043595 
10 1:0.66666667 3:0.00107421 5:0.0049261084 
10 1:0.33333333 2:0.00029877502 3:0.0029540775 4:0.0012650221 5:0.002955665 
10 1:0.33333333 3:0.00179035 5:0.0068965517 
10 1:0.33333333 2:0.0014938751 3:0.03043595 
10 1:0.66666667 2:0.50194204 3:8.9517501e-05 
10 1:0.33333333 2:1 
10 1:0.33333333 2:0.36570063 3:0.00071614001 
10 1:0.66666667 2:0.21063639 3:8.9517501e-05 
10 1:0.33333333 2:0.16402749 3:0.000179035 
10 1:0.33333333 2:0.16402749 3:8.9517501e-05 
10 1:0.33333333 2:0.36570063 3:0.00071614001 4:0.0012650221 
10 1:0.33333333 2:0.00029877502 3:0.0004475875 5:0.0049261084 
10 1:0.33333333 2:0.0014938751 3:0.03043595 5:0.00098522167 
10 1:0.33333333 2:0.18524051 3:0.00071614001 4:0.0050600886 5:0.0019704433 
10 1:0.33333333 2:0.16402749 3:0.10437741 
10 1:0.66666667 3:0.00107421 4:0.00063251107 5:0.0049261084 
10 1:0.33333333 2:0.0014938751 3:0.0068928476 5:0.025615764 
10 1:0.33333333 2:0.00029877502 3:0.0004475875 5:0.0049261084 
10 1:0.33333333 2:0.36570063 3:0.00071614001 4:0.00063251107 
10 1:0.33333333 2:0.0014938751 3:0.03043595 5:0.00098522167 
10 1:0.33333333 2:0.18524051 3:0.00071614001 5:0.00098522167 
10 1:0.33333333 2:0.020914252 3:0.30265867 4:0.00063251107 
10 1:0.33333333 2:0.0059755004 3:0.117626 4:0.00063251107 
10 1:0.33333333 2:0.36570063 3:0.00071614001 
10 1:0.33333333 2:0.012847326 3:0.19389491 
10 1:0.33333333 2:0.0014938751 3:0.03043595 
10 1:0.33333333 2:0.18524051 3:0.00071614001 4:0.0050600886 5:0.00098522167 
10 1:0.33333333 2:1 3:0.0006266225 5:0.0019704433 
10 1:0.33333333 2:1 3:0.00143228 4:0.0012650221 
10 1:0.33333333 2:1 3:0.00080565751 5:0.0039408867 
10 1:0.66666667 2:0.50104571 
10 1:0.33333333 2:0.0014938751 3:0.03043595 
10 1:0.33333333 2:0.18524051 3:0.00071614001 4:0.0050600886 5:0.00098522167 
10 1:0.33333333 2:0.00059755004 3:0.006266225 5:0.01182266 
10 1:0.33333333 2:0.35494473 3:0.0042073225 5:0.0088669951 
10 1:0.33333333 3:0.0099364426 
10 1:0.33333333 3:0.0099364426 
10 1:0.33333333 2:0.14490589 
10 1:0.66666667 2:0.49985061 3:0.00035807 
10 1:0.33333333 2:1 3:0.00080565751 5:0.0039408867 
10 1:0.66666667 2:0.50104571 
10 1:0.33333333 2:0.42455931 3:0.00080565751 5:0.0019704433 
10 1:1 3:0.01038403 5:0.015763547 
10 1:1 2:0.081864356 3:0.0068033301 5:0.03546798 
10 1:0.33333333 2:0.00029877502 3:0.027481873 
10 1:0.33333333 2:0.0080669256 3:0.30265867 
10 1:0.33333333 2:0.0077681506 3:0.15674514 
10 1:0.33333333 2:0.00029877502 3:0.027481873 
10 1:0.33333333 2:0.0080669256 3:0.30265867 
10 1:0.33333333 2:0.0077681506 3:0.15674514 
10 1:0.33333333 2:0.00029877502 3:0.027481873 
10 1:0.33333333 2:0.0080669256 3:0.30265867 
10 1:0.33333333 2:0.0077681506 3:0.15674514 
10 1:0.33333333 2:0.00029877502 3:0.027481873 
10 1:0.33333333 2:0.0080669256 3:0.30265867 
10 1:0.33333333 2:0.0077681506 3:0.15674514 
10 1:0.33333333 2:0.14490589 
10 1:0.33333333 2:0.00029877502 3:0.027481873 
10 1:0.33333333 2:0.0080669256 3:0.30265867 
10 1:0.33333333 2:0.0077681506 3:0.15674514 
10 1:0.33333333 2:0.00029877502 3:0.027481873 
10 1:0.33333333 2:0.0080669256 3:0.30265867 
10 1:0.33333333 2:0.0077681506 3:0.15674514 
10 1:0.33333333 2:0.00029877502 3:0.027481873 
10 1:0.33333333 2:0.0077681506 3:0.15674514 
10 1:0.33333333 2:0.00029877502 3:0.027481873 
10 1:0.33333333 2:0.0077681506 3:0.15674514 
10 1:0.33333333 2:0.020914252 3:0.30265867 5:0.0049261084 
10 1:0.33333333 2:0.0059755004 3:0.117626 
10 1:0.33333333 3:0.0068928476 5:0.00098522167 
10 1:0.33333333 2:0.00029877502 3:0.027481873 4:0.00063251107 
10 1:0.33333333 2:0.0077681506 3:0.15674514 
10 1:0.33333333 2:0.00029877502 3:0.027481873 
10 1:0.33333333 2:0.0077681506 3:0.15674514 4:0.00063251107 
10 1:0.33333333 3:0.0068928476 5:0.002955665 
10 1:0.33333333 2:0.00029877502 3:0.027481873 
10 1:0.33333333 2:0.0077681506 3:0.15674514 
10 1:0.33333333 2:1 3:0.002327455 4:0.0025300443 
10 1:0.33333333 2:1 3:0.00080565751 4:0.0063251107 5:0.0019704433 
10 1:0.66666667 2:0.011951001 3:0.03043595 5:0.060098522 
10 1:0.33333333 2:0.00029877502 3:0.027481873 
10 1:0.33333333 2:0.0077681506 3:0.15674514 5:0.033497537 
10 1:0.33333333 2:0.16402749 3:0.00098469251 4:0.0018975332 
10 1:0.33333333 2:0.00029877502 3:0.027481873 
10 1:0.33333333 2:0.0080669256 3:0.30265867 4:0.00063251107 
10 1:0.33333333 2:0.032267702 3:0.32127831 5:0.0019704433 
10 1:0.33333333 2:0.16402749 3:0.00071614001 
10 1:0.33333333 2:0.14490589 
10 1:0.33333333 2:0.14490589 
10 1:0.33333333 2:0.16402749 
10 1:0.33333333 2:0.35494473 3:0.0017008325 5:0.0098522167 
10 1:0.33333333 2:0.00029877502 3:0.027481873 
10 1:0.33333333 2:0.0080669256 3:0.30265867 5:0.00098522167 
10 1:0.33333333 2:0.0077681506 3:0.15674514 5:0.0088669951 
10 1:0.33333333 2:0.00029877502 3:0.027481873 5:0.0019704433 
10 1:0.33333333 2:0.0080669256 3:0.30265867 5:0.10541872 
10 1:0.33333333 2:1 3:0.001969385 
10 1:0.33333333 3:0.0068928476 5:0.025615764 
10 1:0.33333333 3:0.00089517501 5:0.002955665 
10 1:0.33333333 2:0.18524051 3:0.01038403 4:0.0018975332 
10 1:0.33333333 2:0.00029877502 3:0.027481873 
10 1:0.33333333 2:0.0080669256 3:0.30265867 
10 1:0.33333333 2:0.0077681506 3:0.15674514 
10 1:0.33333333 2:0.13265611 3:0.0076089876 
10 1:0.33333333 2:1 3:0.00035807 4:0.00063251107 5:0.00098522167 
10 1:0.33333333 3:0.0068928476 4:0.0018975332 
10 1:0.33333333 2:0.00029877502 3:0.027481873 
10 1:0.33333333 2:0.0080669256 3:0.30265867 
10 1:0.33333333 2:0.0077681506 3:0.15674514 4:0.0037950664 
10 1:0.33333333 2:0.00029877502 3:0.027481873 
10 1:0.33333333 2:0.0077681506 3:0.15674514 
10 1:0.33333333 2:0.18524051 3:0.01038403 4:0.0050600886 5:0.0019704433 
10 1:0.33333333 2:0.00029877502 3:0.027481873 
10 1:0.33333333 2:0.0077681506 3:0.15674514 
10 1:0.33333333 2:0.00029877502 3:0.027481873 
10 1:0.33333333 2:0.0077681506 3:0.15674514 
10 1:0.33333333 2:1 3:0.00080565751 
10 1:0.66666667 2:0.50104571 
10 1:0.33333333 2:0.00029877502 3:0.027481873 
10 1:0.33333333 2:0.0080669256 3:0.30265867 
10 1:0.33333333 2:0.0077681506 3:0.15674514 
10 1:0.33333333 2:0.00029877502 3:0.027481873 
10 1:0.33333333 2:0.0080669256 3:0.30265867 
10 1:0.33333333 2:0.0077681506 3:0.15674514 
10 1:0.33333333 2:0.00029877502 3:0.027481873 
10 1:0.33333333 2:0.0080669256 3:0.30265867 
10 1:0.33333333 2:0.0077681506 3:0.15674514 
10 1:0.33333333 2:0.020914252 3:0.30265867 5:0.0049261084 
10 1:0.33333333 2:0.00029877502 3:0.027481873 
10 1:0.33333333 2:0.0080669256 3:0.30265867 4:0.00063251107 
10 1:0.33333333 2:0.0077681506 3:0.15674514 4:0.0037950664 
10 1:0.33333333 2:0.00029877502 3:0.027481873 4:0.00063251107 
10 1:0.33333333 2:0.0080669256 3:0.30265867 4:0.0025300443 
10 1:0.33333333 2:0.0077681506 3:0.15674514 
10 1:0.33333333 2:0.00029877502 3:0.027481873 
10 1:0.33333333 2:0.0080669256 3:0.30265867 4:0.00063251107 
10 1:0.33333333 2:0.0077681506 3:0.15674514 4:0.00063251107 5:0.0088669951 
10 1:0.33333333 2:0.00029877502 3:0.027481873 
10 1:0.33333333 2:0.0080669256 3:0.30265867 
10 1:0.33333333 2:0.0077681506 3:0.15674514 
10 1:0.33333333 2:0.032267702 3:0.32127831 4:0.00063251107 
10 1:0.33333333 2:0.039139528 3:0.30265867 4:0.010752688 
10 1:0.33333333 2:0.16402749 3:0.00071614001 
10 1:0.33333333 2:0.0035853003 3:0.117626 5:0.049261084 
10 1:0.33333333 3:0.0068928476 5:0.00591133 
10 1:0.33333333 2:0.00029877502 3:0.027481873 
10 1:0.33333333 2:0.0080669256 3:0.30265867 
10 1:0.33333333 2:0.0077681506 3:0.15674514 4:0.00063251107 
10 1:0.33333333 2:0.032267702 3:0.32127831 5:0.0019704433 
10 1:0.33333333 2:0.039139528 3:0.30265867 5:0.0019704433 
10 1:0.33333333 2:0.16402749 3:0.00071614001 
10 1:0.33333333 2:0.00029877502 3:0.027481873 
10 1:0.33333333 2:0.0080669256 3:0.30265867 
10 1:0.33333333 2:0.0077681506 3:0.15674514 
10 1:0.33333333 2:0.00029877502 3:0.027481873 
10 1:0.33333333 2:0.0080669256 3:0.30265867 
10 1:0.33333333 2:0.0077681506 3:0.15674514 
10 1:0.33333333 2:0.00029877502 3:0.027481873 
10 1:0.33333333 2:0.0080669256 3:0.30265867 
10 1:0.33333333 2:0.0077681506 3:0.15674514 
10 1:0.33333333 2:0.00029877502 3:0.027481873 
10 1:0.33333333 2:0.0077681506 3:0.15674514 
10 1:0.33333333 2:0.00029877502 3:0.027481873 
10 1:0.33333333 2:0.0080669256 3:0.30265867 
10 1:0.33333333 2:0.0077681506 3:0.15674514 
10 1:0.33333333 2:0.00029877502 3:0.027481873 
10 1:0.33333333 2:0.0080669256 3:0.30265867 
10 1:0.33333333 2:0.0077681506 3:0.15674514 
10 1:0.33333333 2:0.00029877502 3:0.027481873 
10 1:0.33333333 2:0.0080669256 3:0.30265867 4:0.021505376 
10 1:0.33333333 2:0.0077681506 3:0.15674514 
10 1:0.33333333 2:0.16402749 3:0.034464238 4:0.00063251107 
10 1:0.33333333 2:0.00029877502 3:0.027481873 
10 1:0.33333333 2:0.0080669256 3:0.30265867 4:0.0069576218 
10 1:0.33333333 2:0.0077681506 3:0.15674514 
10 1:0.33333333 3:0.0068928476 5:0.0019704433 
10 1:0.33333333 3:0.00089517501 5:0.00591133 
10 1:0.33333333 2:0.16402749 3:0.000179035 
10 1:0.33333333 2:0.00029877502 3:0.027481873 5:0.00098522167 
10 1:0.33333333 2:0.0080669256 3:0.30265867 5:0.0049261084 
10 1:0.33333333 2:0.0077681506 3:0.15674514 
10 1:0.33333333 3:0.0068928476 5:0.002955665 
10 1:0.33333333 2:0.16402749 3:0.0002685525 
10 1:0.33333333 2:0.00029877502 3:0.027481873 
10 1:0.33333333 2:0.0080669256 3:0.30265867 
10 1:0.33333333 2:0.0077681506 3:0.15674514 
10 1:0.33333333 2:0.13265611 3:0.028735118 4:0.0012650221 5:0.031527094 
10 1:0.33333333 2:1 3:8.9517501e-05 4:0.00063251107 5:0.0019704433 
10 1:0.33333333 2:0.13265611 3:0.10437741 
10 1:0.33333333 2:1 3:8.9517501e-05 4:0.00063251107 5:0.00098522167 
10 1:0.33333333 2:0.13265611 3:0.028735118 5:0.031527094 
10 1:0.33333333 2:1 3:8.9517501e-05 4:0.00063251107 5:0.0019704433 
10 1:0.33333333 2:0.020914252 3:0.30265867 
10 1:0.33333333 2:0.00029877502 3:0.027481873 5:0.12019704 
10 1:0.33333333 2:0.0077681506 3:0.15674514 5:0.052216749 
10 1:0.33333333 2:0.14490589 3:0.0049234625 5:0.002955665 
10 1:0.33333333 2:0.16402749 3:0.000179035 
10 1:0.33333333 2:0.00029877502 3:0.027481873 
10 1:0.33333333 2:0.0080669256 3:0.30265867 
10 1:0.33333333 2:0.0077681506 3:0.15674514 
10 1:0.33333333 2:0.020914252 3:0.30265867 5:1 
10 1:0.33333333 2:0.00029877502 3:0.027481873 
10 1:0.33333333 2:0.0080669256 3:0.30265867 
10 1:0.33333333 2:0.0077681506 3:0.15674514 
10 1:0.33333333 2:0.14490589 3:0.0049234625 
10 1:0.33333333 2:0.16402749 3:0.000179035 
10 1:0.33333333 2:0.36570063 3:0.00107421 4:0.0025300443 5:0.0039408867 
10 1:0.33333333 2:0.00029877502 3:0.027481873 
10 1:0.33333333 2:0.0080669256 3:0.30265867 
10 1:0.33333333 2:0.0077681506 3:0.15674514 5:0.00098522167 
10 1:0.33333333 2:0.00029877502 3:0.027481873 
10 1:0.33333333 2:0.0080669256 3:0.30265867 
10 1:0.33333333 2:0.0077681506 3:0.15674514 
10 1:0.33333333 2:0.14490589 
10 1:0.33333333 2:0.00029877502 3:0.027481873 4:0.00063251107 
10 1:0.33333333 2:0.0080669256 3:0.30265867 4:0.0037950664 5:0.00098522167 
10 1:0.33333333 2:0.0077681506 3:0.15674514 5:0.00098522167 
10 1:0.33333333 2:0.35494473 3:0.30265867 5:0.045320197 
0.28971837753472884 1:0.33333333 3:0.0068928476 
10 1:0.33333333 2:1 4:0.00063251107 
10 1:0.33333333 2:0.00029877502 3:0.027481873 
10 1:0.33333333 2:0.0080669256 3:0.30265867 
10 1:0.33333333 2:0.0077681506 3:0.15674514 
10 1:0.33333333 3:0.0068928476 
10 1:0.33333333 3:0.0068928476 
10 1:0.33333333 2:0.00029877502 3:0.027481873 
10 1:0.33333333 2:0.0080669256 3:0.30265867 
10 1:0.33333333 2:0.0077681506 3:0.15674514 
10 1:0.33333333 3:0.0068928476 
10 1:0.33333333 3:0.0068928476 
10 1:0.33333333 3:0.0068928476 
10 1:0.33333333 2:0.00029877502 3:0.027481873 
10 1:0.33333333 2:0.0080669256 3:0.30265867 
10 1:0.33333333 2:0.0077681506 3:0.15674514 
10 1:0.33333333 3:0.0068928476 5:0.025615764 
10 1:0.33333333 3:0.00089517501 5:0.002955665 
10 1:0.33333333 3:0.0068928476 
10 1:0.33333333 2:0.00029877502 3:0.027481873 
10 1:0.33333333 2:0.0080669256 3:0.30265867 
10 1:0.33333333 2:0.0077681506 3:0.15674514 
10 1:0.33333333 3:0.0068928476 
10 1:0.33333333 3:0.0068928476 
10 1:0.33333333 2:0.00029877502 3:0.027481873 
10 1:0.33333333 2:0.0080669256 3:0.30265867 
10 1:0.33333333 2:0.0077681506 3:0.15674514 
10 1:0.33333333 3:0.0068928476 5:0.002955665 
10 1:0.33333333 3:0.0068928476 
10 1:0.33333333 3:0.0068928476 
10 1:0.33333333 2:0.00029877502 3:0.027481873 
10 1:0.33333333 2:0.0080669256 3:0.30265867 4:0.0069576218 5:0.00098522167 
10 1:0.33333333 2:0.0077681506 3:0.15674514 
10 1:0.33333333 2:0.00029877502 3:0.027481873 
10 1:0.33333333 2:0.0080669256 3:0.30265867 
10 1:0.33333333 2:0.0077681506 3:0.15674514 
10 1:0.33333333 3:0.0068928476 
10 1:0.33333333 2:0.00029877502 3:0.027481873 
10 1:0.33333333 2:0.0080669256 3:0.30265867 
10 1:0.33333333 2:0.0077681506 3:0.15674514 
10 1:0.33333333 3:0.0068928476 
10 1:0.33333333 3:0.0068928476 
10 1:0.33333333 2:0.00029877502 3:0.027481873 
10 1:0.33333333 2:0.0080669256 3:0.30265867 
10 1:0.33333333 2:0.0077681506 3:0.15674514 
10 1:0.33333333 3:0.0068928476 
10 1:0.33333333 3:0.0068928476 
10 1:0.33333333 2:0.00029877502 3:0.027481873 
10 1:0.33333333 2:0.0080669256 3:0.30265867 
10 1:0.33333333 2:0.0077681506 3:0.15674514 
10 1:0.33333333 3:0.0068928476 
10 1:0.33333333 2:0.00029877502 3:0.027481873 
10 1:0.33333333 2:0.0080669256 3:0.30265867 
10 1:0.33333333 2:0.0077681506 3:0.15674514 
10 1:0.33333333 2:0.00029877502 3:0.027481873 
10 1:0.33333333 2:0.0080669256 3:0.30265867 
10 1:0.33333333 2:0.0077681506 3:0.15674514 
10 1:0.33333333 2:0.00029877502 3:0.027481873 
10 1:0.33333333 2:0.0080669256 3:0.30265867 
10 1:0.33333333 2:0.0077681506 3:0.15674514 
10 1:0.33333333 2:0.00029877502 3:0.027481873 
10 1:0.33333333 2:0.0080669256 3:0.30265867 
10 1:0.33333333 2:0.0077681506 3:0.15674514 
10 1:0.33333333 2:0.00029877502 3:0.027481873 
10 1:0.33333333 2:0.0080669256 3:0.30265867 
10 1:0.33333333 2:0.0077681506 3:0.15674514 
10 1:0.33333333 2:0.00029877502 3:0.027481873 
10 1:0.33333333 2:0.0080669256 3:0.30265867 
10 1:0.33333333 2:0.0077681506 3:0.15674514 
10 1:0.33333333 3:0.0068928476 
10 1:0.33333333 2:0.00029877502 3:0.027481873 
10 1:0.33333333 2:0.0080669256 3:0.30265867 
10 1:0.33333333 2:0.0077681506 3:0.15674514 
10 1:0.33333333 3:0.0068928476 
10 1:0.33333333 2:0.00029877502 3:0.027481873 
10 1:0.33333333 2:0.0080669256 3:0.30265867 
10 1:0.33333333 2:0.0077681506 3:0.15674514 
10 1:0.33333333 3:0.0068928476 
10 1:0.33333333 2:0.00029877502 3:0.027481873 
10 1:0.33333333 2:0.0080669256 3:0.30265867 
10 1:0.33333333 2:0.0077681506 3:0.15674514 
10 1:0.33333333 3:0.0068928476 
10 1:0.33333333 2:0.00029877502 3:0.027481873 
10 1:0.33333333 2:0.0080669256 3:0.30265867 
10 1:0.33333333 2:0.0077681506 3:0.15674514 
10 1:0.66666667 2:0.23991634 3:0.000537105 
10 1:0.66666667 2:0.2942934 3:0.0002685525 
10 1:0.33333333 3:0.0068928476 
10 1:0.33333333 2:0.00029877502 3:0.027481873 
10 1:0.33333333 2:0.0080669256 3:0.30265867 
10 1:0.33333333 2:0.0077681506 3:0.15674514 
10 1:0.33333333 3:0.0068928476 5:0.00098522167 
10 1:0.33333333 2:0.00029877502 3:0.027481873 4:0.00063251107 
10 1:0.33333333 2:0.0077681506 3:0.15674514 4:0.0018975332 
10 1:0.33333333 3:0.0029540775 5:0.0019704433 
10 1:0.33333333 2:0.00029877502 3:0.027481873 
10 1:0.33333333 2:0.0080669256 3:0.30265867 
10 1:0.33333333 3:0.0068928476 5:0.025615764 
10 1:0.33333333 3:0.00089517501 5:0.002955665 
10 1:0.33333333 2:0.00029877502 3:0.027481873 
10 1:0.33333333 2:0.0080669256 3:0.30265867 
10 1:0.33333333 2:0.0077681506 3:0.15674514 
7.6440417039104771 1:0.33333333 3:0.0068928476 
10 1:0.33333333 2:0.00029877502 3:0.027481873 
10 1:0.33333333 2:0.0080669256 3:0.30265867 
10 1:0.33333333 2:0.0077681506 3:0.15674514 5:0.0088669951 
10 1:0.33333333 3:0.0068928476 
10 1:0.33333333 3:0.0068928476 
10 1:0.33333333 2:0.00029877502 3:0.027481873 
10 1:0.33333333 2:0.0080669256 3:0.30265867 4:0.0012650221 
10 1:0.33333333 2:0.0077681506 3:0.15674514 
10 1:0.33333333 3:0.0068928476 
10 1:0.33333333 2:0.35494473 3:0.30265867 5:0.00098522167 
10 1:0.33333333 2:0.00029877502 3:0.027481873 
10 1:0.33333333 2:0.0080669256 3:0.30265867 
10 1:0.33333333 2:0.0077681506 3:0.15674514 
10 1:0.33333333 2:1 3:0.0002685525 4:0.0012650221 5:0.00098522167 
10 1:0.33333333 2:0.00029877502 3:0.027481873 5:0.00098522167 
10 1:0.33333333 2:0.0077681506 3:0.15674514 
10 1:0.33333333 2:0.00029877502 3:0.027481873 
10 1:0.33333333 2:0.0077681506 3:0.15674514 5:0.002955665 
10 1:0.33333333 3:0.0068928476 
10 1:0.33333333 2:0.00029877502 3:0.0020589025 5:0.0049261084 
10 1:0.33333333 2:0.00029877502 3:0.027481873 
10 1:0.33333333 2:0.0077681506 3:0.15674514 4:0.00063251107 
10 1:0.33333333 3:0.0068928476 
10 1:0.33333333 3:0.0068928476 
10 1:0.33333333 2:0.00029877502 3:0.027481873 
10 1:0.33333333 2:0.0080669256 3:0.30265867 
10 1:0.33333333 2:0.16402749 3:0.0002685525 
10 1:0.33333333 2:0.00029877502 3:0.027481873 
10 1:0.33333333 2:0.0080669256 3:0.30265867 
10 1:0.33333333 2:0.0077681506 3:0.15674514 
10 1:0.33333333 2:0.14490589 
10 1:0.33333333 3:0.0068928476 5:0.00098522167 
10 1:0.33333333 2:0.00029877502 3:0.0020589025 5:0.0049261084 
10 1:0.33333333 2:0.18524051 3:0.01038403 4:0.0050600886 5:0.015763547 
10 1:0.33333333 2:0.00029877502 3:0.027481873 
10 1:0.33333333 2:0.0077681506 3:0.15674514 
10 1:0.33333333 3:0.0068928476 
10 1:0.33333333 2:0.00029877502 3:0.027481873 
10 1:0.33333333 2:0.0077681506 3:0.15674514 
10 1:0.33333333 3:0.0068928476 
10 1:0.33333333 2:0.00029877502 3:0.027481873 
10 1:0.33333333 2:0.0077681506 3:0.15674514 
10 1:0.66666667 2:0.23991634 3:0.000537105 
10 1:0.66666667 2:0.2942934 3:0.0002685525 5:0.00098522167 
10 1:0.33333333 2:0.13265611 3:0.0214842 
10 1:0.33333333 2:1 3:0.0029540775 5:0.00098522167 
10 1:0.33333333 2:0.00029877502 3:0.027481873 
10 1:0.33333333 2:0.0080669256 3:0.30265867 
10 1:0.33333333 2:0.00029877502 3:0.027481873 
10 1:0.33333333 2:0.0077681506 3:0.15674514 
10 1:0.33333333 2:0.0059755004 3:0.117626 5:0.037438424 
10 1:0.33333333 2:0.0080669256 3:0.30265867 
10 1:0.33333333 2:0.0077681506 3:0.15674514 
10 1:0.33333333 2:0.36570063 3:0.005550085 4:0.008855155 5:0.00098522167 
10 1:0.33333333 2:0.00029877502 3:0.027481873 4:0.00063251107 
10 1:0.33333333 2:0.0077681506 3:0.15674514 
10 1:0.33333333 2:0.012847326 3:0.19389491 5:0.00098522167 
10 1:0.33333333 2:0.00029877502 3:0.027481873 
10 1:0.33333333 2:0.0080669256 3:0.30265867 
10 1:0.33333333 2:0.00029877502 3:0.027481873 
10 1:0.33333333 2:0.0080669256 3:0.30265867 
10 1:0.33333333 2:0.14729609 3:0.0065347775 5:0.00098522167 
10 1:0.33333333 2:0.16402749 3:0.00035807 
10 1:0.33333333 3:0.0068928476 5:0.025615764 
10 1:0.33333333 3:0.00089517501 5:0.002955665 
10 1:0.33333333 2:0.14729609 3:8.9517501e-05 
10 1:0.33333333 2:0.14490589 
10 1:0.33333333 2:0.00029877502 3:0.027481873 4:0.00063251107 
10 1:0.33333333 2:0.0077681506 3:0.15674514 
10 1:0.33333333 3:0.0068928476 
10 1:0.33333333 3:0.0068928476 
10 1:0.33333333 2:0.14490589 3:0.01647122 4:0.0069576218 
10 1:0.33333333 3:0.0068928476 
10 1:0.33333333 2:0.00029877502 3:0.027481873 
10 1:0.33333333 2:0.0077681506 3:0.15674514 
10 1:0.33333333 2:0.14729609 3:0.000537105 
10 1:0.33333333 2:0.00029877502 3:0.027481873 
10 1:0.33333333 2:0.0077681506 3:0.15674514 
10 1:0.33333333 3:0.0068928476 
10 1:0.33333333 2:0.0038840753 3:0.15674514 
10 1:0.33333333 2:0.13265611 3:0.030883538 4:0.00063251107 5:0.0019704433 
10 1:0.33333333 2:1 3:0.0004475875 4:0.0037950664 5:0.00098522167 
10 1:0.33333333 2:0.00029877502 3:0.027481873 
10 1:0.33333333 2:0.0080669256 3:0.30265867 
10 1:0.33333333 2:0.0077681506 3:0.15674514 
10 1:0.33333333 3:0.0068928476 
10 1:0.33333333 3:0.0068928476 
10 1:0.33333333 2:0.00029877502 3:0.027481873 
10 1:0.33333333 2:0.0077681506 3:0.15674514 
10 1:0.33333333 3:0.0068928476 
10 1:0.33333333 3:0.0068928476 
10 1:0.33333333 2:0.00029877502 3:0.027481873 
10 1:0.33333333 2:0.0077681506 3:0.15674514 
10 1:0.33333333 3:0.0068928476 
10 1:0.33333333 3:0.0068928476 
10 1:0.33333333 3:0.0068928476 
10 1:0.33333333 2:0.00029877502 3:0.027481873 
10 1:0.33333333 2:0.0080669256 3:0.30265867 
10 1:0.33333333 2:0.0077681506 3:0.15674514 
10 1:0.33333333 3:0.0068928476 
10 1:0.33333333 3:0.0068928476 
10 1:0.33333333 2:0.00029877502 3:0.027481873 
10 1:0.33333333 2:0.0080669256 3:0.30265867 
10 1:0.33333333 2:0.0077681506 3:0.15674514 
10 1:0.33333333 3:0.0068928476 
10 1:0.33333333 3:0.0068928476 
10 1:0.33333333 3:0.0068928476 
10 1:0.33333333 2:0.00029877502 3:0.027481873 
10 1:0.33333333 2:0.0080669256 3:0.30265867 
10 1:0.33333333 2:0.0077681506 3:0.15674514 
10 1:0.33333333 2:0.14490589 
10 1:0.33333333 2:0.00029877502 3:0.027481873 4:0.00063251107 5:0.12019704 
10 1:0.33333333 2:0.0077681506 3:0.15674514 5:0.052216749 
10 1:1 3:0.004117805 5:0.0078817734 
10 1:0.33333333 2:0.36570063 3:0.003043595 4:0.00063251107 5:0.0068965517 
10 1:0.33333333 2:0.00029877502 3:0.027481873 
10 1:0.33333333 2:0.0080669256 3:0.30265867 
10 1:0.33333333 2:0.0077681506 3:0.15674514 
10 1:0.66666667 2:0.34777413 3:0.005908155 4:0.031625553 5:0.00098522167 
10 1:0.33333333 2:0.00029877502 3:0.027481873 
10 1:0.33333333 2:0.0080669256 3:0.30265867 
10 1:0.33333333 2:0.0077681506 3:0.15674514 
10 1:0.33333333 2:0.14490589 
10 1:0.33333333 2:0.13265611 3:0.0083251276 
10 1:0.33333333 2:1 3:0.000179035 
10 1:0.66666667 2:0.34777413 3:0.000537105 4:0.00063251107 5:0.00098522167 
10 1:0.33333333 2:0.00029877502 3:0.027481873 
10 1:0.33333333 2:0.0077681506 3:0.15674514 
10 1:0.33333333 2:0.00029877502 3:0.027481873 5:0.0019704433 
10 1:0.33333333 2:0.0077681506 3:0.15674514 
10 1:0.33333333 2:0.00029877502 3:0.027481873 
10 1:0.33333333 2:0.0077681506 3:0.15674514 
10 1:0.33333333 2:0.00029877502 3:0.027481873 
10 1:0.33333333 2:0.0080669256 3:0.30265867 4:0.0063251107 
10 1:0.33333333 3:0.0068928476 5:0.002955665 
10 1:0.66666667 3:0.0054605675 5:0.0039408867 
10 1:0.33333333 2:0.00029877502 3:0.027481873 
10 1:0.33333333 2:0.0080669256 3:0.30265867 
10 1:0.33333333 2:0.00029877502 3:0.027481873 
10 1:0.33333333 2:0.0080669256 3:0.30265867 5:0.00098522167 
10 1:0.33333333 2:0.035853003 3:0.30265867 
10 1:0.33333333 2:0.16402749 3:0.034464238 
10 1:0.33333333 2:0.00029877502 3:0.027481873 
10 1:0.33333333 2:0.0080669256 3:0.30265867 
10 1:0.33333333 2:0.14490589 
10 1:0.33333333 2:0.00029877502 3:0.027481873 5:0.00098522167 
10 1:0.33333333 2:0.0080669256 3:0.30265867 
10 1:0.33333333 2:0.035853003 3:0.30265867 
10 1:0.33333333 2:0.16402749 3:0.034464238 
10 1:0.33333333 2:0.14490589 
10 1:0.33333333 2:0.00029877502 3:0.027481873 4:0.00063251107 
10 1:0.33333333 2:0.0080669256 3:0.30265867 4:0.0037950664 
10 1:0.33333333 2:0.35494473 3:0.30265867 4:0.0025300443 
10 1:0.33333333 3:0.0068928476 5:0.00098522167 
10 1:0.33333333 2:0.00029877502 3:0.027481873 
10 1:0.33333333 2:0.0080669256 3:0.30265867 
10 1:0.33333333 2:0.14490589 3:0.32127831 
10 1:0.33333333 2:0.00029877502 3:0.027481873 
10 1:0.33333333 2:0.0080669256 3:0.30265867 4:0.0012650221 
10 1:0.33333333 2:1 3:0.00080565751 5:0.0039408867 
10 1:0.66666667 2:0.50104571 
10 1:0.33333333 2:0.14490589 3:0.0085041626 
10 1:0.33333333 2:0.00029877502 3:0.027481873 
10 1:0.33333333 2:0.0080669256 3:0.30265867 
10 1:0.33333333 2:0.00029877502 3:0.027481873 
10 1:0.33333333 2:0.0080669256 3:0.30265867 
10 1:0.33333333 3:0.0068928476 5:0.025615764 
10 1:0.33333333 3:0.00089517501 5:0.002955665 
10 1:0.33333333 2:0.00029877502 3:0.027481873 
10 1:0.33333333 2:0.0080669256 3:0.30265867 
10 1:0.33333333 2:0.14490589 
10 1:0.33333333 2:0.14729609 3:8.9517501e-05 
10 1:0.33333333 2:0.00029877502 3:0.027481873 
10 1:0.33333333 2:0.0080669256 3:0.30265867 
10 1:0.33333333 2:0.00029877502 3:0.027481873 
10 1:0.33333333 2:0.0080669256 3:0.30265867 
10 1:0.33333333 2:0.00029877502 3:0.027481873 
10 1:0.33333333 2:0.0080669256 3:0.30265867 
10 1:0.33333333 2:0.00029877502 3:0.027481873 
10 1:0.33333333 2:0.0080669256 3:0.30265867 
10 1:0.33333333 2:0.00029877502 3:0.027481873 
10 1:0.33333333 2:0.0080669256 3:0.30265867 
10 1:0.33333333 2:0.00029877502 3:0.027481873 
10 1:0.33333333 2:0.0080669256 3:0.30265867 
10 1:0.33333333 2:0.00029877502 3:0.027481873 
10 1:0.33333333 2:0.0080669256 3:0.30265867 
10 1:0.33333333 2:0.00029877502 3:0.027481873 
10 1:0.33333333 2:0.0080669256 3:0.30265867 
10 1:0.66666667 2:0.2942934 3:8.9517501e-05 5:0.0019704433 
10 1:0.66666667 2:0.50194204 
10 1:0.33333333 2:0.27427547 3:0.00644526 5:0.0088669951 
10 1:0.66666667 2:0.21063639 3:0.0072509176 4:0.00063251107 
10 1:0.33333333 3:0.030883538 
10 1:0.33333333 2:0.00029877502 3:0.0018798675 5:0.0068965517 
10 1:1 3:0.01038403 5:0.015763547 
10 1:0.66666667 2:0.18314909 3:0.0069823651 
10 1:0.33333333 2:0.13265611 3:0.0085041626 
10 1:0.33333333 2:1 3:0.0083251276 
10 1:0.33333333 2:0.13265611 3:0.01682929 4:0.072106262 
10 1:0.33333333 2:0.13265611 3:0.0094888551 
10 1:0.33333333 2:0.13265611 3:0.00429684 5:0.01773399 
10 1:0.33333333 2:0.35494473 3:0.15674514 
10 1:0.33333333 2:0.14729609 3:8.9517501e-05 
10 1:0.33333333 2:0.13265611 3:0.000179035 4:0.0018975332 
10 1:0.33333333 2:0.13265611 3:0.000537105 4:0.0025300443 
10 1:0.33333333 2:0.13265611 3:0.0073404351 5:0.0019704433 
10 1:1 2:0.00059755004 3:0.021036613 5:0.012807882 
10 1:0.66666667 2:0.20525844 3:0.0002685525 
10 1:0.66666667 2:0.21033762 3:8.9517501e-05 
10 1:0.33333333 2:0.14490589 3:0.0085041626 
10 1:0.33333333 2:0.13265611 3:0.013338108 
10 1:0.33333333 2:0.13265611 3:0.021036613 4:0.0012650221 5:0.0088669951 
10 1:0.66666667 2:0.066328055 3:0.0099364426 4:0.049968374 
10 1:0.33333333 2:1 3:8.9517501e-05 
10 1:1 2:0.49985061 3:8.9517501e-05 5:0.00098522167 
10 1:0.33333333 2:0.13265611 3:0.00071614001 4:0.0044275775 
10 1:1 3:0.002327455 5:0.0068965517 
10 1:1 2:0.50014939 3:0.000179035 5:0.00098522167 
10 1:0.33333333 2:0.13265611 3:0.052904843 4:0.056293485 
10 1:0.33333333 2:0.35494473 3:0.15674514 
10 1:0.33333333 2:0.14729609 3:8.9517501e-05 
10 1:0.33333333 2:0.13265611 3:0.19389491 4:0.063251107 5:0.15665025 
10 1:0.33333333 2:0.35494473 3:0.15674514 
10 1:0.33333333 2:0.14729609 3:8.9517501e-05 
10 1:0.33333333 2:0.35494473 3:0.15674514 
10 1:0.33333333 2:0.14729609 3:8.9517501e-05 
10 1:0.33333333 2:0.13265611 3:0.0085041626 
10 1:0.33333333 2:0.35494473 3:0.15674514 
10 1:0.33333333 2:0.14729609 3:8.9517501e-05 
10 1:0.33333333 2:0.13265611 3:0.000537105 4:0.0025300443 
10 1:0.33333333 2:0.13265611 3:0.0085041626 5:0.00098522167 
10 1:0.33333333 2:0.13265611 3:0.0085041626 
10 1:0.33333333 2:0.35494473 3:0.15674514 
10 1:0.33333333 2:0.14729609 3:8.9517501e-05 
10 1:0.33333333 2:0.13265611 3:0.19389491 4:0.063251107 5:0.15665025 
10 1:0.66666667 3:0.0054605675 5:0.002955665 
10 1:0.33333333 2:0.13265611 3:0.32127831 4:0.0018975332 5:0.0088669951 
10 1:0.33333333 2:0.13265611 3:0.000537105 4:0.0025300443 
10 1:1 2:0.00059755004 3:0.021036613 5:0.012807882 
10 1:1 3:0.002327455 5:0.0068965517 
10 1:0.33333333 2:0.00029877502 3:0.0018798675 5:0.0068965517 
10 1:1 3:0.01038403 5:0.015763547 
10 1:0.33333333 2:0.13265611 3:0.0033121475 4:0.0031625553 
10 1:0.33333333 2:0.13265611 3:0.0073404351 
4.7001795292330089 1:0.33333333 2:0.017627726 3:0.11941635 5:0.39211823 
10 1:1 3:0.0013427625 5:0.013793103 
10 1:1 3:0.0013427625 5:0.013793103 
10 1:0.33333333 2:0.13265611 3:0.044221645 4:0.27008223 
10 1:0.33333333 2:0.14490589 
10 1:0.33333333 2:1 
10 1:0.33333333 2:0.13265611 3:0.0085041626 5:0.0019704433 
10 1:0.33333333 2:0.13265611 3:0.014770388 4:0.00063251107 
10 1:0.33333333 2:0.13265611 3:0.0078775401 
10 1:0.33333333 2:0.13265611 3:0.0004475875 4:0.0012650221 5:0.00098522167 
1.0478667373449928 1:0.66666667 2:0.014639976 3:0.064363083 4:0.43516762 
10 1:0.66666667 2:0.010457126 3:0.035359413 4:0.1087919 
10 1:0.33333333 2:0.13265611 3:0.04583296 4:0.098671727 5:0.0019704433 
10 1:0.33333333 2:0.14490589 
10 1:0.33333333 2:0.13265611 3:0.0073404351 
10 1:0.66666667 3:0.0002685525 5:0.0039408867 
10 1:0.33333333 2:0.14490589 
10 1:0.33333333 2:0.35494473 3:0.30265867 4:0.0037950664 5:0.00591133 
10 1:0.33333333 2:0.13265611 3:0.0084146451 
10 1:0.66666667 2:0.24917837 3:0.0004475875 5:0.002955665 
10 1:0.66666667 3:0.00107421 5:0.0049261084 
10 1:0.66666667 3:0.00107421 5:0.0088669951 
10 1:1 3:0.0024169725 5:0.0098522167 
10 1:0.33333333 2:0.13265611 3:0.32127831 4:0.00063251107 
10 1:0.33333333 2:0.14490589 
10 1:0.33333333 2:0.13265611 3:0.0080565751 4:0.0056925996 
10 1:0.33333333 2:0.13265611 3:0.0080565751 4:0.00063251107 5:0.015763547 
10 1:0.66666667 3:0.0002685525 5:0.0039408867 
10 1:0.33333333 2:0.13265611 3:0.0078775401 4:0.0063251107 5:0.0019704433 
10 1:0.66666667 2:0.0017926501 3:0.00098469251 5:0.0049261084 
10 1:0.33333333 2:0.13265611 3:0.002327455 4:0.0012650221 
10 1:0.66666667 2:0.23991634 3:0.000179035 
10 1:0.66666667 2:0.24529429 
10 1:0.66666667 2:0.2942934 3:0.0006266225 
10 1:0.33333333 2:0.00029877502 3:0.0018798675 5:0.0068965517 
10 1:1 3:0.01038403 5:0.015763547 
10 1:0.33333333 2:0.14729609 3:8.9517501e-05 
10 1:0.33333333 2:0.13265611 3:0.0051024975 4:0.0069576218 
10 1:0.33333333 2:0.13265611 3:0.0038492525 4:0.00063251107 5:0.0019704433 
5.5693893482010139 1:0.33333333 2:0.00089632507 3:0.0029540775 5:0.00591133 
10 1:0.66666667 2:0.0038840753 3:0.19389491 
10 1:1 2:0.00059755004 3:0.021036613 5:0.012807882 
10 1:0.66666667 3:0.0013427625 5:0.0039408867 
10 1:0.33333333 2:0.14490589 3:0.0085041626 
10 1:0.33333333 2:0.14490589 3:0.0085041626 
10 1:0.33333333 2:0.35494473 
10 1:0.66666667 2:0.25933672 3:0.001611315 
10 1:0.66666667 2:0.21063639 3:0.0004475875 4:0.00063251107 
10 1:0.66666667 2:0.21571557 3:0.00071614001 
10 1:0.66666667 2:0.26471467 
10 1:0.33333333 3:0.0068928476 
10 1:0.33333333 3:0.0068928476 
10 1:0.33333333 3:0.0068928476 
10 1:0.33333333 3:0.0068928476 
10 1:0.33333333 3:0.0068928476 
10 1:0.33333333 3:0.0068928476 
10 1:0.33333333 3:0.0068928476 
10 1:0.33333333 2:0.14490589 
10 1:0.33333333 3:0.020499508 
10 1:0.33333333 2:0.36570063 3:0.003043595 4:0.0012650221 5:0.00098522167 
10 1:1 2:0.00029877502 3:0.32127831 5:0.073891626 
10 1:0.33333333 2:0.36570063 3:0.0097574076 4:0.0025300443 
10 1:0.33333333 2:0.14490589 
10 1:0.33333333 2:0.35494473 3:0.051741115 
10 1:0.33333333 3:0.0068928476 5:0.025615764 
10 1:0.33333333 3:0.00089517501 5:0.002955665 
10 1:0.33333333 3:0.0004475875 5:0.0049261084 
10 1:0.33333333 3:0.0068928476 5:0.025615764 
10 1:0.33333333 3:0.00089517501 5:0.002955665 
10 1:0.33333333 3:0.0004475875 5:0.0049261084 
10 1:0.66666667 2:0.49985061 3:0.0077880226 4:0.00063251107 5:0.036453202 
10 1:1 2:0.00029877502 3:0.00107421 5:0.0078817734 
10 1:0.33333333 2:0.020914252 3:0.30265867 4:0.00063251107 5:0.024630542 
10 1:0.33333333 2:0.0059755004 3:0.117626 5:0.018719212 
10 1:0.33333333 2:0.035853003 3:0.30265867 4:0.0012650221 
10 1:0.33333333 2:0.16402749 3:0.034464238 4:0.00063251107 
10 1:0.33333333 3:0.020499508 5:0.00098522167 
10 1:0.33333333 3:0.0068928476 5:0.025615764 
10 1:0.33333333 3:0.00089517501 5:0.002955665 
10 1:0.33333333 3:0.0004475875 5:0.0049261084 
10 1:0.33333333 3:0.0068928476 
10 1:0.33333333 3:0.0068928476 
10 1:1 3:0.005550085 5:0.038423645 
10 1:0.33333333 3:0.0068928476 
10 1:0.33333333 3:0.0068928476 
10 1:0.33333333 3:0.0068928476 
10 1:0.33333333 3:0.0068928476 5:0.00098522167 
10 1:0.33333333 3:0.0068928476 
10 1:0.33333333 3:0.0068928476 
10 1:0.33333333 2:0.11054676 3:0.0072509176 4:0.051233397 5:0.0098522167 
10 1:0.33333333 3:0.0068928476 
10 1:0.33333333 3:0.0068928476 
10 1:0.33333333 2:1 3:8.9517501e-05 
10 1:0.33333333 2:0.14729609 3:0.001611315 5:0.00098522167 
10 1:0.33333333 2:0.14490589 3:0.014054248 
