svm_type c_svc
kernel_type polynomial
degree 3
gamma 1
coef0 1
nr_class 2
total_sv 11840
rho -1896287955440235.2
label 0 1
nr_sv 5990 5850
SV
10 1:2 2:705 3:4 
10 1:1 2:175 3:6 4:5 5:6 
10 1:3 2:4 3:432 5:1 
10 1:2 2:118 3:720 
10 1:2 2:705 3:4 
6.707546812384531 1:3 2:4 3:38 5:1 
6.2600173477590904 1:3 2:6 3:34 4:4 5:4 
10 1:2 2:705 3:4 
10 1:2 2:705 3:4 
10 1:3 2:73 3:200 
10 1:2 2:705 3:4 
10 1:1 2:444 3:22 
10 1:3 2:222 3:167 
10 1:2 2:705 3:4 
10 1:2 2:705 3:4 
10 1:2 2:705 3:4 
10 1:3 2:222 3:341 
10 1:3 2:3 3:438 
10 1:2 2:705 3:4 
10 1:3 3:495 
10 1:2 2:705 3:4 
10 1:3 2:2 3:20 4:1 
10 1:2 2:705 3:4 
10 1:3 2:1 3:94 4:4 
10 1:3 2:222 3:438 4:22 
10 1:3 2:222 3:438 4:22 
10 1:3 2:24 3:135 
10 1:1 2:444 3:27 4:6 
0.0042306855848102684 1:3 2:49 3:78 5:1 
10 1:2 2:705 3:4 
10 1:2 2:705 3:4 
10 1:2 2:705 3:4 
10 1:1 2:59 3:1335 
10 1:3 3:10 5:1 
10 1:3 2:222 3:158 5:7 
10 1:2 2:705 3:4 
10 1:1 2:444 3:5 
10 1:2 2:705 3:4 
10 1:2 2:647 3:98 5:3 
10 1:2 2:705 3:4 
10 1:1 2:59 3:1335 
10 1:3 2:73 3:200 
10 1:2 2:705 3:4 
10 1:1 2:444 3:30 4:12 
10 1:3 3:40 5:4 
0.019329151979109619 1:3 2:15 3:48 
10 1:3 2:15 3:48 
10 1:1 2:444 3:502 4:7 5:1 
10 1:2 2:705 3:4 
10 1:3 2:17 3:49 
10 1:3 2:4 3:432 
10 1:1 2:59 3:1335 
10 1:3 2:7 3:79 
10 1:3 2:4 3:432 
10 1:1 2:59 3:1335 
10 1:3 2:7 3:79 
6.6424370062372375 1:3 3:14 5:9 
10 1:3 2:19 3:82 
10 1:1 2:3347 3:2 
10 1:2 2:953 3:6 
10 1:1 2:1421 3:3590 
10 1:2 2:118 3:720 
10 1:3 3:10 5:1 
10 1:3 2:2 3:12 4:9 
10 1:3 2:1 3:50 4:2 
0.19384454984642899 1:3 3:10 4:3 5:2 
10 1:3 3:39 5:1 
10 1:3 3:495 
10 1:1 2:444 3:5 
10 1:2 2:2 3:10 4:6 5:9 
0.63760890887761867 1:2 3:15 4:15 5:14 
10 1:1 2:1188 3:1 
10 1:3 2:2 3:12 4:9 
10 1:3 2:53 3:104 
10 1:3 2:2 3:12 4:9 
10 1:1 2:444 3:5 
10 1:1 2:444 3:5 
10 1:1 2:444 3:22 
10 1:2 2:222 3:223 
10 1:1 2:1188 3:3382 4:6 5:86 
10 1:1 2:59 3:1335 
10 1:1 2:3347 3:1 
10 1:3 2:62 3:341 
10 1:1 2:444 3:22 
10 1:2 2:1674 3:2 
10 1:1 2:444 3:22 
10 1:2 2:1674 3:2 
10 1:1 2:444 3:22 
10 1:2 2:687 3:2 
10 1:3 2:19 3:82 
0.41612461445213356 1:3 2:19 3:233 
10 1:1 2:3347 3:2 
10 1:2 2:705 3:4 
10 1:3 2:3 3:26 5:2 
10 1:2 2:118 3:720 
10 1:3 2:2 3:12 4:9 
10 1:3 2:2 3:12 4:9 
10 1:2 2:840 3:123 4:5 5:10 
10 1:2 2:705 3:4 
10 1:2 2:705 3:4 
10 1:2 2:705 3:4 
10 1:2 2:7 3:391 4:149 
10 1:3 3:495 
10 1:1 2:59 3:1335 
10 1:1 2:59 3:1335 
10 1:3 2:25 3:97 
10 1:3 2:6 3:113 
10 1:3 2:73 3:102 4:4 5:4 
10 1:3 2:2 3:12 4:9 
10 1:1 2:444 3:44 5:1 
10 1:3 2:15 3:88 4:18 5:31 
10 1:1 2:3347 3:1 
10 1:2 2:1678 3:1 
10 1:3 2:2 3:12 4:9 
10 1:2 2:840 3:123 4:5 5:10 
10 1:2 2:705 3:4 
10 1:3 2:2 3:12 4:9 
10 1:2 2:705 3:4 
10 1:3 2:225 3:552 4:2 
10 1:3 2:42 3:200 
10 1:1 2:444 3:3536 4:17 5:1 
10 1:3 3:14 4:2 
10 1:1 2:3347 3:1 
10 1:2 2:1678 3:1 
10 1:3 2:38 3:341 
10 1:2 2:705 3:4 
10 1:1 2:444 3:502 5:19 
10 1:1 2:59 3:1335 
10 1:1 2:444 3:5 
10 1:1 2:444 3:44 
10 1:1 2:444 3:5 
10 1:2 2:705 3:4 
10 1:1 2:219 3:1315 
10 1:1 2:219 3:1315 
10 1:1 2:219 3:1315 
10 1:1 2:123 3:1167 5:32 
10 1:1 2:81 3:2974 4:71 
10 1:1 2:549 3:9 
10 1:1 2:219 3:1315 
10 1:1 2:3347 3:1 
10 1:2 2:1678 3:1 
10 1:1 2:123 3:1167 
10 1:1 2:549 3:1167 
10 1:1 2:3 3:3382 
10 1:3 2:1673 3:3 5:1 
10 1:2 2:1674 3:9 
10 1:1 2:3347 3:34 5:1 
10 1:1 2:3347 3:9 5:4 
1.0944682936403138 1:3 2:5 3:50 
10 3:3382 5:11 
10 3:3382 4:1 
10 1:1 2:1 3:1752 
10 1:1 2:3347 3:9 5:4 
10 1:1 2:444 3:22 
10 1:1 2:20 3:1315 4:2 
10 1:1 2:3347 3:9 
10 1:2 2:705 3:4 
10 1:3 2:70 3:2167 5:11 
10 1:3 2:70 3:2167 
10 1:3 2:70 3:2167 5:1 
10 1:1 2:444 3:24 4:9 
10 1:3 2:4 3:37 
10 1:3 3:341 4:13 
10 1:3 2:15 3:341 5:1 
10 1:3 3:3590 
10 1:3 2:2 3:365 
10 1:1 2:1188 3:1 
10 1:1 2:444 3:44 5:1 
10 1:3 2:15 3:88 4:18 5:31 
10 1:1 2:59 3:1335 
10 1:1 2:3347 3:1 
10 1:2 2:1678 3:1 
10 1:2 2:705 3:4 
10 1:2 2:705 3:4 
10 1:3 2:2 3:12 4:9 
10 1:3 2:108 3:202 4:3 5:1 
10 1:1 2:444 3:166 
10 1:3 2:53 3:104 
10 1:3 2:1 3:438 
10 1:3 2:12 3:502 4:1 
10 1:1 2:3347 3:1 
10 1:2 2:1678 3:1 
10 1:3 2:38 3:341 
10 1:2 2:705 3:4 
10 1:2 2:1674 3:2 
10 1:3 2:15 3:2167 4:21 5:2 
9.9569670465707603 1:2 2:705 3:4 4:1 
10 1:2 2:705 3:4 4:1 
10 1:2 2:705 3:4 4:1 
10 1:1 2:493 3:2974 4:2 
10 1:2 2:705 3:4 
10 1:2 2:705 3:4 4:1 
10 1:2 2:705 3:4 4:1 
10 1:2 2:705 3:4 4:1 
10 1:1 2:444 3:1752 4:125 
10 1:3 2:24 3:100 
10 1:3 2:25 3:71 
10 1:2 2:705 3:4 
10 1:3 2:2 3:12 4:9 
10 1:2 2:705 3:4 
10 1:2 2:705 3:4 
10 1:3 2:23 3:62 
10 1:2 2:1675 3:1 
10 1:2 2:1675 3:1 
10 1:2 2:705 3:4 
10 1:1 2:444 3:5 
10 1:1 2:444 3:44 
10 1:1 2:444 3:5 
10 1:1 2:444 3:96 5:3 
10 1:2 2:705 3:4 
10 1:3 3:77 5:19 
2.0679038501747016 1:3 2:3 3:32 
10 1:3 2:29 3:104 5:3 
10 1:3 2:1 3:47 4:46 
10 1:1 2:3347 3:1 
10 1:2 2:1678 3:1 
10 1:3 3:12 5:10 
10 1:2 2:647 3:22 
10 1:1 2:1 3:1752 
10 1:3 2:54 3:201 
10 1:1 3:3590 
10 1:3 2:17 3:432 4:7 5:1 
10 1:3 2:3 3:341 4:9 
10 1:2 2:705 3:4 
10 1:2 2:705 3:4 
9.9999584158599717 1:3 3:17 5:1 
10 1:3 2:40 3:432 
10 1:3 2:9 3:341 
10 1:3 2:3 3:341 4:9 
10 1:2 2:705 3:4 
10 1:2 2:705 3:4 
10 1:3 2:3 3:341 4:9 
10 1:2 2:705 3:4 
10 1:2 2:705 3:4 4:1 
10 1:3 2:3 3:341 4:7 
10 1:3 2:2 3:12 4:9 
10 1:2 2:705 3:4 
10 1:2 2:705 3:4 4:1 
10 1:3 2:3 3:341 4:9 
10 1:3 2:3 3:341 4:9 
10 1:3 2:3 3:341 4:9 
10 1:1 2:444 3:5 
10 1:3 2:222 3:158 
10 1:2 2:35 3:123 5:10 
10 1:2 2:854 3:4 4:1 
10 1:3 2:3 3:341 4:9 
10 1:2 2:705 3:4 
10 1:3 2:94 3:236 5:1 
10 1:3 3:11 4:3 
10 1:3 2:108 3:202 
10 1:3 2:225 3:552 
10 1:3 2:42 3:200 
10 1:1 2:444 3:3536 4:34 5:8 
10 1:3 3:9 5:1 
10 1:3 2:108 3:202 
10 1:1 2:444 3:5 
10 1:3 2:108 3:202 
10 1:1 2:1188 3:3382 4:6 5:46 
10 1:1 2:59 3:1335 5:1 
10 1:3 2:3 3:341 4:9 
10 1:2 2:705 3:4 
10 1:1 2:3347 3:1 
10 1:2 2:1678 3:1 
10 1:3 2:2 3:12 4:9 
10 1:3 2:3 3:341 4:9 
10 1:3 2:225 3:552 
10 1:3 2:42 3:200 
10 1:1 2:444 3:3536 4:34 5:8 
10 1:3 3:9 5:1 
10 1:3 2:1 3:47 4:46 
10 1:2 2:705 3:4 
10 1:1 2:3347 3:1 
10 1:2 2:1678 3:1 
10 1:3 2:3 3:341 4:9 
10 1:2 2:840 3:8 
10 1:3 2:225 3:552 
10 1:3 2:42 3:200 
10 1:1 2:444 3:3536 4:34 5:8 
10 1:3 3:9 5:1 
10 1:1 2:3347 3:1 
10 1:2 2:1678 3:1 
10 1:2 2:705 3:4 
10 1:1 2:444 3:22 5:3 
10 1:2 2:705 3:4 
10 1:3 2:3 3:341 4:9 
10 1:3 2:108 3:202 
10 1:2 2:705 3:4 
10 1:3 2:3 3:341 4:9 
10 1:2 2:840 3:123 
10 1:3 2:108 3:202 
10 1:3 2:108 3:202 
10 1:1 2:3347 3:1 
10 1:2 2:1678 3:1 
10 1:2 2:705 3:4 
10 1:3 2:2 3:12 4:9 
10 1:2 2:840 3:8 
10 1:3 2:3 3:341 4:9 
10 1:3 2:4 3:22 5:9 
10 1:3 2:9 3:47 
10 1:2 2:705 3:4 
10 1:3 2:108 3:202 
10 1:3 2:2 3:12 4:9 
10 1:2 2:705 3:4 4:1 
10 1:3 2:3 3:341 4:7 
10 1:2 2:705 3:4 4:1 
10 1:3 2:3 3:341 4:7 
10 1:3 2:108 3:202 
10 1:3 2:3 3:341 4:9 
10 1:3 2:3 3:341 4:9 
10 1:1 2:174 3:31 4:22 5:25 
10 1:3 2:3 3:341 4:9 
10 1:2 2:705 3:4 
10 1:1 2:1188 3:123 4:28 5:2 
10 1:1 2:3347 3:13 4:7 
10 1:1 2:174 3:31 4:22 5:25 
10 1:3 2:3 3:341 4:9 
10 1:3 2:94 3:2167 
10 1:3 2:108 3:202 4:3 
10 1:3 2:3 3:341 4:9 
10 1:3 2:3 3:341 4:9 
10 1:1 2:444 3:22 
10 1:3 3:3590 5:31 
10 1:3 3:32 5:2 
10 1:3 2:2 3:365 
10 1:3 2:3 3:341 4:9 
10 1:3 2:3 3:341 4:9 
10 1:3 2:2 3:12 4:9 
10 1:2 2:705 3:4 
10 1:2 2:705 3:4 4:1 
10 1:2 2:705 3:4 
10 1:2 2:705 3:4 
10 1:3 2:274 3:92 4:27 5:31 
10 1:2 2:705 3:4 
10 1:3 2:108 3:202 4:3 
10 1:2 2:705 3:4 
10 1:1 2:59 3:1335 
10 1:3 2:53 3:104 
10 1:3 2:1 3:438 4:5 
10 1:3 2:42 3:907 4:4 
10 1:3 2:108 3:202 
10 1:3 2:108 3:202 
10 1:2 2:705 3:4 
10 1:1 2:444 3:502 5:2 
10 1:3 2:24 3:100 
10 1:3 2:25 3:71 
10 1:2 2:705 3:4 
10 1:2 2:705 3:4 
10 1:2 2:705 3:4 
10 1:3 2:2 3:12 4:9 
10 1:3 2:108 3:202 4:3 5:1 
10 1:1 2:444 3:166 
10 1:2 2:705 3:4 
10 1:2 2:705 3:4 
10 1:2 2:705 3:4 
10 1:1 2:549 3:6 
10 1:2 2:840 3:123 
10 1:2 2:705 3:4 
10 1:3 2:108 3:202 4:3 
10 1:2 2:1674 3:2 
10 1:3 2:15 3:2167 4:21 
10 1:2 2:840 3:123 5:1 
10 1:3 2:53 3:104 
10 1:2 2:705 3:4 
10 1:1 2:59 3:1335 
10 1:1 2:3347 3:1 
10 1:1 2:444 3:5 
10 1:3 2:24 3:100 
10 1:3 2:25 3:71 
10 1:2 2:85 3:543 4:4 5:7 
10 1:1 2:444 3:29 4:4 5:1 
10 1:1 2:444 3:22 5:1 
10 1:3 2:2 3:12 4:9 
10 1:3 2:102 3:322 5:32 
10 1:2 2:85 3:3536 4:5 5:693 
10 1:3 3:40 5:5 
10 1:2 2:705 3:4 
10 1:2 2:705 3:4 
10 1:3 2:2 3:12 4:9 
10 1:2 2:705 3:4 
10 1:3 2:94 3:2167 
10 1:3 2:108 3:202 
0.6528154614198971 1:1 2:444 3:15 
10 1:2 2:1674 3:2 
10 1:1 2:52 3:3382 
10 1:2 2:840 3:123 
10 1:3 2:1 3:14 
10 1:2 2:840 3:123 
10 1:1 2:444 3:201 
10 1:3 2:41 3:1167 5:8 
10 1:3 2:108 3:202 
10 1:1 2:444 3:201 
10 1:3 2:41 3:1167 5:1 
10 1:1 2:444 3:2 5:2 
10 1:3 2:19 3:158 4:5 
10 1:3 2:1 3:23 5:1 
10 1:3 2:1 3:2167 4:1 5:312 
10 1:3 3:170 5:20 
10 1:3 3:10 5:1 
10 1:3 3:10 5:1 
10 1:2 2:858 3:3 
10 1:3 2:2 3:17 5:2 
10 1:2 2:705 3:4 
10 1:1 2:444 3:29 4:4 5:1 
10 1:3 2:159 3:341 
10 1:2 2:705 3:4 
10 1:2 2:705 3:4 
10 1:2 2:705 3:4 4:1 
10 1:1 2:444 3:5 
10 1:3 2:222 3:158 
10 1:2 2:834 3:4 
10 1:3 2:45 3:104 
10 1:3 2:30 3:196 
10 1:1 2:444 3:53 
10 1:2 2:705 3:4 
10 1:3 2:55 3:432 5:1 
10 1:3 2:42 3:81 
10 1:1 2:370 3:10 
10 1:2 2:705 3:4 
10 1:2 2:705 3:4 
10 1:1 2:125 3:504 
10 1:3 2:94 3:2167 
10 1:2 2:705 3:4 
10 1:1 2:4 3:504 4:6 
10 1:3 3:10 4:1 
10 1:1 2:59 3:1335 
10 1:1 2:444 3:1172 4:49 
10 1:2 2:705 3:4 
10 1:1 2:444 3:4035 4:15 
10 1:1 2:444 3:22 
10 1:2 2:1674 3:2 
10 1:3 2:15 3:2167 4:21 5:21 
10 1:1 2:444 3:13 5:1 
10 1:2 2:834 3:4 
10 1:1 2:1188 3:8 
10 1:3 2:24 3:92 4:2 
10 1:2 2:705 3:4 
10 1:1 2:59 3:1335 
10 1:2 2:705 3:4 4:1 
10 1:2 2:705 3:4 
10 1:2 2:705 3:4 
10 1:3 2:222 3:270 
10 1:1 2:444 3:515 5:1 
10 1:3 2:16 3:104 
10 1:1 2:59 3:1335 
10 1:3 3:341 
10 1:2 2:705 3:4 
10 1:3 2:12 3:78 4:3 
10 1:2 2:705 3:4 
10 1:2 2:705 3:4 
10 1:3 2:108 3:202 4:5 
10 1:2 2:840 3:123 
10 1:3 2:10 3:2167 
10 1:3 2:117 3:438 4:9 
10 1:1 2:444 3:31 4:1 5:1 
10 1:3 2:19 3:43 
10 1:3 2:63 3:299 5:4 
10 1:3 2:19 3:43 
10 1:2 2:633 3:1 
10 1:2 2:705 3:4 
10 1:2 2:705 3:4 
0.15917151938629553 1:3 2:19 3:92 
10 1:1 2:3347 3:7 
10 1:3 3:12 4:4 5:10 
10 1:3 2:41 3:196 
10 1:2 2:705 3:4 4:1 
10 1:1 2:444 3:22 
10 1:1 2:59 3:1335 
0.026628894759514618 1:3 2:16 3:104 5:3 
10 1:3 2:164 3:167 
1.1011366000334015 1:3 3:44 5:8 
10 1:3 3:438 4:9 
10 1:3 3:62 4:4 
10 1:2 2:705 3:4 4:1 
10 1:2 2:705 3:4 
10 1:2 2:705 3:4 
10 1:3 2:274 3:92 4:27 5:31 
10 1:2 2:1674 3:2 
10 1:3 2:15 3:2167 4:21 5:11 
10 1:2 2:705 3:4 
10 1:1 2:444 3:24 
10 1:2 2:705 3:4 
10 1:2 2:647 3:22 
10 1:2 2:647 3:22 
10 1:2 2:647 3:22 
10 1:1 3:233 5:187 
10 1:1 2:59 3:1335 5:28 
10 1:2 2:647 3:22 
10 1:2 2:705 3:4 
10 1:2 2:647 3:22 
10 1:2 2:647 3:22 
10 1:2 2:647 3:22 
2.9820800195740511 1:3 2:2 3:72 4:4 
10 1:2 2:647 3:22 
10 1:2 2:647 3:22 
10 1:2 2:647 3:22 
10 1:2 2:647 3:22 
10 1:2 2:647 3:22 
10 1:2 2:647 3:22 
10 1:2 2:647 3:22 
10 1:3 2:115 3:504 
10 1:1 2:493 3:121 4:4 5:7 
10 1:2 2:647 3:22 
10 1:2 2:647 3:22 
10 1:2 2:222 3:223 4:25 
10 1:3 2:1 3:47 4:46 
10 1:1 2:444 3:15 
10 1:2 2:647 3:22 
10 1:2 2:647 3:22 
10 1:2 2:647 3:22 
10 1:3 2:54 3:201 
10 1:3 2:54 3:201 5:1 
10 1:3 2:54 3:201 5:1 
10 1:3 2:54 3:201 
10 1:3 2:225 3:552 
10 1:3 2:42 3:200 
10 1:1 2:444 3:3536 4:11 5:1 
10 1:3 2:4 3:39 4:2 
10 1:3 2:54 3:201 5:1 
10 1:3 2:1 3:47 4:46 
10 1:2 2:705 3:4 
10 1:2 2:705 3:4 
10 1:3 2:2 3:12 4:9 
10 1:1 2:444 3:5 
10 1:1 2:444 3:5 
10 1:3 2:51 3:112 
10 1:2 2:705 3:4 
10 1:2 2:705 3:4 
10 1:3 2:19 3:92 
10 1:3 2:2 3:12 4:9 
10 1:1 2:549 3:3 
10 1:2 2:840 3:123 5:1 
10 1:3 2:3 3:19 5:1 
10 1:2 2:647 3:22 
0.32883202384150351 1:3 2:2 3:74 
10 1:2 2:647 3:22 
10 1:3 2:17 3:91 
10 1:2 2:647 3:22 
10 1:1 2:3347 3:1 
10 1:2 2:1678 3:1 
10 1:1 2:59 3:1335 5:18 
10 1:3 2:232 3:552 5:4 
10 1:3 2:109 3:201 
10 1:3 2:109 3:201 
10 1:1 2:444 3:5 
10 1:2 2:222 3:223 4:25 
10 1:1 2:3347 3:1 
10 1:2 2:1678 3:1 
10 1:3 2:2 3:12 4:9 
10 1:1 2:1 3:1752 
10 1:1 2:1 3:1752 
10 1:1 2:444 3:100 
0.62642496720084395 1:2 2:7 3:27 5:3 
10 1:2 2:705 3:4 
10 1:2 2:705 3:4 
10 1:2 2:705 3:4 
9.7665058568580321 1:2 2:35 3:123 
10 1:2 2:705 3:4 
10 1:1 2:444 3:9 4:1 5:2 
10 1:3 2:225 3:552 4:1 
10 1:3 2:42 3:200 
10 1:1 2:444 3:3536 4:57 5:17 
10 1:3 2:232 3:552 4:1 
10 1:3 2:2 3:12 4:9 
10 1:2 2:705 3:4 
10 1:3 2:2 3:12 4:9 
10 1:2 2:705 3:4 
10 1:3 2:2 3:21 4:1 5:1 
10 1:3 2:2 3:12 4:9 
10 1:3 2:856 3:4 4:1 
10 1:3 3:270 
10 1:3 2:2 3:17 5:1 
10 1:2 2:705 3:4 
10 1:3 2:24 3:104 
10 1:3 2:12 3:200 
10 1:3 2:2 3:12 4:9 
10 1:3 2:2 3:12 4:9 
10 1:3 2:2 3:438 4:11 
10 1:3 2:2 3:12 4:9 
10 1:3 2:29 3:104 5:3 
10 1:3 2:222 3:438 
10 1:3 2:2 3:12 4:9 
10 1:3 3:10 5:1 
10 1:2 3:907 4:1 
10 1:1 2:444 3:4035 4:15 5:566 
10 1:1 2:59 3:1335 5:1 
10 1:1 3:3590 4:1 
10 1:3 2:29 3:117 
10 1:1 2:59 3:1335 
10 1:1 2:59 3:1335 5:20 
10 1:1 2:59 3:1335 
10 1:3 2:2 3:12 4:9 
10 1:3 3:720 
5.9617376506398561 1:3 2:15 3:70 
10 1:2 2:1674 3:16 
10 1:1 2:59 3:1335 5:3 
10 1:3 2:2 3:13 5:1 
10 1:3 2:90 3:170 4:4 
10 1:1 2:59 3:1335 
10 1:3 2:24 3:113 
10 1:1 2:444 3:22 
5.2371362563852379 1:3 2:1 3:29 5:4 
10 1:3 2:29 3:104 5:3 
10 1:1 2:444 3:22 
10 1:1 2:1 3:1752 
3.5848590082589018 1:3 2:176 3:117 
10 1:3 2:53 3:104 
10 1:3 2:1 3:438 4:5 
10 1:3 2:42 3:907 4:4 
10 1:3 2:1 3:71 5:25 
10 1:3 2:17 3:49 
10 1:3 2:24 3:113 
10 1:2 2:705 3:4 
10 1:3 2:53 3:117 
10 1:3 2:24 3:113 
10 1:1 2:120 3:3382 4:2 
10 1:1 2:549 3:386 4:1 
10 1:1 2:444 3:3590 5:2 
10 1:1 2:120 3:3382 
10 1:3 2:24 3:92 4:27 
10 1:3 2:24 3:104 
10 1:3 2:12 3:200 
10 1:1 2:549 3:1 5:1 
10 1:3 3:14 4:3 
10 1:3 2:17 3:124 
10 1:1 2:125 3:504 
10 1:2 2:1673 3:5 5:1 
10 1:3 2:24 3:104 
10 1:3 2:12 3:200 
10 1:1 2:123 3:1167 
10 1:1 2:123 3:1167 5:139 
10 1:1 2:123 3:1167 5:139 
10 1:3 2:53 3:117 
10 1:3 2:16 3:124 
10 1:1 2:123 3:1167 5:139 
10 1:1 2:59 3:1335 
10 1:2 2:705 3:4 
10 1:2 2:222 3:215 
10 1:2 2:705 3:4 
10 1:2 2:705 3:4 
10 1:2 2:858 3:3 5:1 
10 1:3 2:2 3:17 5:1 
10 1:2 2:705 3:4 
10 1:3 2:23 3:62 4:2 
10 1:3 3:170 
10 1:1 2:59 3:1335 5:1 
10 1:3 2:63 3:299 
10 1:3 3:170 
10 1:1 2:1188 3:3382 4:6 5:46 
10 1:1 2:59 3:1335 5:1 
10 1:1 2:3347 3:1 
10 1:2 2:1678 3:1 
10 1:1 2:3347 3:1 
10 1:2 2:1678 3:1 
10 1:1 2:219 3:1315 
10 1:1 2:219 3:1315 
10 1:1 2:3 3:4035 
10 1:3 2:54 3:201 
10 1:3 2:2 3:12 4:9 
10 1:3 2:54 3:201 5:1 
10 1:1 2:131 3:1172 4:24 
10 1:3 2:54 3:201 5:1 
10 1:3 2:225 3:552 4:1 
10 1:3 2:42 3:200 
10 1:1 2:3 3:4035 
10 1:1 2:123 3:1167 4:1 5:11 
10 1:3 2:54 3:201 5:1 
10 1:3 2:54 3:201 5:1 
10 1:1 2:125 3:504 
10 1:1 2:3347 3:5 4:3 5:1 
10 1:1 2:444 3:2 5:1 
10 1:3 2:2 3:13 5:1 
10 1:1 2:549 3:5 
10 1:1 2:1 3:1752 4:7 
10 1:1 2:549 3:9 
10 1:3 2:54 3:201 5:1 
10 1:1 2:3347 3:4 4:1 5:1 
10 1:2 2:1675 3:1 
10 1:1 2:1224 3:12 4:1 
10 1:3 2:54 3:201 5:1 
10 1:3 2:54 3:201 
10 1:3 2:43 3:183 4:1 
10 1:3 2:54 3:201 
10 1:3 2:15 3:70 
10 1:3 2:54 3:201 
10 1:1 2:59 3:1335 
10 1:3 2:232 3:552 
10 1:3 2:54 3:201 
10 1:3 2:2 3:12 4:9 
10 1:1 2:125 3:504 
10 1:1 2:444 3:22 
10 1:1 2:1224 3:7 4:1 5:1 
10 1:3 2:82 3:183 
0.91810506550213111 1:3 2:1 3:185 
10 1:1 2:3347 3:1 4:1 
10 1:1 2:1224 3:15 5:1 
10 1:1 2:1188 3:3382 4:1 5:1015 
10 1:2 2:2132 3:4 4:3 5:1 
10 1:1 2:3347 3:6 4:5 5:1 
10 1:1 2:1 3:3382 4:1 
10 1:1 2:235 3:34 
10 1:1 2:3 3:4035 
10 1:1 2:125 3:504 
10 1:3 2:2 3:12 4:9 
10 1:1 2:1188 3:3382 4:1 
10 1:1 2:59 3:1335 
10 1:3 2:2 3:12 4:9 
10 1:1 2:81 3:2974 4:5 
10 1:1 2:549 3:9 
10 1:1 2:3 3:4035 
10 1:1 2:3 3:4035 
10 1:1 2:59 3:1335 
10 1:1 2:123 3:1167 5:139 
10 1:1 2:549 3:1167 4:3 
10 1:3 3:9 5:1 
10 1:1 2:70 3:3382 4:3 
10 1:1 2:20 3:1315 4:2 
10 1:3 2:225 3:552 4:4 
10 1:3 2:42 3:200 
10 1:1 2:444 3:3536 
10 1:1 2:3347 3:52 
10 1:3 2:19 3:92 
10 1:1 2:125 3:504 
10 1:1 2:549 3:1167 
10 1:3 2:40 3:201 4:7 
10 1:1 2:219 3:1315 
10 1:1 2:219 3:1315 
10 1:1 2:3347 3:6 4:5 5:4 
10 1:1 2:3347 3:6 4:5 5:4 
10 1:1 2:1 3:1752 
10 1:1 2:1 3:1752 
10 1:1 2:30 3:504 
10 1:1 2:59 3:1335 
10 1:3 2:54 3:201 
2.8938740622225261 1:1 2:549 3:34 5:1 
10 1:2 2:705 3:4 
10 1:3 2:12 3:438 
10 1:1 2:59 3:1335 
10 1:2 2:705 3:4 
10 1:1 2:444 3:173 4:56 5:1 
10 1:2 2:705 3:4 
10 1:2 2:705 3:4 
10 1:2 2:705 3:4 
10 1:3 2:108 3:202 4:5 
10 1:2 2:705 3:4 
10 1:2 2:705 3:4 
10 1:2 2:705 3:4 
10 1:3 2:2 3:12 4:9 
10 1:2 2:840 3:123 5:1 
10 1:3 2:1673 3:17 5:1 
10 1:2 2:816 3:7 
10 1:2 2:705 3:4 4:1 
10 1:1 2:444 3:5 
10 1:2 2:1681 3:1 
10 1:1 2:444 3:70 
10 1:1 2:444 3:22 
10 1:3 2:246 3:438 4:46 
10 1:2 2:705 3:4 
10 1:1 2:444 3:70 
10 1:1 2:444 3:5 
10 1:3 2:70 3:2167 5:11 
10 1:1 2:444 3:391 
10 1:2 2:705 3:4 
10 1:3 2:70 3:2167 4:22 
10 1:3 2:108 3:202 
10 1:3 2:2 3:12 4:9 
10 1:2 2:705 3:4 
10 1:3 2:222 3:438 
10 1:3 2:15 3:341 5:1 
10 1:3 3:10 4:6 5:9 
10 1:3 2:1 3:15 4:15 5:14 
10 1:3 3:1167 
10 1:2 2:222 3:223 4:25 
10 1:3 2:1 3:14 
10 1:1 2:1188 3:3382 4:6 5:1 
10 1:1 2:59 3:1335 
10 1:1 2:444 3:22 
10 1:1 2:59 3:1335 
10 1:2 2:705 3:4 
10 1:1 2:444 3:22 
10 1:1 2:59 3:1335 
10 1:1 2:59 3:1335 
1.8665798356379495 1:3 3:94 5:8 
10 1:3 2:2 3:12 4:9 
10 1:1 2:1188 3:48 5:9 
10 1:3 3:50 4:1 
10 1:3 3:94 5:8 
10 1:3 3:396 
10 1:3 3:513 4:28 
10 1:2 2:118 3:720 
10 1:1 2:444 3:22 
10 1:3 2:1 3:14 
10 1:3 2:90 3:202 
10 1:2 2:834 3:1 
10 1:3 3:495 
10 1:3 2:62 3:112 
10 1:3 2:1673 3:10 
10 1:1 2:444 3:22 
10 1:2 2:957 3:42 
8.3773680870582599 1:3 2:1673 3:1 
0.095382984614241911 1:3 2:37 3:72 
10 1:1 2:444 3:22 
10 1:1 2:444 3:5 
10 1:3 2:1673 3:1 
10 1:3 2:1673 3:1 
10 1:3 2:1673 3:1 
4.3847538116924545 1:3 3:104 5:10 
10 1:1 2:444 3:5 
10 1:3 2:1673 3:1 
10 1:1 2:444 3:22 
10 1:3 3:26 5:4 
10 1:3 2:42 3:42 4:17 5:14 
10 1:3 2:62 3:206 5:5 
10 1:3 2:21 3:41 5:12 
10 1:3 2:1 3:328 
10 1:3 3:62 4:2 
10 1:2 2:1675 3:1 
10 1:3 2:1 3:14 
10 1:1 2:444 3:22 
10 1:1 2:444 3:22 5:1 
0.00024156769354467898 1:2 2:681 3:215 4:7 
10 1:1 2:918 3:73 5:4 
10 1:1 2:59 3:1335 
10 1:1 2:444 3:22 
10 1:1 2:1188 3:48 5:2 
10 1:3 2:1673 3:1 
10 1:3 2:19 3:82 
10 1:2 2:118 3:720 
10 1:2 2:836 3:8 
10 1:3 2:62 3:112 
10 1:3 2:62 3:112 4:4 
10 1:3 2:53 3:432 5:1 
10 1:1 2:444 3:5 
10 1:3 2:1673 3:1 
10 1:3 3:495 
10 1:2 2:705 3:82 
10 1:1 2:444 3:44 
10 1:1 2:444 3:22 
10 1:3 2:22 3:78 
10 1:3 2:28 3:80 
10 1:3 2:28 3:187 
10 1:3 2:710 3:347 
10 1:1 2:3347 3:7 
10 1:3 2:1673 3:1 
10 1:1 2:3347 3:11 5:1 
10 1:3 2:1673 3:1 
10 1:1 2:3347 3:11 4:1 5:1 
10 1:1 2:1224 3:11 5:2 
10 1:1 2:3347 3:11 4:1 5:1 
10 1:1 2:123 3:1167 5:13 
10 1:1 2:3347 3:11 4:1 5:4 
10 1:3 2:225 3:552 
10 1:3 2:42 3:200 
10 1:1 2:444 3:3536 
10 1:1 2:3347 3:52 5:1 
10 1:1 2:3347 3:2 5:1 
10 1:1 2:444 3:4035 4:3 5:10 
10 1:3 2:1131 3:1 
10 1:1 2:3347 3:1 4:1 
10 1:3 2:1 3:236 4:10 
10 1:1 2:549 3:4 
10 1:1 2:918 3:8 4:2 
10 1:1 2:1188 3:2 5:1 
10 1:1 2:59 3:1335 
10 1:3 2:3 3:30 5:2 
10 1:3 2:2 3:81 
10 1:1 2:1188 3:8 
0.0099167794937200029 1:3 2:53 3:432 
10 1:1 2:1224 3:5 
10 1:1 2:125 3:504 
10 1:1 2:3347 3:7 
10 1:1 2:59 3:1335 
10 1:1 2:1188 3:8 5:2 
10 1:3 2:53 3:432 5:1 
10 1:2 2:1673 3:5 
10 1:3 2:3 3:10 4:3 5:6 
10 1:1 2:620 3:9 4:8 5:1 
10 1:1 2:1224 3:9 
10 1:1 2:59 3:1335 
10 1:1 2:1224 3:9 
10 1:3 2:176 3:117 
10 1:1 2:444 3:70 
10 1:1 2:3347 3:17 4:2 
10 1:1 2:3347 3:10 
10 1:1 2:1224 3:9 4:2 
10 1:1 2:549 3:1167 
10 1:1 2:918 3:2167 
10 1:1 2:3347 3:1 
10 3:3382 
10 1:3 2:3 3:10 4:3 5:6 
10 1:3 2:3 3:10 4:3 5:6 
10 1:3 2:3 3:10 4:3 5:6 
10 1:1 2:123 3:1167 4:2 
10 1:3 2:3 3:10 4:3 5:6 
10 1:1 2:1224 3:9 
10 1:3 2:1 3:14 
10 1:1 2:3347 3:94 5:2 
10 1:1 2:59 3:1335 
10 1:1 2:444 3:22 
10 1:3 2:27 3:341 4:9 
10 1:1 2:3347 3:1 
10 1:1 2:1224 3:9 
10 1:1 2:549 3:3 
10 1:1 2:1224 3:9 4:2 
10 1:1 2:549 3:1167 
10 1:1 2:444 3:22 
10 1:1 2:1224 3:9 4:1 
10 1:1 2:620 3:9 5:1 
10 1:1 2:70 3:3382 4:1 
10 1:1 2:1224 3:9 
10 1:1 2:620 3:9 4:8 5:1 
10 1:1 2:3347 3:8 5:2 
10 1:3 2:176 3:117 
10 1:1 2:444 3:70 
10 1:1 2:3347 3:17 4:2 
10 1:1 2:620 3:9 4:8 5:1 
10 1:1 2:1188 3:48 5:9 
10 1:1 2:123 3:1167 4:1 5:13 
10 1:2 2:1673 3:5 
4.9585282557184005 1:2 2:222 3:215 4:1 
1.3561433903367064 1:3 3:233 
10 1:1 2:3347 3:27 4:4 
10 1:1 2:3347 3:10 4:10 5:2 
10 1:2 2:40 3:341 5:61 
10 1:1 2:27 3:3382 4:1 
10 1:1 2:81 3:2974 4:59 
10 1:1 2:549 3:9 
10 1:1 2:59 3:1335 
10 1:1 2:59 3:1335 
10 1:1 2:27 3:3382 5:1 
10 1:1 2:27 3:3382 5:107 
10 1:1 2:3347 3:23 
10 1:1 2:620 3:117 4:3 
10 1:1 2:3347 3:5 4:1 5:1 
10 3:3382 5:184 
10 1:3 2:25 3:341 5:5 
10 1:3 2:246 3:438 
10 1:3 3:35 5:1 
10 1:1 2:3347 3:10 
10 1:1 2:27 3:3382 4:1 
10 1:1 2:27 3:3382 4:4 
10 1:1 2:27 3:3382 4:1 
10 1:1 2:108 3:3590 4:1 
10 1:1 2:549 3:9 
10 1:1 2:81 3:2974 4:59 
10 1:1 2:131 3:3382 5:2 
10 1:1 2:549 3:9 
10 1:1 2:59 3:1335 
10 1:1 2:123 3:1167 
10 1:1 2:27 3:3382 4:34 
10 1:1 2:549 3:386 4:1 
10 1:1 2:27 3:3382 4:11 
10 1:1 2:549 3:3 
10 1:1 2:27 3:3382 5:5 
10 1:3 3:97 
10 1:1 2:549 3:4 
10 1:3 2:225 3:504 
10 1:3 2:42 3:200 
10 1:3 3:616 4:2 
10 1:1 2:3347 3:2 4:1 5:1 
10 1:3 3:616 
10 1:3 2:225 3:504 
10 1:3 2:42 3:200 
1.5489561281981969 1:1 2:444 3:322 5:32 
10 1:1 2:549 3:3 
10 1:3 3:11 5:1 
10 1:1 2:549 3:3 
10 1:1 2:1224 3:13 4:4 5:4 
10 1:3 3:9 5:1 
10 1:3 3:616 
10 1:1 2:27 3:3382 4:6 5:1 
10 1:1 2:59 3:1335 5:1 
10 1:3 3:9 5:1 
10 1:3 3:30 
10 1:1 2:3347 3:1 4:1 
10 1:1 2:27 3:3382 4:11 5:1 
10 1:3 2:710 3:347 
10 1:1 2:27 3:3382 4:2 
10 1:1 2:59 3:1335 
10 1:1 2:3347 3:4 4:2 5:1 
10 3:3536 4:1 5:18 
10 1:3 3:97 
10 1:1 2:549 3:4 
10 1:1 2:59 3:1335 5:1 
10 1:3 2:710 3:347 
10 1:1 2:3347 3:34 5:1 
10 1:1 2:1224 3:63 4:14 5:1 
10 1:1 2:43 3:2167 5:1 
10 1:1 2:549 3:5 
10 1:1 2:3347 3:6 4:6 5:1 
10 1:3 2:1673 3:1 
10 1:3 2:156 3:170 4:1 
10 1:1 2:27 3:3382 4:6 5:1015 
10 1:3 2:36 3:202 
10 1:3 2:29 3:104 5:1 
10 1:1 2:1224 3:35 4:1 5:7 
10 1:2 2:1164 3:67 4:50 5:1 
10 1:1 2:125 3:504 
10 1:1 2:3347 3:3 
10 1:3 2:53 3:104 
10 1:1 2:27 3:3382 5:1 
10 1:1 2:120 3:3382 
10 1:1 2:120 3:3382 
10 1:1 2:27 3:3382 4:6 
10 1:1 2:1188 3:3382 4:4 
10 1:1 2:59 3:1335 
10 1:1 2:485 3:3590 
10 1:1 2:27 3:3382 4:2 
10 1:3 3:21 5:4 
10 1:3 3:504 4:3 
10 1:3 3:432 4:7 
10 1:3 3:504 
10 1:3 3:432 
10 1:2 2:118 3:720 
10 1:1 2:3347 3:94 
10 1:3 2:39 3:241 5:2 
10 1:3 3:9 5:1 
10 1:3 3:504 4:3 
10 1:3 3:432 4:7 
10 1:3 2:20 3:504 
10 1:3 2:1673 3:1 
10 1:3 3:10 5:1 
10 1:3 2:2 3:236 5:13 
10 1:3 3:495 
10 1:3 2:39 3:241 5:2 
0.011628637562883116 1:2 2:35 3:328 
10 1:1 2:444 3:236 4:2 5:9 
10 1:3 2:18 3:45 
10 1:1 2:59 3:1335 
10 1:1 2:3347 3:2 
10 1:3 3:50 4:1 
10 1:3 2:1674 3:3 5:1 
3.7622248405992429 1:1 2:444 3:592 4:89 
10 1:3 2:53 3:104 5:10 
10 1:1 2:59 3:1335 5:3 
10 1:1 2:444 3:5 
10 1:3 2:20 3:504 4:1 
10 1:3 2:1673 3:1 
10 1:1 2:444 3:5 
10 1:3 3:50 4:1 
10 1:1 2:444 3:5 
10 1:3 2:1673 3:1 
10 1:3 3:50 4:1 
10 1:1 2:444 3:22 
10 1:3 2:1673 3:1 
10 1:1 2:444 3:3590 4:3 5:9 
10 1:3 2:2 3:236 5:13 
10 1:3 2:12 3:83 
10 1:3 3:573 5:1 
10 1:3 2:317 3:236 
10 1:1 2:59 3:1335 5:3 
10 1:3 2:2 3:13 5:1 
10 1:3 3:16 5:14 
10 1:3 3:16 5:14 
10 1:1 2:59 3:1335 
10 1:1 2:3347 3:1 
0.0065200852759240138 1:3 2:17 3:66 
10 1:2 2:35 3:396 4:172 
10 1:1 2:1188 3:3382 4:6 5:6 
10 1:1 2:59 3:1335 
10 1:3 2:108 3:202 4:3 
10 1:3 3:324 
10 1:3 2:1673 3:1 
10 1:3 2:5 3:236 4:3 
10 1:3 3:28 5:10 
10 1:1 2:444 3:3590 4:1 
10 1:1 2:59 3:1335 
10 1:1 2:444 3:91 4:9 
10 1:1 2:59 3:1335 5:22 
10 1:3 2:40 3:341 
10 1:3 2:27 3:117 
10 1:3 2:2 3:236 5:13 
10 1:1 2:1188 3:1 
10 1:3 3:504 
10 1:3 2:1 3:3590 5:7 
10 1:3 3:346 
10 1:3 2:37 3:202 4:23 
10 1:1 2:1224 3:35 4:2 5:1 
10 1:3 3:504 
10 1:3 2:1 3:3590 5:75 
10 1:3 3:346 
10 1:1 2:1224 3:110 4:4 
10 1:2 2:1673 3:88 4:1 5:37 
10 1:3 3:504 
10 1:3 2:1 3:3590 5:1 
10 1:3 3:346 
0.24331913598380026 1:3 2:1 3:13 5:8 
10 1:1 2:120 3:3382 4:2 
10 1:1 2:549 3:386 4:1 
10 1:3 3:504 
10 1:3 3:346 
10 1:3 2:6 3:22 5:1 
10 1:3 3:18 5:2 
10 1:3 3:16 5:2 
10 1:2 2:49 3:720 
10 1:3 3:10 4:1 
10 1:1 2:370 3:82 4:81 5:10 
10 1:1 2:3347 3:2 
10 1:3 3:10 5:1 
10 1:3 2:1673 3:3 5:1 
10 1:1 2:131 3:1172 4:24 
10 1:1 2:59 3:1335 5:25 
10 1:3 2:42 3:113 
5.365293036036336 1:3 2:23 3:170 5:6 
0.078564292297138863 1:1 2:139 3:308 4:2 
10 1:3 2:23 3:170 4:4 5:6 
10 1:1 2:81 3:2974 
10 1:1 2:549 3:9 
10 1:1 2:3347 3:23 4:1 5:1 
10 1:3 2:1673 3:1 
10 1:1 2:1224 3:110 4:2 
10 1:1 2:120 3:3382 
10 1:1 2:549 3:386 
10 1:1 2:123 3:1167 4:2 5:1 
10 3:3382 4:1 
10 1:1 2:125 3:504 
10 1:1 2:52 3:3382 4:2 
10 1:1 2:549 3:513 5:42 
10 1:1 2:1421 3:1 4:1 5:1 
10 1:1 2:120 3:3382 4:17 
10 1:3 3:23 5:2 
10 1:1 2:131 3:579 4:190 
10 1:1 2:44 3:4035 4:7 5:5 
10 1:1 2:11 3:1556 
10 1:1 2:493 3:396 4:172 5:84 
10 1:1 2:120 3:504 4:8 
10 1:1 2:444 3:70 
10 1:1 2:3347 3:17 4:1 5:1 
10 1:3 2:1673 3:3 5:1 
10 1:1 2:370 3:82 4:81 5:2 
10 1:1 2:918 3:39 5:7 
10 1:3 3:50 4:1 
10 1:1 2:493 3:2974 5:6 
10 1:1 2:125 3:504 
10 1:1 2:125 3:504 
10 1:3 2:42 3:113 4:1 
10 1:1 2:185 3:4035 4:18 
10 1:1 2:81 3:2974 
10 1:1 2:549 3:9 
10 1:3 2:25 3:62 
10 1:1 2:444 3:272 4:99 5:18 
10 1:1 2:1224 3:1 4:1 5:1 
10 1:3 2:225 3:552 
10 1:3 2:42 3:200 
10 1:1 2:3347 3:52 4:1 5:11 
10 1:1 2:1188 3:3382 4:1 5:1015 
10 1:1 2:125 3:504 
10 3:3382 5:41 
10 1:1 2:493 3:2974 4:131 
10 1:1 2:125 3:504 
10 1:1 2:370 3:82 4:81 5:10 
10 1:1 2:120 3:504 4:8 
10 1:2 3:2167 4:9 5:312 
10 1:1 2:549 3:1 5:1 
10 1:3 3:324 
10 1:1 2:1188 3:3382 4:1 5:1015 
10 1:3 2:225 3:552 
5.4861620682724457 1:3 2:9 3:104 5:6 
10 1:3 2:42 3:200 
10 1:1 2:444 3:3536 4:5 5:11 
10 1:1 2:3347 3:52 4:1 5:2 
10 1:1 2:3347 3:15 4:5 5:1 
10 1:1 2:549 3:10 5:4 
3.6858248051787732 1:1 2:493 3:396 4:172 
10 1:3 3:324 5:1 
10 1:1 2:3347 3:6 5:1 
10 1:1 2:549 3:1167 
10 1:1 2:1188 3:308 4:1 5:122 
10 1:3 2:5 3:104 5:10 
10 1:1 3:4035 
10 1:1 2:70 3:3382 4:1 
10 1:1 2:123 3:1167 
10 1:3 2:4 3:78 
10 1:3 2:1673 3:1 
10 1:2 2:1164 3:2 4:1 5:2 
0.19236374631965675 1:3 2:1 3:11 4:1 5:2 
10 1:3 2:21 3:50 5:3 
10 1:1 2:485 3:513 4:156 5:1 
10 1:1 2:3347 3:21 4:4 5:1 
10 1:1 2:493 3:4 
10 3:3382 4:5 5:53 
10 1:1 2:1188 3:58 5:1 
10 1:1 2:3347 3:2 
10 1:1 2:52 3:3382 5:1015 
10 1:1 3:4035 
10 1:1 2:370 3:82 4:81 5:10 
10 1:1 2:549 3:9 4:2 
10 1:3 2:42 3:233 5:1 
10 1:1 2:43 3:2167 5:1 
10 1:3 2:42 3:113 
10 1:1 2:81 3:2974 4:13 
10 1:1 2:549 3:9 
10 1:1 2:125 3:504 
10 1:1 2:549 3:30 4:1 5:2 
10 1:1 2:485 3:396 4:27 
10 1:1 2:120 3:504 4:8 
10 1:1 2:549 3:9 
10 1:1 2:120 3:3382 
10 1:1 2:549 3:386 
10 1:3 2:225 3:552 
10 1:3 2:42 3:200 
10 1:1 2:444 3:3536 4:9 5:15 
10 1:1 2:3347 3:52 4:2 5:4 
10 1:3 2:1673 3:1 
10 3:3382 4:26 5:24 
10 1:1 2:493 3:24 
10 1:1 2:123 3:552 4:1 
10 1:3 2:1673 3:1 
10 1:1 2:549 3:1167 4:4 
10 1:3 3:23 5:2 
10 1:3 3:14 5:9 
8.329676230628106 1:1 2:186 3:1 5:1 
10 1:3 2:2 3:13 5:2 
10 1:1 2:485 3:386 4:4 5:1 
10 1:1 3:145 4:2 5:130 
10 1:3 2:2255 3:3 4:1 5:1 
10 1:1 2:34 3:513 5:1 
10 3:3382 4:1 5:3 
10 1:1 2:493 3:2974 5:3 
10 1:1 2:125 3:504 
10 3:3382 5:15 
4.8325421398074866 1:3 3:16 5:9 
10 1:3 3:101 5:87 
10 1:1 2:1224 3:110 4:68 5:1 
10 1:1 2:43 3:2167 5:35 
10 1:1 2:444 3:592 4:298 5:6 
10 1:1 2:186 3:1 5:1 
10 1:1 2:485 3:513 4:87 5:1 
10 1:3 2:42 3:113 
10 1:1 3:184 4:76 5:95 
10 1:1 2:123 3:1167 
10 1:1 2:125 3:3382 5:1 
10 1:1 2:81 3:2974 4:34 
10 1:1 2:549 3:9 
10 1:3 2:178 3:504 4:1 
10 1:1 2:549 3:513 4:156 5:1 
10 1:1 2:493 3:2974 5:1 
10 1:1 2:125 3:504 
10 1:1 2:1188 3:308 4:1 5:122 
10 1:3 2:178 3:504 
10 1:1 2:549 3:513 5:42 
10 1:2 2:1164 3:62 4:1 5:1 
10 1:1 2:52 3:3382 4:17 
10 1:1 2:43 3:2167 5:3 
10 1:1 2:70 3:3382 4:28 
10 1:1 2:493 3:208 4:141 5:2 
10 1:1 2:43 3:2167 5:35 
10 1:3 3:10 5:1 
10 1:1 2:549 3:69 5:4 
10 1:3 3:23 4:4 5:2 
0.31782302242461213 1:3 3:14 4:1 5:9 
10 1:1 2:70 3:3382 4:10 
10 1:1 2:185 3:4035 5:1 
10 1:1 2:549 3:11 
10 1:1 2:493 3:241 5:2 
10 1:1 2:125 3:504 
10 1:3 3:28 5:4 
10 1:3 2:53 3:104 5:10 
10 1:1 2:549 3:1167 
10 1:1 2:549 3:1167 
10 1:1 3:4035 
10 1:1 2:3347 3:3 5:1 
10 1:1 3:4035 
10 1:1 2:3347 3:3 5:1 
10 1:1 3:4035 
10 1:1 3:4035 
10 1:1 2:1188 3:308 4:1 5:122 
10 1:1 2:549 3:1167 
10 1:1 2:549 3:1167 
10 1:1 2:549 3:1167 
10 1:1 2:549 3:1167 
10 1:1 2:70 3:3382 4:3 5:1015 
10 1:1 2:81 3:2974 
10 1:1 2:549 3:9 
10 1:1 2:70 3:3382 4:4 
10 1:3 2:1673 3:1 
10 1:1 2:125 3:504 
10 1:1 2:62 3:552 5:117 
10 1:1 2:3347 3:11 5:8 
2.2287736734515491 1:1 2:1421 3:10 4:7 5:6 
10 1:3 2:39 3:341 
10 1:3 2:39 3:170 
10 1:3 3:504 4:3 
10 1:3 3:432 4:7 
10 1:3 3:21 5:4 
10 1:3 3:504 
10 1:3 3:432 
10 1:2 2:118 3:720 
10 1:3 3:9 5:1 
10 1:1 2:444 3:22 
10 1:3 3:495 
10 1:3 2:1673 3:1 
10 1:3 3:573 5:5 
10 1:3 2:317 3:236 
10 1:3 2:53 3:104 
10 1:3 2:1 3:438 4:8 5:1 
10 1:3 2:42 3:907 4:1 5:1 
10 1:3 3:9 5:1 
10 1:1 2:3347 3:2 
10 1:3 2:39 3:241 5:2 
10 1:1 2:59 3:1335 
10 1:1 2:3347 3:2 
10 1:3 2:53 3:104 
10 1:3 2:1 3:438 
0.25872234756744061 1:3 2:42 3:907 5:1 
10 1:3 2:2 3:9 4:9 5:7 
10 1:1 2:59 3:1335 
10 1:1 2:3347 3:2 
10 1:3 2:1673 3:1 
10 1:3 3:50 4:1 
10 1:1 2:59 3:1335 5:3 
10 1:1 2:444 3:5 
10 1:2 2:222 3:112 4:79 5:12 
10 1:3 3:504 4:3 
10 1:3 3:432 4:7 
10 1:1 2:444 3:5 
10 1:3 3:50 4:1 
10 1:1 2:444 3:5 
10 1:3 2:1673 3:1 
10 1:3 3:11 4:1 
10 1:1 2:59 3:1335 
10 1:3 2:1673 3:1 
10 1:1 2:59 3:1335 
10 1:3 2:1673 3:1 
10 1:3 2:20 3:1167 5:11 
2.0616708885898358 1:3 3:61 4:7 
10 1:3 2:17 3:66 
10 1:1 2:59 3:1335 
10 1:3 2:5 3:236 
10 1:3 3:17 5:3 
10 1:3 2:1673 3:1 
10 1:3 2:37 3:202 4:2 
10 1:3 3:94 5:1 
10 1:3 2:15 3:341 4:8 
10 1:3 2:12 3:299 4:1 
10 1:2 2:85 3:366 4:202 
10 1:2 2:35 3:299 4:1 
10 1:1 2:59 3:1335 
10 1:3 2:25 3:94 5:15 
10 1:3 2:25 3:62 5:11 
10 1:3 2:20 3:1167 5:26 
10 1:1 2:59 3:1335 
10 1:3 2:1673 3:1 
10 1:3 3:432 5:1 
10 1:3 2:25 3:94 4:2 
10 1:3 2:25 3:62 4:4 5:2 
10 1:1 2:444 3:60 5:20 
10 1:3 2:20 3:1167 5:11 
10 1:2 2:1674 3:94 4:2 5:8 
10 1:1 2:3347 3:2 
10 1:3 2:20 3:1167 4:1 
10 1:1 2:59 3:1335 
10 1:3 2:1673 3:1 
10 1:3 2:9 3:341 
10 1:1 2:59 3:1335 
10 1:3 2:53 3:104 5:10 
10 1:1 2:444 3:2 4:1 
10 1:1 2:59 3:1335 
10 1:1 2:59 3:1335 
10 1:1 2:59 3:1335 
10 1:3 2:1 3:124 5:33 
2.0487619913666313 1:3 2:12 3:90 4:2 
10 1:3 2:20 3:1167 4:1 
10 1:3 2:63 3:299 
10 1:3 2:10 3:196 
10 1:1 2:444 3:195 
10 1:3 2:232 3:552 4:1 5:117 
10 1:3 2:18 3:104 5:10 
10 1:1 2:59 3:1335 
10 1:3 2:1673 3:1 
10 1:3 2:25 3:62 
10 1:2 2:1674 3:9 
10 1:1 2:59 3:1335 5:20 
0.15915894615615131 1:3 2:40 3:62 4:1 5:10 
10 1:3 3:432 5:8 
10 1:3 2:1673 3:1 
10 1:1 2:3347 3:2 
10 1:2 2:1688 3:13 
10 1:3 2:2 3:74 5:12 
10 1:3 3:21 5:5 
10 1:1 2:1188 3:3382 4:6 5:172 
10 1:1 2:59 3:1335 
10 1:3 2:11 3:61 4:1 5:1 
10 1:3 2:1 3:124 5:33 
10 1:1 2:59 3:1335 
10 1:1 2:1188 3:3382 4:10 5:86 
10 1:1 2:1224 3:35 4:2 5:1 
10 1:3 2:1673 3:6 5:2 
10 1:1 2:59 3:1335 
10 1:3 2:5 3:236 
10 1:1 2:444 3:324 4:129 5:28 
1.2483078618796564 1:3 3:16 5:14 
10 1:1 2:3347 3:31 4:11 5:2 
10 1:1 2:3347 3:8 4:3 5:1 
10 1:3 2:2 3:9 4:9 5:7 
10 1:2 2:1673 3:88 4:3 5:1 
10 1:1 2:444 3:20 4:3 
10 1:1 2:444 3:2974 4:21 5:20 
10 1:1 2:3347 3:18 4:1 5:3 
10 1:3 2:18 3:45 
10 1:1 2:1224 3:1 4:1 5:1 
10 1:3 2:12 3:47 5:1 
10 1:1 2:1224 3:110 4:68 
0.0039614706933722146 1:3 2:11 3:107 4:76 
10 1:1 2:1224 3:13 4:4 5:4 
10 1:1 2:1224 3:110 4:68 5:6 
10 1:3 2:1674 3:7 
10 1:1 2:3347 3:7 4:1 5:1 
10 1:1 2:59 3:1335 5:18 
10 1:2 2:1675 3:1 
10 1:1 2:1188 3:308 5:122 
10 1:1 2:1224 3:14 4:1 5:1 
10 1:1 2:3347 3:3 4:1 5:1 
10 1:3 2:1673 3:1 
10 1:1 2:3347 3:33 4:2 
10 1:1 2:3347 3:11 5:4 
10 1:2 2:1675 3:1 
10 1:1 2:3347 3:7 4:7 5:2 
10 1:3 2:95 3:504 
10 1:3 2:12 3:324 
10 1:3 2:1 3:31 5:2 
10 1:3 2:95 3:504 
0.01666513075582543 1:3 2:41 3:61 
10 1:1 2:1188 3:1 
10 1:1 2:620 3:117 4:34 5:3 
10 1:1 2:620 3:117 4:34 5:13 
10 1:1 2:1224 3:35 4:12 5:3 
10 1:1 2:59 3:1335 
10 1:1 2:59 3:1335 5:2 
10 1:1 2:1188 3:579 4:1 5:5 
10 1:1 2:59 3:1335 
10 1:1 2:620 3:117 4:34 5:1 
10 1:1 2:3347 3:5 4:2 
10 1:1 2:1188 3:1752 4:3 5:202 
10 1:3 2:53 3:104 
10 1:3 2:1 3:438 4:8 
10 1:3 2:42 3:907 4:1 
10 1:1 2:444 3:1315 5:38 
10 1:1 2:444 3:495 4:427 5:5 
10 1:3 2:36 3:196 
10 1:1 2:620 3:117 4:34 5:13 
10 1:1 2:620 3:117 4:34 5:13 
0.001486200443626091 1:3 2:3 3:47 5:13 
10 1:3 3:10 5:1 
10 1:1 2:1188 3:579 4:1 5:48 
10 1:1 2:3347 3:12 4:6 5:1 
10 1:1 2:3347 3:11 4:1 5:1 
10 1:1 2:620 3:117 4:34 5:3 
10 1:1 2:444 3:34 4:17 
10 1:1 2:444 3:34 4:17 
10 1:3 2:15 3:185 
10 1:1 2:444 3:34 4:17 
10 1:1 2:620 3:117 4:34 5:3 
10 1:1 2:1188 3:3382 4:1 5:1015 
10 1:1 2:3347 3:24 4:6 5:1 
10 1:1 2:3347 3:3 4:2 5:1 
10 1:1 2:59 3:1335 
10 1:3 2:15 3:58 
10 1:1 2:1188 3:3382 4:1 
10 1:3 3:438 4:34 
10 1:1 2:3347 3:2 
10 1:3 3:438 4:34 
10 1:3 3:438 4:34 
10 1:3 3:438 4:34 
10 1:3 3:438 
10 1:3 3:438 
10 1:3 3:438 4:34 
10 1:3 3:438 
10 1:1 2:3347 3:89 4:1 5:2 
10 1:2 2:1688 3:13 
10 1:3 3:438 
10 1:3 3:438 
10 1:1 2:59 3:1335 
10 1:1 2:485 3:444 5:1 
10 1:1 2:3347 3:7 4:2 5:1 
10 1:1 2:444 3:346 4:1 
10 1:1 2:3347 3:6 4:6 5:1 
10 1:3 2:1673 3:1 
10 1:3 2:156 3:170 4:1 
10 1:1 2:3347 3:6 4:2 5:2 
10 1:1 2:59 3:1335 4:12 
10 1:1 2:3347 3:2 4:1 5:1 
10 1:1 2:3347 3:3 4:1 5:1 
10 1:1 2:1224 3:110 4:68 5:3 
10 1:3 2:5 3:236 4:3 
10 1:1 2:1224 3:110 4:68 5:1 
10 1:1 2:1224 3:63 4:14 5:1 
10 1:1 2:1224 3:6 4:1 
10 1:2 2:1673 3:88 
10 1:1 2:1224 3:110 4:68 5:14 
10 1:1 2:3347 3:24 4:16 5:1 
10 1:1 2:485 3:513 4:87 
10 1:1 2:3347 3:6 4:1 5:2 
10 1:1 2:3347 3:11 5:2 
10 1:3 2:2 3:24 5:2 
10 1:1 2:1188 3:16 4:1 5:1 
10 1:1 2:485 3:2167 4:10 5:6 
10 1:3 2:4 3:34 
10 1:1 2:123 3:1167 5:139 
10 1:2 2:868 3:5 5:3 
10 1:1 2:485 3:3536 4:1 5:34 
10 1:3 3:62 4:4 
10 1:1 2:211 3:10 5:8 
10 1:1 2:444 3:5 
10 1:3 2:1 3:14 
10 1:1 2:620 3:9 4:4 5:3 
10 1:1 2:493 3:2974 5:1 
10 1:1 2:125 3:504 
10 1:1 2:3347 3:45 4:13 5:1 
10 1:1 2:620 3:9 4:2 5:3 
10 1:1 2:1188 3:3382 4:1 
10 1:1 2:59 3:1335 
10 1:1 2:493 3:4 
10 1:2 2:1673 3:88 4:1 5:37 
10 1:1 2:485 3:3382 4:28 5:53 
10 1:1 2:3347 3:5 4:2 
10 3:3536 4:27 
10 1:3 2:225 3:552 
10 1:3 2:42 3:200 
10 1:1 2:444 3:3536 5:8 
10 1:1 2:3347 3:52 5:5 
10 1:3 3:9 5:1 
10 1:1 2:3347 3:6 4:1 
10 1:1 2:59 3:1335 
10 1:2 2:13 3:2167 4:9 
10 1:1 2:1421 3:124 4:20 5:6 
10 1:1 2:549 3:95 4:9 5:27 
10 1:2 2:13 3:2167 4:9 5:1 
10 1:1 2:3347 3:27 4:22 5:1 
0.26631086536463616 1:3 2:8 3:23 5:1 
10 1:1 2:493 3:2974 5:1 
10 1:1 2:125 3:504 
10 1:1 2:549 3:1167 5:2 
10 1:1 2:123 3:1167 4:3 
10 1:1 2:59 3:1335 
10 1:1 2:1224 3:14 4:1 5:1 
10 1:1 2:3347 3:3 4:1 5:1 
10 1:1 2:1188 3:3382 4:1 5:6 
10 1:1 2:59 3:1335 
10 1:3 2:7 3:36 
10 1:1 2:1188 3:308 4:1 5:122 
10 1:1 2:493 3:2974 5:2 
10 1:1 2:125 3:504 
10 1:3 2:1673 3:1 
10 1:1 2:3347 3:2 4:1 5:1 
10 1:3 2:23 3:170 4:4 5:6 
10 1:1 2:3347 3:9 4:6 5:3 
10 1:3 2:10 3:58 
10 1:1 2:549 3:1167 
10 1:1 2:1188 3:1752 5:10 
10 1:1 2:3347 3:6 4:2 5:2 
10 1:1 2:3347 3:9 4:2 5:1 
10 1:3 2:9 3:341 4:7 
10 1:1 2:1188 3:2 
10 1:1 2:1188 3:2 
10 1:1 2:81 3:2974 4:4 
10 1:1 2:549 3:9 
10 1:1 2:444 3:2974 4:21 5:20 
10 1:3 2:1673 3:1 
10 1:1 2:3347 3:10 
10 1:1 2:3347 3:9 5:1 
10 1:3 2:9 3:341 
10 1:1 2:123 3:1167 4:1 5:95 
10 1:3 3:11 4:1 
10 1:1 2:3347 3:45 4:1 
10 1:1 2:1224 3:110 4:68 5:1 
10 1:1 2:493 3:2974 4:2 5:1 
10 1:1 2:125 3:504 
10 1:1 2:125 3:504 
10 1:1 2:1224 3:110 4:68 5:6 
10 1:1 2:185 3:4035 4:21 
10 1:2 2:1675 3:1 
10 1:3 2:15 3:341 5:2 
10 1:1 2:549 3:11 
10 1:1 2:3347 3:12 4:2 5:1 
10 1:1 2:125 3:504 
10 1:3 2:9 3:341 4:7 
10 1:1 2:3347 3:33 4:1 5:1 
10 1:3 2:15 3:341 4:1 5:1 
10 1:1 2:549 3:11 
10 1:3 2:15 3:341 
10 1:1 2:549 3:11 
10 1:1 2:3347 3:32 
10 1:2 2:1673 3:88 
10 1:1 2:549 3:9 4:2 
10 1:3 2:242 3:438 4:22 
10 1:1 2:1224 3:110 4:68 5:1 
10 1:1 2:1188 3:3382 4:6 5:172 
10 1:2 2:1164 3:67 4:50 5:4 
10 1:1 2:131 3:1172 5:4 
10 1:1 2:549 3:513 5:14 
10 1:1 2:549 3:386 
10 1:1 2:549 3:386 
10 1:1 2:123 3:1167 4:2 5:26 
10 1:1 2:125 3:504 
10 1:1 2:81 3:2974 4:139 
10 1:1 2:549 3:9 
10 1:1 2:59 3:1335 
10 3:3536 4:11 5:2 
10 3:3382 4:2 5:3 
10 1:1 2:1188 3:1752 5:10 
10 1:1 2:1224 3:110 4:68 5:7 
10 1:1 2:549 3:386 5:1 
10 1:1 2:123 3:1167 5:13 
10 1:1 2:549 3:386 
10 1:1 2:123 3:1167 4:2 
10 1:1 2:3347 3:1 4:1 
10 1:3 2:19 3:104 4:3 
10 1:3 3:170 
10 1:1 2:131 3:3382 5:1 
10 1:1 2:549 3:9 
10 1:1 2:3347 3:7 4:1 5:2 
10 1:3 3:19 5:5 
10 1:3 2:53 3:98 
10 1:1 2:3347 3:7 4:1 5:2 
10 1:1 2:493 3:2974 5:1 
10 1:1 2:125 3:504 
10 1:1 2:493 3:2974 4:1 5:2 
10 1:1 2:125 3:504 
10 1:1 2:3347 3:11 4:1 5:1 
10 1:1 2:120 3:3382 4:2 
10 1:1 2:549 3:386 4:1 
10 1:1 2:81 3:2974 4:71 
10 1:1 2:549 3:9 
10 1:1 2:3347 3:2 4:1 5:1 
10 1:1 2:3347 3:2 4:1 
10 1:1 2:3347 3:15 5:1 
10 1:1 2:1224 3:35 4:12 5:3 
10 1:3 2:176 3:117 
10 1:1 2:219 3:1315 4:4 5:2 
10 1:3 2:8 3:33 5:2 
10 1:1 2:1421 3:124 4:19 5:2 
10 1:1 2:108 3:3590 4:1 
10 1:1 2:549 3:9 
10 1:1 2:1224 3:15 4:2 5:1 
10 1:1 2:125 3:504 
10 1:1 2:120 3:3382 
10 1:1 2:549 3:386 
10 1:1 2:1224 3:63 4:14 5:1 
10 1:1 2:1224 3:35 4:12 5:3 
10 1:3 2:176 3:117 
10 1:1 2:3347 3:2 4:1 5:1 
10 1:1 2:59 3:1335 5:28 
10 1:1 2:620 3:117 4:34 5:1 
10 1:1 2:1421 3:124 4:19 5:2 
10 1:3 3:62 4:4 
10 1:1 2:444 3:16 4:6 
10 1:1 2:3347 3:6 4:5 5:2 
10 1:1 2:1188 3:3382 4:1 5:1015 
10 1:1 2:620 3:117 4:34 5:13 
10 1:1 2:59 3:1335 5:2 
10 1:3 3:10 5:1 
10 1:1 2:1224 3:133 4:38 5:55 
10 1:1 2:123 3:1167 
10 1:1 2:493 3:2974 4:1 
10 1:1 2:123 3:552 4:1 
10 1:1 2:120 3:3382 4:17 
10 1:1 2:59 3:1335 5:15 
10 1:1 2:1224 3:110 4:68 5:14 
10 1:1 2:549 3:1167 5:2 
10 1:1 2:1188 3:3382 4:1 5:7 
10 1:1 2:59 3:1335 5:15 
10 1:2 2:1688 3:13 
10 1:1 2:125 3:504 
10 3:3382 5:2 
10 1:3 2:58 3:504 
10 1:1 2:3347 3:12 4:9 5:1 
10 1:3 2:1673 3:1 
10 1:3 3:513 5:1 
10 1:1 2:1224 3:110 4:68 
10 1:3 2:58 3:504 
10 1:1 2:3347 3:12 4:9 5:1 
10 1:3 2:1673 3:1 
3.2405081087118561 1:1 2:1188 3:1752 4:108 
10 1:1 2:1188 3:1752 4:108 
10 1:1 2:493 3:2974 4:1 
0.13619336003894472 1:3 2:13 3:35 4:1 
10 1:1 2:444 3:61 4:38 
10 1:1 2:3347 3:9 4:6 
10 1:1 2:3347 3:4 4:2 5:1 
10 3:3536 4:37 5:190 
10 1:1 2:123 3:552 4:1 
10 1:1 2:123 3:552 4:1 
10 3:3536 5:2 
10 1:1 2:549 3:1167 4:3 
10 1:1 2:493 3:2974 5:1 
10 1:1 2:125 3:504 
10 1:1 2:125 3:504 
10 1:1 2:70 3:3382 4:9 5:2 
10 1:1 2:81 3:2974 4:4 
10 1:1 2:549 3:9 
10 1:3 2:225 3:552 
10 1:3 2:42 3:200 
10 1:1 2:3347 3:52 4:2 5:11 
10 1:1 2:84 3:1335 
10 1:3 2:2 3:74 4:4 5:2 
10 1:1 2:1188 3:15 4:4 5:1 
10 1:1 2:485 3:515 4:1 5:3 
10 1:1 2:125 3:504 
10 1:1 2:70 3:3382 4:9 
10 1:1 2:918 3:39 4:1 5:7 
10 1:3 2:1673 3:1 
10 1:3 2:1673 3:1 
10 1:3 2:6 3:27 
10 1:3 2:2 3:74 5:12 
10 1:3 3:21 5:5 
10 1:1 2:1224 3:110 4:1 5:3 
10 1:3 2:9 3:341 4:5 5:1 
10 1:1 2:219 3:1315 
10 1:1 2:444 3:36 4:16 
10 1:1 2:3347 3:5 4:1 5:1 
10 1:1 2:125 3:504 
10 1:3 2:15 3:341 4:1 
10 1:1 2:125 3:504 
10 1:1 2:120 3:3382 4:2 
10 1:1 2:549 3:386 4:1 
10 1:3 2:28 3:170 4:4 5:6 
10 1:1 2:1224 3:11 4:1 5:1 
0.016703189259733631 1:3 2:155 3:104 4:52 5:3 
10 1:1 2:444 3:113 4:107 
10 1:1 2:125 3:504 
10 1:1 2:52 3:3382 4:17 5:107 
10 1:1 2:549 3:386 
10 1:1 2:3347 3:3 4:3 5:1 
10 1:1 2:131 3:3382 
10 1:1 2:549 3:9 
10 1:1 2:52 3:3382 4:2 
10 1:1 2:52 3:3382 5:3 
10 1:1 2:549 3:10 5:4 
10 1:1 2:123 3:552 4:1 
10 1:1 2:3347 3:2 4:2 5:2 
10 1:1 2:549 3:3 
10 1:3 2:40 3:341 4:1 
10 1:3 2:27 3:117 
10 1:3 2:42 3:200 
10 1:1 2:444 3:3536 
10 1:1 2:52 3:3382 5:184 
10 1:3 2:23 3:170 5:6 
10 1:1 2:120 3:3382 
10 1:1 2:549 3:386 
10 1:1 2:70 3:3382 4:15 
10 1:2 2:1688 3:13 
10 1:1 2:1421 3:1 4:1 5:1 
10 1:1 2:1188 3:308 5:122 
10 1:1 2:444 3:201 5:1 
10 1:3 2:41 3:1167 5:3 
1.9507939542568207 1:3 2:12 3:82 4:1 
10 1:3 2:21 3:50 
10 1:1 2:1224 3:1 4:1 5:1 
10 1:3 2:1 3:14 
10 1:1 2:3347 3:9 4:1 5:3 
10 1:1 2:43 3:2167 5:1 
10 1:1 2:32 3:1335 
10 1:1 2:3347 3:4 4:2 5:1 
10 1:1 2:3347 3:4 4:2 5:1 
10 1:3 3:17 5:3 
10 1:3 2:5 3:43 5:3 
10 1:1 2:3347 3:4 4:1 5:1 
10 1:3 2:2 3:88 
0.17010552556455655 1:1 2:444 3:273 4:4 5:30 
10 1:1 2:3347 3:3 4:3 5:1 
0.39143632165630188 1:3 3:10 5:6 
10 1:1 2:3347 3:4 4:1 
10 1:1 2:3347 3:9 4:1 
10 1:1 2:123 3:1167 
10 1:1 2:123 3:1167 4:4 5:1 
10 1:1 2:123 3:1167 
10 1:1 2:125 3:3382 
10 1:1 2:70 3:3382 4:1 
10 1:1 2:1188 3:3382 4:10 
10 1:1 2:3347 3:24 4:16 
10 1:3 2:40 3:341 5:8 
10 1:3 2:27 3:117 
10 1:1 2:120 3:3382 4:1 
10 1:1 2:549 3:386 
10 1:1 2:549 3:1167 
10 1:3 2:53 3:104 4:52 5:10 
10 1:1 2:493 3:2974 5:1 
10 1:1 2:125 3:504 
10 1:1 2:493 3:2974 4:1 
10 1:1 2:125 3:504 
10 1:1 2:62 3:552 5:117 
10 1:1 2:81 3:2974 4:375 
10 1:1 2:108 3:3590 4:1 
10 1:1 2:131 3:3382 
10 1:1 2:1224 3:110 4:68 5:21 
10 1:2 2:3 3:18 5:2 
10 1:1 2:3347 3:3 4:1 5:1 
10 1:1 2:125 3:504 
10 3:3382 4:31 5:2 
10 1:1 2:3347 3:1 
10 1:1 2:485 3:899 4:1 5:6 
10 1:1 2:1188 3:1752 5:14 
10 1:1 2:219 3:1315 5:2 
10 1:1 2:493 3:24 5:1 
10 1:1 2:125 3:504 
10 1:1 2:3347 3:16 4:5 5:2 
10 1:1 2:3347 3:7 
10 1:1 2:493 3:396 4:172 5:5 
10 1:1 2:1224 3:6 4:2 5:6 
10 1:1 2:123 3:552 4:1 
10 1:1 2:120 3:3382 4:17 
10 1:1 2:3347 3:11 5:2 
10 1:3 2:41 3:444 4:10 
10 1:3 2:41 3:444 
10 1:1 2:32 3:1335 
10 1:3 2:41 3:444 
10 1:3 2:41 3:444 
10 1:1 2:444 3:3590 
10 1:1 2:3347 3:32 
3.9120560063436489 1:1 2:123 3:504 4:4 
10 3:3382 4:16 5:2 
10 1:1 2:62 3:552 5:117 
10 1:1 2:370 3:82 4:81 5:1 
10 1:1 2:123 3:552 4:1 
10 1:1 2:120 3:3382 4:17 
10 1:3 2:41 3:444 4:10 5:1 
10 1:1 2:493 3:2974 5:2 
10 1:1 2:125 3:504 
10 1:1 2:70 3:3382 4:3 5:1015 
10 1:2 2:1673 3:88 4:1 5:37 
10 1:3 2:5 3:236 
10 1:1 2:3347 3:1 
10 1:1 2:125 3:504 
10 1:1 2:125 3:504 
10 1:1 2:549 3:6 5:3 
10 1:1 2:3347 3:27 4:22 5:1 
10 1:1 2:549 3:386 
10 1:3 2:42 3:113 
10 1:1 2:232 3:26 
10 1:2 2:13 3:2167 4:9 
10 1:1 2:3347 3:27 4:22 5:1 
10 1:1 2:549 3:1167 
10 1:3 2:225 3:552 
10 1:3 2:42 3:200 
10 1:1 2:3347 3:52 4:2 5:1 
10 1:1 2:125 3:504 
10 1:1 2:549 3:386 
0.45325735826398894 1:1 2:1421 3:124 4:10 5:33 
10 1:1 2:1188 3:1752 4:108 
10 1:1 2:70 3:3382 4:9 5:1015 
10 1:1 2:32 3:1335 
10 1:1 2:3347 3:6 4:5 5:2 
10 1:2 2:85 3:2167 4:1 5:312 
10 1:1 2:221 3:2 5:1 
10 1:1 2:123 3:1167 4:2 5:1 
10 1:3 3:35 
10 1:1 2:125 3:504 
10 1:1 2:52 3:3382 
10 1:2 2:1164 3:19 4:5 5:1 
10 1:1 2:120 3:3382 
10 1:1 2:549 3:386 
10 1:3 2:53 3:104 
10 1:3 2:1 3:438 
10 1:1 2:444 3:3590 4:18 
10 1:3 2:11 3:272 4:99 5:1 
10 1:3 3:324 4:129 5:1 
10 1:3 2:5 3:95 4:9 
10 1:2 2:85 3:366 4:16 
10 1:3 2:1 3:24 5:2 
10 1:3 3:324 
10 1:2 2:85 3:366 4:202 
10 1:3 2:23 3:170 5:6 
10 1:1 2:444 3:272 5:2 
10 1:1 2:3347 3:24 4:1 5:1 
0.076433933299263998 1:2 2:85 3:366 
10 1:1 2:1188 3:3382 4:1 5:6 
10 1:1 2:59 3:1335 5:2 
10 1:1 2:1224 3:110 4:68 5:1 
10 1:3 2:1 3:324 5:6 
10 1:1 2:185 3:4035 5:9 
10 1:3 2:28 3:123 
10 1:1 2:1188 3:3382 4:1 
10 1:3 2:28 3:123 
10 1:1 2:549 3:386 4:1 
10 1:3 2:2 3:23 5:2 
10 1:1 2:1224 3:11 5:2 
10 1:3 2:53 3:104 
10 1:3 2:1 3:438 
10 1:1 2:125 3:504 
10 1:1 2:549 3:1167 
10 1:1 2:32 3:1335 
10 1:1 2:59 3:1335 
10 1:1 2:125 3:504 
10 1:1 2:1188 3:1752 4:1 
10 1:1 2:219 3:1315 5:11 
10 1:1 2:3347 3:89 4:3 5:1 
10 1:2 2:1688 3:13 
10 1:1 2:620 3:117 4:34 5:1 
10 1:1 2:549 3:1167 
10 1:1 2:123 3:552 4:1 
10 1:1 2:120 3:3382 4:17 
10 1:1 2:32 3:1335 
10 1:2 2:1164 3:6 4:3 5:2 
0.19849752641376561 1:3 3:50 4:1 
10 1:1 2:549 3:1167 
10 1:1 2:549 3:386 
10 1:1 2:493 3:272 4:99 5:12 
10 1:3 3:438 
7.0171235727296271 1:3 3:46 5:2 
10 1:1 2:3347 3:2 4:1 
10 1:3 2:2 3:13 5:1 
10 1:1 2:125 3:504 
10 1:1 2:123 3:1167 
10 3:3536 4:8 
10 3:3536 4:1 5:47 
10 1:1 2:1188 3:3382 4:1 
10 1:1 2:59 3:1335 
10 1:1 2:43 3:2167 5:1 
10 1:1 2:32 3:1335 
10 1:3 3:324 4:4 5:8 
10 1:1 2:549 3:1167 
10 1:3 3:324 
10 1:1 2:3347 3:6 5:1 
10 1:1 2:444 3:5 
10 1:1 2:3347 3:11 5:1 
10 1:1 2:125 3:504 
10 1:3 3:324 
10 1:1 2:3347 3:6 5:1 
10 1:1 2:620 3:117 4:34 5:1 
10 1:3 2:7 3:341 
10 1:3 3:324 
10 3:3536 4:13 5:19 
10 1:3 2:37 3:202 4:23 
10 1:1 2:620 3:7 4:1 5:1 
10 1:1 2:1224 3:15 4:1 5:1 
10 1:1 2:549 3:11 4:1 
10 1:1 2:120 3:3382 4:2 
10 1:1 2:549 3:386 4:1 
10 1:1 2:1224 3:15 4:1 
10 1:1 2:620 3:117 5:1 
10 1:1 2:120 3:3382 
10 1:1 2:549 3:386 
10 1:2 2:858 3:15 
10 1:1 2:32 3:1335 
10 1:1 2:1188 3:3382 4:16 5:3 
10 1:1 2:59 3:1335 4:19 
10 1:1 2:52 3:3382 4:2 5:4 
10 1:1 2:185 3:4035 5:3 
10 1:1 2:125 3:504 
10 1:3 2:7 3:341 5:1 
10 1:1 2:219 3:1315 5:1 
10 1:1 2:123 3:1167 
10 1:1 2:549 3:1167 
10 1:1 2:620 3:117 4:34 5:1 
10 1:1 2:32 3:1335 
10 1:1 2:219 3:1315 
10 1:1 2:1188 3:3382 4:1 5:1015 
10 1:1 2:70 3:3382 4:51 
10 1:1 2:20 3:1315 4:2 
10 3:3536 4:6 5:36 
10 1:1 2:549 3:11 4:1 
10 1:1 2:1224 3:22 4:1 5:6 
10 1:3 3:10 5:1 
10 1:1 2:3347 3:24 4:16 
10 1:1 2:123 3:1167 
10 1:1 2:123 3:504 4:1 
10 1:1 2:620 3:6 4:4 5:2 
10 1:1 2:32 3:1335 
10 1:1 2:186 3:1 5:1 
10 1:3 3:62 4:4 
10 1:3 2:16 3:104 5:6 
10 1:1 2:3347 3:11 4:7 5:4 
10 1:1 2:444 3:4035 
10 1:2 2:633 3:1 
10 1:1 2:1224 3:5 5:2 
10 1:3 3:35 
10 1:1 2:52 3:3382 4:2 5:4 
10 1:1 2:620 3:117 4:34 5:1 
10 3:3536 4:9 5:3 
10 1:1 2:81 3:2974 
10 1:1 2:549 3:9 
10 1:1 2:125 3:504 
10 3:3536 4:8 5:18 
10 1:1 2:485 3:18 4:18 
10 1:2 2:633 3:1 
10 1:1 2:3347 3:42 4:1 5:1 
10 1:1 2:1188 3:308 5:122 
10 1:1 2:52 3:3382 4:5 5:1015 
10 1:1 2:549 3:11 4:1 
10 1:1 2:43 3:2167 5:1 
10 1:1 2:32 3:1335 
10 1:1 2:1224 3:15 4:4 5:1 
10 1:1 2:32 3:1335 
10 1:1 2:549 3:1167 
10 1:1 2:52 3:3382 4:4 5:1015 
10 1:1 2:32 3:1335 
10 1:1 2:59 3:1335 
10 1:1 2:549 3:95 4:26 5:3 
10 1:3 3:37 
10 1:1 2:3347 3:3 5:1 
10 1:1 2:549 3:95 4:26 5:27 
10 1:1 2:125 3:504 
10 1:1 2:52 3:1335 
10 1:1 2:12 3:1315 4:1 
10 1:1 2:125 3:3382 4:6 
10 1:1 2:549 3:6 
10 1:3 3:22 4:3 
10 1:3 3:67 4:1 
10 1:1 2:3347 3:4 4:1 5:1 
10 3:3536 4:15 5:31 
10 1:1 2:123 3:1167 
10 1:1 2:59 3:1335 5:18 
10 1:1 2:3347 3:5 4:1 5:1 
10 1:1 2:1188 3:579 4:1 5:48 
10 1:1 2:3347 3:24 4:16 5:1 
10 1:1 2:3347 3:4 4:1 5:1 
10 1:1 2:125 3:504 
10 1:3 3:10 4:1 
10 1:1 2:493 3:2974 4:184 5:7 
10 1:1 2:125 3:504 
10 1:1 2:1224 3:11 4:2 
10 1:1 2:1224 3:3 4:1 5:1 
10 1:1 2:1224 3:110 4:4 5:7 
10 1:1 2:120 3:3382 
10 1:1 2:549 3:386 
10 1:1 2:1224 3:52 4:2 5:6 
10 1:1 2:123 3:552 4:1 
10 1:1 2:120 3:3382 4:17 
10 1:1 2:3347 3:2 4:1 
10 1:1 2:3347 3:2 4:2 
10 1:1 2:59 3:1335 5:28 
10 1:1 2:59 3:1335 
10 1:3 2:225 3:552 
10 1:3 2:42 3:200 
10 1:1 2:444 3:3536 5:39 
10 1:1 2:549 3:1167 
10 1:1 2:549 3:386 
10 1:1 2:123 3:552 4:1 
10 1:1 2:120 3:3382 4:17 
10 1:1 2:32 3:1335 
10 1:2 2:1164 3:6 4:3 5:2 
5.7326616031940629 1:3 2:274 3:77 4:19 5:36 
10 1:3 2:7 3:36 
10 1:1 2:32 3:1335 
10 1:1 2:1188 3:3382 4:139 5:172 
10 1:1 2:59 3:1335 
10 1:1 2:120 3:3382 
10 1:1 2:120 3:3382 4:1 
10 1:1 2:549 3:386 
10 1:3 2:5 3:104 5:10 
10 1:1 2:485 3:3536 4:3 5:693 
10 1:1 2:123 3:552 4:1 
10 1:1 2:125 3:504 
10 1:1 2:1188 3:3382 4:12 5:37 
10 1:1 2:59 3:1335 
10 1:1 2:549 3:10 5:4 
10 1:1 2:123 3:1167 4:2 
10 1:3 3:25 
10 1:1 2:1188 3:3382 4:4 
10 1:1 2:59 3:1335 
10 1:3 3:25 
10 1:1 2:32 3:1335 
10 1:1 2:125 3:504 
10 1:1 2:62 3:552 5:117 
5.4281619180075333 1:1 2:123 3:552 
10 1:1 2:120 3:3382 
10 1:1 2:549 3:386 
10 1:1 2:123 3:552 
10 1:1 2:120 3:3382 
10 1:1 2:549 3:386 
10 1:1 2:549 3:1167 4:3 
10 1:1 2:549 3:1167 
10 1:3 3:10 5:1 
10 1:3 2:2 3:23 5:2 
10 1:1 2:549 3:10 5:1 
10 1:2 2:1673 3:88 4:1 5:37 
10 1:1 2:444 3:1315 5:1 
10 1:1 2:1188 3:3382 4:139 5:172 
10 1:1 2:59 3:1335 
10 1:1 2:125 3:504 
10 1:1 2:493 3:2974 5:26 
10 1:1 2:125 3:504 
10 1:1 2:125 3:504 
10 1:1 2:120 3:3382 4:17 
10 1:1 2:549 3:3 
10 1:1 2:43 3:2167 5:1 
10 1:1 2:32 3:1335 
8.404726380266748 1:1 2:1188 3:1752 4:108 
10 1:3 2:53 3:104 
10 1:3 2:1 3:438 
10 1:1 2:549 3:3 
10 1:1 2:549 3:3 
10 1:3 2:23 3:170 4:1 
10 1:1 2:125 3:504 
10 1:1 2:81 3:2974 
10 1:1 2:549 3:9 
10 1:1 2:493 3:86 4:24 5:11 
10 1:1 2:123 3:552 
10 1:1 2:549 3:386 
10 1:1 2:493 3:86 4:24 5:11 
10 1:2 3:2167 4:3 
10 1:3 2:2 3:23 5:2 
10 1:3 2:5 3:236 
10 1:1 2:493 3:17 
10 1:1 2:125 3:504 
10 1:1 2:59 3:1335 
10 1:1 2:52 3:3382 4:17 5:1015 
10 1:1 2:493 3:2974 4:184 5:7 
10 1:1 2:125 3:504 
10 1:1 2:549 3:10 4:1 
10 1:3 2:225 3:552 
10 1:3 2:42 3:200 
10 1:1 2:1224 3:110 4:4 5:7 
10 1:1 2:32 3:1335 4:61 
10 1:1 2:123 3:1167 
10 1:1 2:493 3:17 
10 1:1 2:493 3:17 
10 1:1 2:493 3:17 
10 1:1 2:123 3:552 4:1 
10 1:1 2:120 3:3382 4:17 
10 1:1 2:493 3:17 
10 1:3 2:1673 3:1 
10 1:1 2:493 3:17 
10 1:1 2:120 3:3382 
10 1:1 2:549 3:386 
10 1:1 2:493 3:2974 5:4 
10 1:1 2:125 3:504 
10 1:1 2:444 3:1315 5:1 
10 1:1 2:3347 3:7 5:2 
10 1:1 2:52 3:3382 5:4 
10 1:1 2:32 3:1335 4:7 
10 1:1 2:549 3:5 
10 1:1 2:32 3:1335 
10 1:1 2:3347 3:7 4:1 5:1 
10 1:1 2:3347 3:7 4:1 5:1 
10 1:3 3:18 5:14 
10 1:3 3:33 5:6 
10 1:1 2:549 3:69 4:1 
10 1:3 3:10 5:1 
10 1:1 2:125 3:504 
10 1:3 2:21 3:50 
10 1:1 2:131 3:1172 
10 1:1 2:32 3:1335 
10 1:1 2:123 3:1167 4:8 
10 1:3 2:225 3:552 
10 1:3 2:42 3:200 
10 1:1 2:3347 3:52 4:2 5:1 
10 1:2 2:6 3:14 4:5 5:5 
10 1:1 2:3347 3:21 4:8 5:6 
10 1:1 2:3347 3:17 4:1 5:1 
10 1:1 2:81 3:2974 4:85 
10 1:1 2:549 3:9 
10 1:1 2:3347 3:5 4:1 5:1 
10 1:1 2:549 3:513 4:156 5:20 
10 1:1 2:549 3:513 
10 1:1 2:131 3:1172 
10 1:1 2:3347 3:34 4:2 5:2 
10 1:1 2:43 3:2167 5:1 
10 1:1 2:52 3:3382 
10 1:1 2:485 3:3382 4:6 5:53 
10 1:1 2:125 3:504 
10 1:1 2:1188 3:3382 4:1 5:184 
10 1:1 2:123 3:1167 
10 1:1 2:125 3:3382 
10 1:1 2:123 3:552 4:1 
10 1:1 2:120 3:3382 4:17 
10 1:3 2:1673 3:1 
10 1:1 2:444 3:438 4:21 
10 1:1 2:3347 3:3 4:1 5:1 
10 1:1 2:70 3:3382 4:1 
10 1:1 2:52 3:3382 5:41 
10 1:1 2:52 3:3382 5:41 
10 1:1 2:549 3:1167 4:3 
10 1:3 2:1673 3:1 
10 1:1 2:444 3:20 4:3 
10 1:1 2:3347 3:4 4:1 5:2 
10 1:1 2:123 3:1167 
10 1:1 2:123 3:552 4:1 
10 1:1 2:1224 3:1 4:1 5:1 
10 1:1 2:219 3:1315 5:7 
10 1:1 2:70 3:3382 4:28 
10 1:1 2:59 3:1335 5:3 
10 1:3 2:2 3:13 5:1 
10 1:3 2:42 3:113 
10 1:1 2:1188 3:3382 4:6 5:8 
10 1:1 2:59 3:1335 
10 1:1 2:125 3:3382 
5.114614147263679 1:3 2:10 3:38 4:1 
0.31451620145714904 1:1 2:1188 3:1752 4:108 
10 1:1 2:1224 3:42 5:3 
10 1:1 2:131 3:1172 5:4 
10 1:1 2:185 3:4035 5:4 
10 1:1 2:493 3:24 
10 1:1 2:549 3:9 
10 1:1 2:125 3:504 
10 1:1 2:59 3:1335 5:25 
10 1:1 2:1224 3:35 5:5 
10 1:3 2:37 3:202 4:23 
10 1:1 2:59 3:1335 
10 1:1 2:35 3:552 
10 1:1 2:70 3:3382 4:3 5:7 
10 1:3 3:19 5:5 
10 1:3 2:53 3:98 
10 1:1 2:123 3:552 4:1 
10 1:1 2:120 3:3382 4:17 
10 1:1 2:485 3:386 4:17 5:3 
9.321844121067226 1:1 2:493 3:396 4:172 
10 1:1 2:549 3:3 
10 1:1 2:444 3:3590 5:4 
10 1:1 2:219 3:1315 
10 1:1 2:219 3:1315 
10 1:3 2:53 3:104 5:10 
10 1:1 2:549 3:1167 
3.5172247728931914 1:1 2:32 3:1335 
10 1:1 2:81 3:2974 
10 1:1 2:549 3:9 
10 1:1 2:549 3:9 
10 1:1 2:70 3:3382 4:4 
10 1:1 2:3347 3:3 
10 1:3 2:22 3:94 
10 1:3 2:22 3:62 
10 1:3 2:25 3:94 
10 1:1 2:11 3:1556 
10 1:1 2:1 3:899 
10 1:1 2:444 3:22 
10 1:1 2:11 3:1556 
10 1:1 2:1 3:899 
10 1:3 2:18 3:45 4:3 5:1 
10 1:3 2:18 3:45 4:3 5:1 
10 1:1 2:3347 3:1 
10 1:1 2:20 3:1315 4:2 
10 1:1 2:3347 3:3 4:1 
10 1:1 2:444 3:22 
10 1:1 2:3347 3:3 
10 1:1 2:125 3:504 
10 1:1 2:70 3:3382 4:10 
10 1:1 2:20 3:1315 4:2 
10 1:2 2:1688 3:13 
10 1:1 2:1224 3:1 4:1 
10 1:3 3:42 5:7 
10 1:1 2:219 3:1315 4:2 
10 1:3 2:10 3:58 
10 1:1 2:81 3:2974 4:34 
10 1:1 2:549 3:9 
10 1:1 2:59 3:1335 
10 1:1 2:549 3:1167 4:6 
10 1:1 2:32 3:1335 
10 1:1 2:3347 3:89 4:3 
10 1:1 2:444 3:60 4:1 
10 1:1 2:3347 3:3 4:2 5:1 
10 1:3 2:1673 3:1 
10 1:1 2:918 3:1 4:1 5:1 
10 1:1 2:125 3:504 
10 1:3 2:1673 3:1 
10 1:1 2:444 3:1315 5:38 
0.32343898737333659 1:1 2:1188 3:308 4:1 5:4 
10 1:2 2:1688 3:13 
10 1:1 2:3347 3:1 4:1 
10 1:3 2:10 3:58 
10 1:1 2:1224 3:110 4:68 5:14 
10 1:2 2:1688 3:13 
10 1:3 2:3 3:11 5:1 
10 1:3 2:10 3:58 5:2 
0.0010290989338524448 1:3 2:28 3:47 5:8 
0.80722957602721734 1:3 2:274 3:77 4:19 5:36 
10 1:1 2:70 3:3382 4:3 5:1015 
10 1:1 2:620 3:117 4:34 5:3 
10 1:1 2:3347 3:24 4:6 5:1 
10 1:1 2:549 3:3 
10 1:1 2:123 3:552 4:1 
10 1:1 2:123 3:1167 4:2 5:11 
10 1:1 2:123 3:1167 
10 1:1 2:125 3:504 
10 1:1 2:549 3:95 4:26 5:27 
10 1:1 2:1188 3:3382 4:10 5:86 
10 1:1 2:485 3:1167 5:3 
10 1:1 2:81 3:2974 4:3 
10 1:1 2:549 3:9 
10 1:1 2:549 3:3 
10 1:1 2:3347 3:21 4:1 5:1 
10 1:1 2:1224 3:1 4:1 5:1 
10 1:1 2:3347 3:3 4:1 5:1 
10 1:1 2:1188 3:48 5:9 
10 1:1 2:123 3:1167 4:8 5:1 
2.371247355628423 1:3 2:5 3:18 5:1 
10 1:1 2:123 3:552 
10 1:1 2:120 3:3382 
10 1:1 2:549 3:386 
10 1:3 2:1 3:14 
10 1:1 2:620 3:9 4:4 5:3 
10 1:1 2:59 3:1335 
10 1:1 2:3347 3:9 4:6 5:2 
2.3898017168994343 1:3 2:1 3:113 
10 1:3 3:10 5:1 
10 1:1 2:620 3:4 4:1 5:1 
10 1:2 2:85 3:206 4:1 
10 1:1 2:549 3:10 5:4 
10 1:3 3:23 4:7 5:23 
10 1:2 2:1688 3:13 
3.2867291177322921 1:3 3:23 4:3 5:23 
10 1:3 3:23 4:7 5:23 
10 1:1 2:59 3:1335 
10 1:1 2:444 3:107 4:76 
10 1:1 2:125 3:3382 
10 1:3 2:17 3:438 4:11 
10 1:1 2:125 3:3382 
10 1:3 3:90 4:1 
10 1:3 2:225 3:552 
10 1:3 2:42 3:200 
10 1:1 2:444 3:3536 4:27 5:15 
10 1:1 2:3347 3:7 4:2 5:1 
10 1:2 2:1675 3:1 
10 1:1 2:485 3:3590 4:130 5:1 
10 1:1 2:3347 3:9 
10 1:3 2:9 3:341 
10 1:2 2:1688 3:13 
10 1:3 2:29 3:104 5:1 
10 1:1 2:1224 3:35 4:12 5:7 
10 1:3 2:29 3:104 5:1 
10 1:1 2:1224 3:35 4:12 5:7 
10 1:1 2:125 3:504 
10 1:1 2:1188 3:3382 4:3 5:37 
10 1:1 2:59 3:1335 
10 1:1 2:3347 3:7 4:2 5:1 
10 1:1 2:123 3:1167 4:2 
10 1:1 2:59 3:1335 
10 3:3382 4:4 5:1 
10 1:1 2:485 3:2 4:1 5:1 
10 1:3 2:1673 3:1 
10 1:3 2:1673 3:1 
10 1:3 2:6 3:27 
10 3:3382 4:16 
10 3:3382 4:4 5:2 
10 1:1 2:3347 3:2 5:1 
10 1:1 2:125 3:504 
10 1:1 2:125 3:504 
10 1:1 2:1188 3:3382 4:18 
10 1:1 2:1421 3:124 5:33 
6.0933293045772583 1:1 2:32 3:1335 
10 1:3 3:12 4:1 
10 1:1 2:125 3:504 
10 1:1 2:62 3:552 5:117 
10 1:3 3:23 4:7 5:23 
10 1:3 3:233 
10 1:1 2:3347 3:9 4:1 5:3 
10 3:3536 4:27 5:693 
10 1:1 2:70 3:3382 4:1 
10 1:1 2:3347 3:7 4:2 5:1 
10 1:1 2:70 3:3382 4:1 
10 1:3 2:3 3:73 5:5 
10 1:1 2:444 3:16 4:6 
10 1:1 2:3347 3:6 4:5 5:1 
10 1:1 2:1188 3:308 4:1 5:122 
10 1:1 2:1188 3:308 4:1 5:122 
10 1:2 2:705 3:4 
10 1:3 2:29 3:104 5:1 
10 1:1 2:1224 3:35 4:12 5:7 
10 1:2 2:705 3:4 
10 1:3 2:29 3:104 5:1 
10 1:1 2:1224 3:35 4:12 5:7 
10 1:1 2:1188 3:308 4:1 5:122 
10 1:1 2:219 3:1315 
10 1:1 2:444 3:20 4:3 
10 1:1 2:549 3:9 
10 1:1 2:81 3:2974 
10 1:1 2:549 3:9 
10 3:3382 5:107 
10 1:1 2:125 3:504 
10 1:1 2:1188 3:48 4:1 5:9 
10 1:3 2:28 3:47 5:8 
10 1:1 2:444 3:3590 4:18 
10 1:1 2:549 3:1167 
10 1:1 2:549 3:1167 
10 1:1 2:549 3:11 4:1 
10 1:1 2:620 3:117 4:34 5:5 
10 1:1 2:620 3:117 4:34 5:5 
10 1:1 2:549 3:11 4:1 
10 1:1 2:620 3:117 4:34 5:5 
5.1127662588102405 1:1 2:131 3:1172 
10 1:1 2:444 3:37 4:15 
10 1:1 2:620 3:117 4:34 5:5 
10 1:1 2:3347 3:1 
10 1:1 2:1188 3:48 5:4 
10 1:3 2:166 3:117 4:8 5:16 
10 1:3 3:24 4:7 5:23 
10 1:1 2:221 3:12 4:5 
0.00023945941423773596 1:1 2:59 3:1335 5:398 
10 1:1 2:125 3:3382 
0.03909419836250938 1:1 2:1421 3:124 4:10 5:33 
10 1:1 2:1224 3:14 4:2 5:2 
1.6535743753876646 1:3 2:274 3:77 4:19 5:36 
10 1:1 2:1421 3:83 4:33 
10 1:3 2:1 3:20 5:2 
10 1:1 2:123 3:1167 4:8 
10 1:1 2:185 3:4035 4:4 5:1 
10 1:1 2:549 3:1167 
10 1:1 2:493 3:2974 5:1 
10 1:1 2:125 3:504 
10 1:1 2:493 3:2974 4:1 
10 1:1 2:125 3:504 
10 1:1 2:444 3:16 4:6 
10 1:1 2:3347 3:6 4:5 5:1 
1.2182809133553432 1:1 2:32 3:1335 
10 1:1 2:3347 3:32 4:1 5:2 
10 1:1 2:3347 3:11 5:8 
10 1:3 2:39 3:341 
10 1:3 2:39 3:170 
10 1:3 3:504 4:3 
10 1:3 3:432 4:7 
10 1:3 3:504 
10 1:3 3:432 
10 1:2 2:118 3:720 
10 1:3 3:9 5:1 
10 1:3 3:884 4:3 
10 1:3 2:2 3:495 5:5 
2.9202574471439231 1:3 2:7 3:46 
10 1:3 3:495 
10 1:3 2:39 3:241 5:2 
10 1:1 2:1188 3:3382 4:6 5:184 
10 1:3 2:5 3:236 
1.8516153995175961 1:2 2:3 3:11 4:10 5:8 
10 1:1 2:444 3:3590 4:3 5:9 
0.059671250622353456 1:1 2:59 3:1335 5:398 
10 1:1 2:3347 3:2 
10 1:3 3:11 4:1 
10 1:3 3:907 4:1 
10 1:3 3:25 
10 1:1 2:444 3:592 4:89 5:10 
10 1:3 3:324 5:28 
10 1:1 2:444 3:44 5:1 
10 1:1 2:444 3:44 4:10 
10 1:1 2:444 3:5 
10 1:2 2:222 3:135 4:124 5:3 
10 1:1 2:444 3:5 
10 1:3 2:53 3:104 
10 1:3 2:1 3:438 4:8 5:2 
10 1:3 2:42 3:907 4:1 
10 1:1 2:59 3:1335 
10 1:3 2:53 3:104 
0.0028407868540952109 1:2 2:868 3:30 5:1 
4.3137659521412299 1:2 2:85 3:105 4:36 5:14 
10 1:1 2:59 3:1335 
10 1:3 3:318 5:7 
10 1:2 2:222 3:391 
10 1:2 2:1688 3:13 
10 1:3 2:1673 3:1 
0.002364606527216334 1:3 2:155 3:115 
10 1:2 2:35 3:396 4:172 
10 1:2 2:6 3:14 4:5 5:5 
10 1:2 2:35 3:396 4:172 5:3 
0.1500103171402524 1:2 2:49 3:720 4:688 
10 1:3 3:9 5:1 
10 1:3 2:2 3:173 5:4 
10 1:3 2:1 3:15 4:15 5:14 
4.938554063339244 1:3 2:1 3:17 4:16 
10 1:3 2:225 3:552 
10 1:3 2:42 3:200 
10 1:1 2:444 3:3536 4:30 
10 1:3 2:1 3:17 4:16 
10 1:1 2:444 3:5 
10 1:3 2:5 3:391 
10 1:3 2:6 3:573 4:72 
10 1:1 2:1188 3:3382 4:6 5:22 
10 1:1 2:59 3:1335 5:11 
10 1:3 2:1 3:10 4:6 5:9 
10 1:2 2:3 3:11 4:10 5:8 
10 1:2 2:816 3:11 4:10 5:1 
10 1:3 2:11 3:61 4:1 5:1 
10 1:3 2:1659 3:1 4:1 5:1 
10 1:3 3:9 5:1 
10 1:2 2:85 3:438 4:34 5:3 
10 1:3 2:1673 3:1 
10 1:3 2:222 3:270 4:7 
10 1:2 2:3 3:11 4:10 5:8 
10 1:2 2:3 3:11 4:10 5:8 
10 1:3 2:53 3:104 4:52 5:10 
10 1:3 2:41 3:444 4:10 5:1 
10 1:2 2:1673 3:88 4:1 5:3 
10 1:3 2:6 3:573 4:39 
10 1:3 2:5 3:19 
1.8393226077863545 1:3 2:5 3:29 
10 1:1 2:1224 3:110 4:2 
10 1:1 2:1188 3:1 
10 1:1 2:485 3:2167 5:22 
10 1:2 2:13 3:2167 4:9 
10 1:1 2:3347 3:27 4:22 5:1 
10 1:3 2:2 3:66 4:3 
10 1:3 2:1 3:20 5:2 
10 1:1 2:444 3:3590 4:9 5:2 
10 1:1 2:3347 3:32 4:1 5:2 
10 1:3 2:2 3:13 5:1 
10 1:1 2:59 3:1335 
10 1:1 2:1224 3:12 4:2 5:2 
10 1:2 2:13 3:2167 4:9 5:11 
10 1:1 2:3347 3:27 4:22 5:1 
10 1:1 2:1224 3:12 4:2 5:2 
10 1:1 2:918 3:39 4:1 5:7 
10 1:1 2:1224 3:110 4:68 5:1 
10 1:1 2:918 3:39 4:2 5:7 
10 1:1 2:1224 3:110 4:4 5:7 
10 1:2 2:1673 3:88 4:3 5:1 
10 1:1 2:1224 3:110 4:68 5:14 
10 1:1 2:1224 3:13 4:1 5:2 
10 1:1 2:59 3:1335 
10 1:1 2:1224 3:52 4:7 5:27 
10 1:1 2:3347 3:34 5:1 
10 1:1 2:444 3:495 4:427 5:25 
10 1:1 2:3347 3:73 4:63 5:4 
10 1:1 2:485 3:899 5:291 
10 1:3 2:2 3:42 5:4 
10 1:1 2:1224 3:110 4:68 5:21 
10 1:1 2:1188 3:3382 4:1 5:10 
10 1:1 2:59 3:1335 5:8 
10 1:3 2:53 3:104 4:52 5:10 
10 1:1 2:1224 3:35 4:11 5:1 
1.4392286215999004 1:3 2:1 3:9 5:2 
10 1:3 2:108 3:202 4:3 
10 1:1 2:3347 3:11 4:1 5:1 
10 1:3 2:1673 3:1 
10 1:1 2:1224 3:110 4:1 5:1 
10 1:3 2:7 3:2167 4:10 
10 1:1 2:3347 3:4 4:2 5:1 
10 1:1 2:3347 3:12 4:6 5:5 
10 1:3 2:9 3:52 5:14 
10 1:1 2:1224 3:110 4:68 5:21 
10 1:2 2:1673 3:12 4:5 
10 1:3 2:9 3:52 5:14 
10 1:1 2:3347 3:34 5:10 
10 1:1 2:444 3:20 4:3 5:10 
10 1:1 2:3347 3:34 4:11 5:12 
10 1:3 2:9 3:52 5:14 
10 1:1 2:59 3:1335 
10 1:2 2:1673 3:12 4:1 5:1 
10 1:1 2:3347 3:3 4:1 
10 1:1 2:3347 3:34 5:10 
10 1:1 2:444 3:20 4:3 5:10 
10 1:1 2:3347 3:34 4:11 5:12 
10 1:3 2:9 3:52 5:14 
10 1:1 2:1188 3:3382 4:1 
10 1:1 2:3347 3:3 4:2 5:1 
10 1:1 2:1224 3:3 4:2 
10 1:1 2:620 3:4 4:1 5:1 
10 1:1 2:3347 3:73 4:1 5:1 
10 1:1 2:3347 3:3 
10 1:3 2:9 3:52 5:14 
10 1:3 3:82 5:2 
10 1:1 2:1224 3:3 4:1 5:1 
10 1:1 2:1188 3:3382 4:5 5:184 
10 1:1 2:444 3:20 4:3 5:10 
10 1:1 2:3347 3:34 4:11 5:12 
10 1:3 2:9 3:52 5:14 
10 1:1 2:3347 3:89 4:1 
10 1:2 2:1688 3:13 
10 1:3 2:317 3:189 
10 1:3 3:62 4:2 
10 1:3 2:43 3:87 
10 1:1 2:3347 3:2 4:1 5:1 
10 1:1 2:3347 3:73 4:3 5:1 
10 1:1 2:3347 3:73 4:63 5:4 
5.7095523339323542 1:3 2:2 3:324 
10 1:3 3:62 4:2 
10 1:3 2:9 3:52 5:14 
10 1:1 2:1224 3:110 4:68 5:1 
10 1:1 2:59 3:1335 
10 1:2 2:665 3:15 5:1 
1.2684638047285257 1:3 3:29 5:1 
10 1:1 2:1224 3:15 5:3 
10 1:1 2:620 3:117 4:34 5:1 
10 1:2 2:1696 3:1 
10 1:2 2:1164 3:5 4:1 5:2 
10 1:1 2:620 3:117 4:34 5:13 
10 1:3 2:2255 3:3 4:2 5:1 
10 1:1 2:493 3:208 4:141 
6.8312962620446767 3:495 4:427 
10 1:1 2:3347 3:14 4:1 5:1 
10 1:2 2:1673 3:88 4:1 5:37 
10 1:1 2:370 3:82 4:81 5:2 
10 1:2 2:222 3:223 
10 1:1 2:620 3:2 4:1 5:1 
10 1:1 2:1224 3:14 4:2 5:2 
5.1024854819880447 1:3 2:274 3:77 4:19 5:36 
10 1:1 2:1421 3:83 4:33 
10 1:3 2:17 3:513 
10 1:1 2:3347 3:4 4:1 5:1 
10 1:3 2:117 3:438 4:5 
10 1:3 2:1674 3:7 
10 1:1 2:3347 3:7 4:5 5:1 
0.63930500676968605 1:3 2:1 3:14 5:2 
10 1:1 2:620 3:9 4:4 5:1 
10 1:1 2:3347 3:11 4:1 5:1 
10 1:3 2:1 3:14 
10 1:1 2:620 3:9 4:4 5:1 
10 1:1 2:3347 3:18 
10 1:3 2:18 3:45 
10 1:1 2:3347 3:13 
10 1:1 2:620 3:1 5:1 
10 1:1 2:59 3:1335 
10 1:2 2:1688 3:13 
10 1:2 2:1688 3:13 
0.0022071000446016141 1:1 2:1188 3:1752 4:108 
10 1:2 2:721 3:2 5:1 
10 1:1 2:1421 3:2 
10 1:1 2:444 3:2 4:1 
10 1:1 2:3347 3:89 4:1 
10 1:2 2:1688 3:13 
10 1:3 2:53 3:104 
10 1:3 2:1 3:438 4:8 
10 1:3 2:42 3:907 4:1 
10 1:1 2:444 3:1315 5:38 
10 1:1 2:444 3:42 4:30 
10 1:1 2:1224 3:110 4:68 5:21 
10 1:1 2:549 3:1167 5:2 
10 1:3 2:36 3:97 
10 1:3 2:26 3:82 
10 1:1 2:620 3:117 4:34 5:1 
10 1:3 3:17 5:3 
10 1:1 2:125 3:504 
10 1:1 2:918 3:39 4:1 5:6 
10 1:1 2:1421 3:124 4:2 
10 1:3 2:20 3:1167 
10 1:3 2:20 3:1167 4:1 
10 1:3 2:53 3:104 5:10 
10 1:3 2:20 3:1167 
10 1:3 2:20 3:1167 
10 1:3 2:20 3:1167 5:11 
10 1:3 3:62 4:4 
10 1:3 2:20 3:1167 4:1 
10 1:1 2:918 3:39 5:6 
10 1:3 2:22 3:62 
10 1:3 2:20 3:1167 4:1 5:8 
10 1:3 2:2 3:13 5:1 
10 1:3 2:20 3:1167 
10 1:3 3:17 5:3 
10 1:3 2:41 3:444 4:5 
10 1:3 2:20 3:1167 
10 1:3 2:41 3:444 4:10 
10 1:3 2:41 3:444 4:5 
0.10010283827329267 1:1 2:59 3:1335 5:398 
10 1:2 2:1688 3:13 
10 1:3 2:2 3:29 4:29 
10 1:1 3:3590 
10 1:1 2:1188 3:579 5:6 
10 1:1 2:59 3:1335 
10 1:1 2:84 3:1335 
10 1:3 2:20 3:1167 
10 1:1 2:1224 3:18 4:2 5:7 
10 1:3 3:432 5:8 
10 1:3 2:176 3:117 
10 1:1 2:3347 3:5 5:2 
10 1:3 2:1673 3:1 
10 1:3 3:573 4:18 
10 1:3 3:12 4:1 
10 1:3 2:5 3:29 
10 1:3 3:573 
10 1:3 2:18 3:45 
10 1:1 2:3347 3:73 4:2 
10 1:1 2:1224 3:52 4:7 5:1 
10 1:3 2:58 3:504 
10 1:3 2:1673 3:1 
10 1:2 2:13 3:2167 4:9 5:17 
10 1:1 2:3347 3:27 4:22 5:3 
10 1:1 2:1421 3:124 4:20 5:6 
10 1:1 2:3347 3:13 4:1 5:2 
10 1:1 2:444 3:2167 4:3 5:47 
10 1:1 2:3347 3:4 4:1 5:1 
10 1:3 2:58 3:504 
10 1:1 2:3347 3:12 4:9 5:1 
10 1:3 2:1673 3:1 
10 1:3 2:6 3:573 4:18 
10 1:2 2:1164 3:107 4:54 5:60 
10 1:1 2:1188 3:3382 4:10 
10 1:1 2:1188 3:3382 4:1 
10 1:1 2:59 3:1335 
10 1:3 2:6 3:573 
10 1:1 2:3347 3:2 5:1 
10 1:1 2:444 3:273 4:4 5:7 
10 1:1 2:3347 3:3 4:3 5:1 
10 1:3 2:2255 3:3 4:1 5:1 
10 1:1 2:493 3:323 4:20 5:47 
10 1:1 2:485 3:2167 4:6 5:4 
10 1:3 2:6 3:91 4:6 5:1 
10 1:1 2:549 3:4 
10 1:1 2:1224 3:52 4:7 5:1 
10 1:1 2:1224 3:13 4:4 5:4 
10 1:3 2:5 3:236 
10 1:1 2:444 3:1752 4:125 
10 1:1 2:3347 3:12 4:7 5:1 
10 1:1 2:131 3:1172 4:24 
10 1:1 2:52 3:3382 
10 1:1 2:493 3:208 4:141 5:2 
10 1:1 2:186 3:73 4:63 5:4 
10 1:3 2:6 3:573 
10 1:1 2:1188 3:3382 4:1 
10 1:1 2:59 3:1335 
10 1:1 2:1421 3:6 
10 1:1 2:493 3:299 5:10 
10 3:3382 4:23 5:1 
10 1:1 2:70 3:3382 4:3 5:21 
10 1:1 2:493 3:208 4:141 5:4 
10 1:1 2:125 3:504 
10 1:1 2:549 3:52 4:7 
10 1:3 2:5 3:236 
10 1:1 2:123 3:1167 5:12 
10 1:1 2:485 3:495 5:1 
10 1:1 2:3347 3:11 4:1 5:4 
10 1:1 2:123 3:552 4:1 
10 1:1 2:120 3:3382 4:17 
10 1:1 2:493 3:2974 4:131 
10 1:3 2:242 3:438 
10 1:1 2:52 3:3382 4:3 5:1015 
10 1:1 2:221 3:12 4:5 
10 1:1 2:1224 3:110 4:68 5:21 
10 1:1 2:81 3:2974 4:59 
0.46622859172355396 1:1 2:131 3:3382 
10 1:1 2:549 3:9 
10 1:1 2:3347 3:14 4:5 5:1 
10 1:1 2:34 3:513 4:156 5:1 
8.6216136594426764 1:1 2:32 3:1335 
10 1:3 2:39 3:62 4:2 5:13 
0.24946401491195261 1:3 3:13 5:5 
10 1:1 2:1224 3:110 4:68 5:21 
10 1:1 2:123 3:1167 4:2 
10 1:1 2:493 3:208 4:141 
10 1:1 2:493 3:2974 5:1 
10 1:1 2:125 3:504 
10 1:1 2:493 3:2974 4:1 5:3 
10 1:1 2:125 3:504 
10 1:3 2:5 3:236 4:42 
10 1:1 2:1188 3:3382 4:1 
10 1:1 2:3347 3:5 4:1 5:1 
10 1:1 2:493 3:44 4:1 5:5 
10 1:1 2:43 3:2167 5:1 
10 1:1 2:123 3:552 4:1 
10 1:1 2:549 3:1167 
10 1:3 3:391 4:19 
10 1:1 2:1188 3:3382 4:5 
10 1:1 2:59 3:1335 
10 1:1 2:81 3:2974 
10 1:1 2:549 3:9 
10 1:1 2:3347 3:3 5:1 
10 1:3 2:1673 3:1 
10 1:1 2:620 3:117 4:34 5:1 
10 1:3 2:53 3:104 5:6 
10 3:233 4:84 5:187 
10 1:1 2:123 3:1167 4:3 
10 1:1 2:125 3:3382 4:5 
10 1:1 2:620 3:6 4:2 5:2 
10 1:1 2:3347 3:33 4:2 
9.539609924530426 1:1 2:444 3:107 5:4 
10 1:1 2:3347 3:7 4:4 5:1 
10 1:1 2:43 3:2167 5:1 
10 1:1 2:549 3:9 
10 1:2 2:1675 3:1 
10 1:1 2:3347 3:7 4:7 5:2 
10 1:1 2:549 3:116 4:1 5:7 
10 1:1 2:59 3:1335 4:2 5:11 
10 1:1 2:1224 3:14 4:1 5:3 
10 3:3536 4:13 5:17 
1.1308640195434512 1:3 2:27 3:117 4:1 
10 1:1 2:620 3:6 4:4 
10 1:1 2:1188 3:44 4:10 5:1 
10 1:1 2:3347 3:24 4:16 5:1 
0.67847820978925133 1:3 2:2 3:15 5:7 
10 1:1 2:549 3:5 
10 1:3 2:58 3:504 
10 1:1 2:3347 3:12 4:9 
10 1:3 2:1673 3:1 
10 1:3 2:23 3:170 5:6 
10 1:1 2:52 3:3382 4:17 5:184 
10 1:1 2:1188 3:44 5:2 
10 1:3 2:15 3:341 4:7 
10 1:1 2:108 3:3590 4:1 
10 1:1 2:549 3:9 
10 1:1 2:59 3:1335 
10 1:3 2:53 3:104 
10 1:1 2:125 3:504 
10 1:1 2:70 3:3382 4:28 5:1 
10 1:1 2:123 3:552 4:1 
10 1:1 2:123 3:1167 4:2 
10 1:1 2:219 3:1315 5:50 
10 1:1 2:1224 3:110 4:68 5:21 
10 1:1 2:549 3:10 4:2 
10 1:1 2:125 3:504 
10 1:1 2:131 3:3382 
10 1:1 2:549 3:9 4:2 
10 1:1 2:1224 3:110 4:68 5:14 
10 3:3382 4:2 5:10 
10 1:1 2:52 3:3382 5:1015 
10 1:1 2:125 3:504 
10 1:3 3:2167 4:6 
10 1:3 2:1 3:14 
10 1:1 2:232 3:26 
10 1:3 2:1 3:14 
10 1:1 2:81 3:2974 4:71 
10 1:1 2:131 3:3382 4:34 5:1 
10 1:1 2:549 3:9 
10 1:1 2:3347 3:5 4:1 5:1 
10 1:1 2:32 3:1335 
10 1:1 2:123 3:1167 
10 1:1 2:123 3:552 4:1 
10 1:1 2:131 3:1172 4:24 
10 1:1 2:70 3:3382 4:3 5:1015 
10 1:1 2:1188 3:3382 4:1 
10 1:1 2:59 3:1335 
0.00053472786853353408 1:1 2:1188 3:1752 4:108 5:202 
10 1:1 2:3347 3:2 4:1 5:1 
10 1:3 2:15 3:70 
10 1:1 2:485 3:396 4:27 
10 1:3 2:15 3:341 
10 1:1 2:444 3:15 
10 1:1 2:3347 3:2 4:1 5:1 
10 1:3 2:1 3:2167 4:2 5:2 
10 1:3 3:14 5:3 
10 1:3 2:15 3:341 
10 1:3 2:15 3:341 
10 1:3 2:15 3:341 
10 1:3 2:15 3:341 
10 1:3 2:15 3:341 4:1 
10 1:3 2:11 3:50 
10 1:3 2:7 3:36 
0.1611322104160538 1:1 2:131 3:3382 
10 1:1 2:549 3:9 
10 1:1 2:3347 3:8 4:1 5:1 
10 1:3 2:2 3:25 
10 1:3 2:1 3:14 
10 1:1 2:123 3:552 4:1 
10 1:1 2:120 3:3382 4:17 
0.031518514770641153 1:1 2:123 3:552 
10 1:1 2:549 3:386 4:1 
10 1:1 2:3347 3:8 4:1 5:1 
1.9725860963206923 1:1 2:32 3:1335 
5.5705942602245724 1:3 2:11 3:50 5:3 
10 1:1 2:125 3:504 
10 1:1 2:60 3:67 4:59 5:20 
10 1:3 2:17 3:66 
10 1:3 2:15 3:341 
10 1:3 2:15 3:341 
10 1:1 2:123 3:1167 4:2 5:26 
10 1:3 3:34 5:1 
10 1:3 2:7 3:36 
10 1:3 3:33 5:7 
7.7391711710277811 1:3 3:98 4:3 5:12 
10 1:1 2:549 3:592 4:9 5:64 
10 1:1 2:81 3:2974 4:59 
10 1:1 2:549 3:9 
10 1:1 2:493 3:4 
10 1:2 2:1673 3:88 4:1 5:37 
10 1:3 2:7 3:36 
10 1:3 2:11 3:50 
10 1:1 2:1224 3:52 4:7 5:27 
10 1:3 2:1 3:2167 4:2 
10 1:3 3:170 4:10 
1.1641394711049411 1:3 2:5 3:25 
10 1:1 2:485 3:15 
10 1:3 2:2 3:25 
10 1:3 2:1 3:14 
10 1:1 2:549 3:95 5:20 
10 3:3382 4:36 5:7 
10 1:1 2:493 3:2974 5:72 
10 1:1 2:125 3:504 
10 1:1 2:123 3:1167 
10 1:1 2:3347 3:8 4:1 5:1 
10 1:1 2:3347 3:8 4:1 5:1 
10 1:1 2:3347 3:8 4:1 5:1 
10 1:1 2:3347 3:8 4:1 5:1 
10 1:1 2:1224 3:2 
10 1:1 2:3347 3:8 5:1 
10 1:1 2:3347 3:8 4:1 5:1 
10 1:1 2:3347 3:8 4:1 5:1 
10 1:1 2:81 3:2974 4:139 
10 1:1 2:549 3:9 
10 1:1 2:125 3:504 
10 1:1 2:120 3:3382 
10 1:1 2:549 3:386 
10 1:1 2:493 3:2974 5:2 
10 1:1 2:52 3:3382 4:2 5:24 
10 1:1 2:444 3:592 4:89 
10 1:1 2:1224 3:110 4:3 5:2 
10 1:1 2:221 3:116 4:107 5:5 
10 1:1 2:3347 3:4 4:4 5:1 
10 1:3 2:1 3:14 
10 1:1 2:123 3:552 
10 1:1 2:549 3:386 4:1 
10 1:1 2:123 3:1167 4:2 5:2 
10 1:1 2:125 3:3382 4:12 
7.6820034068723029 1:1 2:32 3:1335 
10 1:1 3:3590 
10 1:1 2:549 3:9 
10 1:1 2:3347 3:2 4:1 
10 1:3 2:10 3:58 
0.16234768234577002 1:1 2:59 3:1335 5:398 
10 1:3 2:10 3:58 
0.076453635458164998 1:3 2:86 3:70 5:15 
10 1:1 2:493 3:11 
7.8343682242194932 1:1 2:32 3:1335 
4.3681271057039046 1:1 2:32 3:1335 
10 1:1 2:52 3:3382 5:184 
10 1:3 2:222 3:236 
10 1:3 2:2 3:13 5:2 
10 1:1 2:1224 3:110 4:68 5:14 
10 1:3 2:53 3:104 5:6 
10 3:233 4:84 5:187 
10 1:1 2:123 3:552 4:1 
10 1:1 2:120 3:3382 4:17 
10 1:1 2:549 3:495 4:427 5:18 
10 1:1 2:3347 3:3 4:1 5:1 
10 1:1 2:81 3:2974 
1.8867139486380922 1:1 2:131 3:3382 
10 1:1 2:549 3:9 
10 1:1 2:444 3:22 
10 1:1 2:62 3:552 5:117 
10 1:3 2:4 3:20 4:1 
10 1:1 2:123 3:1167 4:2 5:139 
10 1:1 2:1188 3:308 4:1 5:122 
10 1:1 2:123 3:1167 4:4 
10 1:1 2:549 3:9 
10 1:3 2:5 3:236 
10 1:3 2:42 3:113 
10 1:1 3:184 4:76 5:95 
10 1:1 2:123 3:1167 
10 1:1 2:131 3:1172 4:202 5:2 
10 1:1 2:549 3:115 
10 1:1 2:123 3:552 4:1 
10 1:1 2:120 3:3382 4:17 
10 1:1 2:59 3:1335 5:25 
10 1:1 2:3347 3:2 
10 1:1 2:1188 3:3382 4:1 5:1015 
9.7116206242839223 1:1 2:59 3:1335 5:398 
10 1:2 2:1673 3:88 4:1 5:37 
10 1:1 2:70 3:3382 4:1 5:41 
5.1229597058986851 1:1 2:123 3:552 
10 1:1 2:120 3:3382 
10 1:3 2:5 3:391 
10 1:3 2:2 3:32 
10 1:1 2:549 3:9 
10 1:1 2:549 3:592 5:2 
10 1:1 2:221 3:67 4:59 5:3 
10 1:1 2:549 3:5 
10 1:1 2:125 3:3382 
10 1:1 2:549 3:52 
0.0034311550904930492 1:1 2:1188 3:1752 5:202 
0.0003510402472310587 1:1 2:1188 3:1752 4:108 
10 1:1 2:3347 3:6 4:3 
10 1:1 2:444 3:3590 
10 1:1 2:3347 3:32 
10 1:1 2:131 3:3382 
10 1:1 2:549 3:9 
10 1:1 2:549 3:4 
10 1:1 2:125 3:504 
10 1:1 2:125 3:504 
10 1:3 2:40 3:341 
10 1:3 2:27 3:117 
10 1:3 2:225 3:552 
10 1:3 2:42 3:200 
10 1:1 2:549 3:3 
10 1:1 2:444 3:22 
10 1:1 2:3347 3:94 
10 1:1 2:1224 3:63 4:14 
10 1:1 2:59 3:1335 4:12 5:92 
10 1:1 2:485 3:341 5:61 
10 1:3 2:53 3:104 
10 1:3 2:1 3:438 4:8 
10 1:3 2:42 3:907 4:1 
10 1:1 2:549 3:7 5:4 
10 1:1 2:120 3:3382 4:17 
10 1:1 2:59 3:1335 5:25 
10 1:1 2:3347 3:53 4:13 
10 1:1 2:549 3:592 5:58 
10 1:3 2:17 3:513 5:1 
10 1:1 2:3347 3:4 4:2 5:1 
10 1:1 2:549 3:592 5:58 
10 1:1 2:493 3:323 4:20 5:9 
0.15288866744684854 1:3 2:1 3:30 5:1 
10 1:1 2:81 3:2974 
10 1:1 2:108 3:3590 4:2 5:2 
10 1:1 2:549 3:9 
10 1:1 2:3347 3:40 4:2 5:2 
10 1:1 2:123 3:1167 4:3 
3.5749378789010744 1:1 2:123 3:552 
10 1:1 2:549 3:386 
10 1:1 2:123 3:1167 4:2 
10 1:1 2:549 3:1167 
10 1:1 2:186 3:73 4:63 5:4 
10 1:3 2:42 3:113 
10 1:1 2:444 3:3590 5:1 
10 1:1 2:3347 3:4 4:1 5:1 
10 1:1 2:444 3:173 4:38 5:12 
10 1:1 2:549 3:386 4:4 
10 1:3 3:438 4:11 
10 1:1 2:493 3:2974 4:1 
10 1:1 2:52 3:3382 4:17 5:1 
10 1:3 2:42 3:113 
10 1:1 2:3347 3:6 4:2 5:1 
10 1:1 2:444 3:173 4:38 5:19 
10 1:1 2:3347 3:21 4:7 5:1 
10 1:1 2:81 3:2974 4:59 
8.1823952653206291 1:1 2:131 3:3382 
10 1:1 2:549 3:9 
10 1:1 2:493 3:323 4:20 5:9 
10 1:1 2:123 3:552 4:1 
10 1:1 2:123 3:1167 4:2 
10 1:1 2:32 3:1335 
10 1:3 2:58 3:504 
10 1:3 2:1673 3:1 
10 1:1 2:3347 3:21 4:7 5:1 
10 1:3 2:1673 3:1 
10 1:1 2:549 3:6 5:6 
10 1:1 2:81 3:2974 4:13 
10 1:1 2:549 3:9 
10 1:1 2:485 3:3536 4:1 
10 1:3 2:20 3:1167 5:11 
10 1:1 2:1224 3:110 4:68 5:3 
10 1:3 2:5 3:236 4:3 
10 1:1 2:485 3:4035 4:2 5:3 
10 1:3 2:17 3:513 4:2 
10 1:1 2:3347 3:4 4:1 5:1 
10 1:1 2:125 3:504 
10 1:1 2:549 3:52 
10 1:1 2:70 3:3382 4:1 
10 1:1 2:1 3:899 
10 1:1 2:123 3:1167 5:32 
10 1:1 2:81 3:2974 4:71 
10 1:1 2:549 3:9 
10 1:1 2:549 3:4 
10 1:3 2:5 3:391 
10 1:3 2:5 3:391 
10 1:3 2:5 3:391 
10 1:3 2:5 3:391 
10 1:1 2:3347 3:21 4:1 5:3 
10 1:3 2:5 3:323 5:9 
10 1:3 2:5 3:391 
10 1:1 2:3347 3:40 5:1 
10 1:1 2:52 3:3382 4:17 5:1015 
10 1:1 2:1224 3:35 4:4 5:1 
10 1:3 2:108 3:202 4:6 
10 1:1 2:1224 3:110 4:68 
10 1:3 2:5 3:391 
10 1:1 2:444 3:592 
10 1:1 2:3347 3:7 4:1 5:1 
10 1:1 2:43 3:2167 5:1 
10 1:3 2:28 3:170 5:1 
10 1:3 2:5 3:391 
10 1:1 2:70 3:3382 4:28 
10 1:3 3:28 
1.4956470198099374 1:1 2:444 3:323 5:9 
10 1:1 2:493 3:4 
10 1:3 2:5 3:391 
10 1:1 2:131 3:3382 
10 1:1 2:549 3:9 
10 1:1 2:444 3:323 4:85 5:1 
10 1:1 2:3347 3:40 4:9 5:1 
10 1:1 2:120 3:3382 4:17 
10 1:1 2:123 3:1167 4:2 
10 3:3382 4:19 5:184 
10 1:3 3:9 5:1 
10 3:3382 4:7 5:10 
10 1:3 2:5 3:391 4:1 
10 1:1 2:70 3:3382 4:3 5:184 
10 1:1 2:3347 3:9 
10 1:3 2:9 3:341 
10 1:3 2:5 3:391 4:1 
10 1:1 2:493 3:396 4:172 5:11 
10 1:3 2:2255 3:3 5:1 
10 1:3 2:5 3:391 4:10 
10 1:1 2:120 3:3382 
10 1:1 2:444 3:513 4:1 
10 1:1 2:3347 3:21 4:1 5:1 
10 1:1 2:131 3:3382 5:2 
10 1:1 2:549 3:9 
10 1:3 2:5 3:391 4:10 
10 1:1 2:125 3:504 
10 1:1 2:125 3:504 
10 1:1 2:125 3:504 
10 1:1 2:125 3:504 
10 1:1 2:162 3:1752 4:7 
10 1:3 2:5 3:391 4:78 
0.46575996426660521 1:3 2:15 3:67 
10 3:3382 4:29 5:47 
10 1:1 2:120 3:3382 
10 1:1 2:549 3:386 4:1 
0.21421564476678503 1:3 3:41 5:15 
10 1:3 2:40 3:341 
10 1:3 2:27 3:117 
10 1:1 2:123 3:552 4:1 
10 1:1 2:120 3:3382 4:17 
10 1:1 2:52 3:1335 
10 1:1 2:1224 3:110 4:68 
10 1:3 2:5 3:391 
10 1:3 2:5 3:391 
10 1:1 2:549 3:5 
10 1:1 2:549 3:5 
10 1:3 2:5 3:391 4:1 
10 1:1 2:549 3:592 4:9 5:28 
10 1:1 2:1188 3:3382 4:1 
10 1:1 2:59 3:1335 
10 1:1 2:1224 3:110 4:1 5:21 
10 1:1 2:549 3:592 5:9 
10 1:3 2:16 3:28 4:2 5:17 
10 1:1 2:549 3:592 4:9 5:14 
4.8320269609863917 1:1 2:1224 3:110 4:68 5:2 
10 1:1 2:131 3:1172 4:202 
10 1:1 2:123 3:552 4:1 
10 1:1 2:3347 3:21 4:7 5:1 
10 1:1 2:3347 3:7 4:1 5:1 
10 1:2 2:1164 3:21 4:15 
10 3:3382 4:19 5:1 
10 1:1 2:32 3:1335 
10 1:1 2:493 3:299 4:12 5:12 
10 1:1 2:125 3:504 
10 1:1 2:444 3:30 5:3 
8.6303796872891443 1:3 3:18 4:2 
10 1:3 2:15 3:67 
10 1:1 2:81 3:2974 4:18 
10 1:1 2:549 3:9 
10 1:1 2:3347 3:21 4:7 5:1 
10 1:1 2:493 3:12 5:5 
10 1:1 2:43 3:2167 5:3 
10 1:1 2:32 3:1335 
10 1:1 2:123 3:552 4:2 
10 1:1 2:549 3:386 4:5 
10 1:1 2:123 3:1167 
10 1:3 2:5 3:391 4:10 
0.43298424079376741 1:3 2:3 3:15 
10 1:1 2:123 3:552 4:1 
10 1:1 2:549 3:386 4:4 
10 1:1 2:493 3:2974 4:131 
10 1:1 2:125 3:504 
10 1:1 2:131 3:1172 4:202 
10 1:1 2:108 3:3590 4:1 
10 1:1 2:549 3:9 
10 1:1 2:52 3:3382 
10 1:1 2:549 3:1167 
10 1:3 2:2 3:9 5:2 
10 1:1 2:32 3:1335 
10 1:1 2:123 3:552 4:1 
10 1:3 2:5 3:391 
10 1:1 2:549 3:1167 5:2 
10 1:1 2:493 3:2974 4:2 
10 1:1 2:125 3:504 
10 1:1 2:123 3:552 4:1 
10 1:1 2:125 3:3382 
10 1:1 2:70 3:3382 4:3 5:1015 
1.5120509317794817 1:3 2:53 3:104 4:52 
10 1:1 2:52 3:3382 5:3 
10 1:1 2:549 3:386 
10 1:3 2:1673 3:1 
10 1:2 2:1164 3:4 4:1 
10 1:1 2:59 3:1335 
10 1:3 2:1 3:30 5:1 
10 1:3 2:53 3:104 4:52 
10 1:1 2:125 3:504 
10 1:3 2:2 3:13 5:3 
10 1:3 2:5 3:391 
10 1:1 2:44 3:4035 5:5 
10 1:3 2:42 3:113 
10 1:1 2:123 3:1167 4:3 
10 1:1 2:131 3:1172 
10 3:3382 4:17 5:7 
10 1:3 2:7 3:36 
10 1:3 2:39 3:104 5:1 
10 1:3 2:3 3:12 5:1 
10 1:1 2:131 3:3382 
10 1:1 2:549 3:9 
10 1:1 2:81 3:2974 
10 1:1 2:131 3:3382 
10 1:1 2:549 3:9 
10 1:1 2:123 3:552 4:1 
10 1:1 2:120 3:3382 4:17 
10 1:1 2:123 3:1167 4:2 5:1 
10 1:1 2:123 3:1167 4:3 
10 1:1 2:120 3:3382 4:2 
10 1:1 2:32 3:1335 4:64 
10 1:1 2:125 3:504 
10 1:3 2:246 3:504 
10 1:3 2:28 3:61 
10 1:1 2:444 3:16 4:6 
10 1:1 2:3347 3:6 4:5 5:1 
8.4248301354138668 1:1 2:59 3:1335 5:398 
10 1:1 2:12 3:1315 4:1 5:11 
10 1:1 2:123 3:1167 
10 1:1 2:123 3:552 4:2 
10 1:1 2:125 3:504 
10 1:1 2:123 3:1167 4:2 
10 1:1 2:123 3:1167 
10 1:1 2:549 3:189 
10 1:3 2:36 3:196 
10 1:3 3:18 4:2 
10 1:3 2:15 3:67 
9.673825093866963 1:1 2:131 3:1172 
10 1:3 2:176 3:117 
10 1:1 2:3347 3:17 4:4 5:1 
10 1:1 2:123 3:552 4:1 
10 1:1 2:219 3:1315 
10 1:1 2:70 3:3382 4:28 5:1 
10 1:1 2:549 3:1167 4:3 
10 1:1 2:493 3:2974 4:1 
10 1:1 2:125 3:504 
10 1:1 2:123 3:1167 
10 1:1 2:125 3:3382 
10 1:1 2:125 3:504 
10 1:1 2:131 3:3382 
10 1:1 2:549 3:9 
10 1:1 2:1224 3:6 4:1 
10 1:1 2:59 3:1335 5:398 
10 1:1 2:444 3:4035 4:10 5:85 
10 1:1 2:3347 3:13 4:1 5:3 
10 1:1 2:918 3:39 4:1 5:7 
10 1:1 2:123 3:552 4:1 
10 1:1 2:125 3:504 
10 1:3 2:225 3:552 
10 1:3 2:9 3:104 5:6 
10 1:3 2:42 3:200 
10 1:1 2:444 3:3536 4:21 5:11 
10 1:1 2:3347 3:52 4:2 5:2 
10 1:1 2:549 3:386 
10 1:1 2:1188 3:3382 4:5 5:107 
10 1:1 2:59 3:1335 5:28 
10 1:1 2:32 3:1335 
10 1:3 2:102 3:322 5:19 
10 1:1 2:81 3:2974 4:85 
10 1:1 2:549 3:9 
10 1:1 2:32 3:1335 
10 1:1 2:59 3:1335 5:398 
10 1:1 2:123 3:1167 
10 1:1 2:125 3:3382 
10 1:1 2:485 3:11 4:9 
10 1:3 3:42 
10 1:1 2:1224 3:35 5:5 
10 1:1 2:125 3:504 
10 1:1 2:549 3:1167 
10 1:1 2:59 3:1335 
10 1:1 2:35 3:552 
10 1:1 2:70 3:3382 4:3 5:7 
10 1:1 2:123 3:552 4:1 
10 1:1 2:120 3:3382 4:17 
10 1:1 2:549 3:3 
10 1:3 3:28 5:4 
10 1:3 3:28 
10 1:1 2:444 3:3590 5:4 
10 1:1 2:35 3:552 
10 1:3 2:53 3:104 5:10 
10 1:1 2:123 3:1167 4:1 5:7 
10 1:1 2:549 3:1167 
10 1:1 2:32 3:1335 
10 1:1 2:549 3:1167 
10 1:1 2:81 3:2974 
10 1:1 2:131 3:3382 
10 1:1 2:549 3:9 
10 1:1 2:549 3:9 
10 1:1 2:123 3:1167 4:1 
10 1:1 2:125 3:3382 4:8 
10 1:1 2:59 3:1335 4:3 5:398 
10 1:3 3:11 4:1 
9.4258926959246665 3:495 4:427 
1.0303623366643322 1:3 2:274 3:77 4:19 5:36 
10 1:1 2:70 3:3382 4:4 
10 1:3 3:90 
8.6114037294471117 1:3 2:3 3:52 5:2 
0.022558395132333434 1:1 2:226 3:616 4:35 
10 1:3 2:25 3:94 
10 1:1 2:174 3:4 5:1 
10 1:1 2:174 3:4 5:1 
10 1:1 2:444 3:5 
10 1:1 2:3347 3:32 
10 1:3 2:1673 3:1 
10 1:2 2:2384 3:14 4:1 5:1 
0.024472155825587892 1:3 2:5 3:23 4:4 
10 1:3 2:1673 3:1 
10 1:3 2:25 3:94 
10 1:1 2:1421 3:36 4:2 5:7 
10 1:3 2:56 3:117 5:2 
10 1:3 2:1 3:36 5:7 
10 1:3 2:25 3:94 
10 1:1 2:3347 3:31 4:8 5:2 
10 1:3 2:39 3:241 5:2 
10 1:2 2:932 3:16 4:3 
10 1:2 2:2384 3:8 4:3 5:3 
10 1:1 2:444 3:22 
10 1:2 2:1674 3:2 
10 1:2 2:1674 3:2 
10 1:3 2:1673 3:1 
10 1:1 2:3347 3:1 4:1 
10 1:3 2:1673 3:1 
10 1:1 2:1188 3:2 5:1 
10 1:1 2:59 3:1335 
10 1:2 2:1673 3:12 4:3 
10 1:1 2:3347 3:34 5:10 
10 1:1 2:444 3:20 4:3 5:10 
10 1:1 2:3347 3:34 4:11 5:12 
10 1:3 2:9 3:52 5:14 
10 1:1 2:444 3:592 
10 1:1 2:3347 3:53 
10 1:3 2:1673 3:1 
10 1:1 2:444 3:592 4:3 5:1 
10 1:1 2:81 3:2974 4:19 
10 1:1 2:131 3:3382 5:1 
10 1:1 2:549 3:9 
10 1:1 2:549 3:386 4:1 
10 1:1 2:123 3:1167 4:8 5:13 
10 1:1 2:123 3:1167 
10 1:1 2:123 3:1167 4:2 
10 1:1 2:444 3:592 
10 1:2 2:1688 3:13 
10 1:1 2:444 3:44 
10 1:1 2:3347 3:6 4:3 5:1 
10 1:1 2:1188 3:48 5:9 
10 1:3 2:46 3:170 
10 1:3 3:341 5:1 
10 1:3 3:170 
10 1:1 2:59 3:1335 
10 1:3 2:1674 3:7 
10 1:1 2:444 3:27 4:17 
10 1:1 2:1188 3:48 5:9 
10 1:1 2:59 3:1335 
10 1:3 2:1674 3:7 
2.033886437202197 1:1 2:444 3:27 4:17 
10 1:1 2:1188 3:48 5:4 
10 1:1 2:123 3:504 4:1 
10 3:3382 4:38 5:25 
10 1:1 2:59 3:1335 
10 1:3 2:1674 3:7 
10 1:1 2:211 3:3 4:1 5:1 
10 1:1 2:123 3:1167 4:2 
10 1:1 2:123 3:1167 4:2 
10 1:1 2:123 3:1167 
10 1:1 2:81 3:2974 4:19 
10 1:1 2:549 3:9 
10 1:1 2:549 3:5 
10 1:1 2:549 3:386 4:1 
10 1:1 2:70 3:3382 4:51 
10 1:1 2:20 3:1315 4:2 
10 3:3536 4:8 5:142 
10 1:1 2:59 3:1335 
10 1:1 2:1188 3:3382 4:6 
10 1:1 2:59 3:1335 
9.1144121679280268 1:3 2:9 3:52 4:1 
10 1:1 2:444 3:60 5:20 
10 1:1 2:3347 3:11 4:1 5:4 
10 1:1 2:34 3:8 4:8 5:8 
10 1:3 2:9 3:52 4:1 
10 1:1 2:444 3:20 4:3 5:10 
10 1:1 2:3347 3:34 4:11 5:12 
10 1:3 2:9 3:52 5:14 
4.9492580287715775 1:1 2:493 3:60 
10 1:1 2:123 3:1167 4:2 
10 1:1 2:123 3:1167 
10 1:2 2:868 3:24 5:7 
10 1:1 2:123 3:1167 4:8 
10 1:1 2:549 3:3 
10 1:1 2:3347 3:13 
10 1:1 2:32 3:1335 
3.2107207030213547 1:1 2:32 3:1335 
10 1:1 2:125 3:504 
10 1:1 2:70 3:3382 4:3 
10 1:1 2:549 3:1167 
10 1:1 2:549 3:1167 5:2 
10 1:1 2:81 3:2974 4:18 
10 1:1 2:131 3:3382 
10 1:1 2:549 3:9 
10 1:1 2:549 3:1167 5:2 
10 1:1 2:3347 3:11 5:1 
10 1:1 2:1421 3:10 4:1 5:6 
10 1:3 2:39 3:341 
10 1:3 2:39 3:170 
10 1:3 3:504 4:3 
10 1:3 3:432 4:7 
10 1:2 2:118 3:720 
10 1:3 2:1 3:30 5:1 
10 1:3 2:29 3:104 5:1 
10 1:3 2:7 3:46 
10 1:1 2:444 3:22 
10 1:3 2:1673 3:1 
10 1:3 3:495 
10 1:3 2:39 3:241 5:2 
10 1:3 2:5 3:236 4:42 
10 1:1 2:444 3:5 
0.010313457255214617 1:3 2:124 3:98 
10 1:3 2:19 3:107 
10 1:1 2:59 3:1335 
10 1:3 2:1673 3:1 
10 1:3 2:42 3:438 4:5 
10 1:3 3:184 4:76 5:95 
10 1:2 2:34 3:592 4:298 
10 1:3 2:5 3:236 
10 1:1 2:3347 3:2 
10 1:1 2:444 3:31 5:1 
10 1:3 2:53 3:104 
10 1:3 2:1 3:438 4:8 5:3 
10 1:3 2:42 3:907 4:1 
0.54303819982568768 1:1 2:444 3:323 4:119 5:1 
10 1:1 2:34 3:592 4:298 
10 1:1 2:444 3:592 4:13 
10 1:3 2:41 3:1167 4:1 5:95 
10 1:1 2:59 3:1335 
10 1:3 2:2 3:318 
0.0050107668413221515 1:1 2:444 3:513 4:1 5:2 
10 1:3 2:17 3:66 
10 1:3 2:53 3:104 
10 1:3 2:1 3:438 4:8 5:3 
10 1:3 2:42 3:907 4:1 
8.4367369840499151 1:3 3:27 5:3 
10 1:2 2:13 3:2167 4:9 5:312 
10 1:1 2:60 3:67 4:59 5:20 
10 1:1 2:59 3:1335 5:23 
10 1:1 2:444 3:44 4:10 
10 1:3 3:27 5:3 
10 1:1 2:444 3:5 
10 1:1 2:444 3:5 
10 1:1 2:444 3:495 4:427 5:25 
10 1:1 2:444 3:5 
10 1:3 2:1673 3:1 
10 1:1 2:444 3:5 
10 1:3 2:1673 3:1 
10 1:1 2:59 3:1335 5:398 
10 1:3 2:1673 3:1 
10 1:3 2:53 3:104 
10 1:3 2:1 3:438 4:8 5:10 
10 1:3 2:42 3:907 4:1 5:6 
10 1:3 2:2 3:13 5:1 
10 1:3 2:2 3:318 4:2 
10 1:3 2:1 3:30 5:1 
10 1:1 2:59 3:1335 
10 1:3 2:2 3:318 
10 1:3 2:1673 3:1 
10 1:3 2:17 3:66 
10 1:3 2:5 3:236 4:42 
10 1:2 2:35 3:396 4:172 
10 1:1 2:59 3:1335 
10 1:3 2:5 3:236 4:21 
10 1:2 2:4 3:9 4:9 5:7 
10 1:3 2:53 3:104 4:52 5:10 
10 1:3 3:21 5:4 
10 1:3 3:504 4:3 
10 1:3 3:432 4:7 
10 1:3 2:20 3:504 
10 1:3 2:1673 3:1 
8.6489077748070695 1:2 2:49 3:720 4:688 
10 1:3 2:1 3:71 5:5 
10 1:2 2:1675 3:1 
10 1:2 2:222 3:616 4:33 5:30 
10 1:3 2:58 3:504 
10 1:3 2:1673 3:1 
10 1:2 2:13 3:2167 4:9 
10 1:3 2:4 3:26 4:4 
10 1:1 2:444 3:513 4:23 
10 1:3 2:17 3:66 
10 1:3 3:720 4:4 5:1 
10 1:1 2:38 3:495 
10 1:3 2:5 3:236 4:3 
10 1:3 2:4 3:26 
10 1:1 2:38 3:495 
10 1:3 2:1673 3:1 
10 1:1 2:59 3:1335 5:18 
10 1:1 2:444 3:592 4:298 5:1 
10 1:1 2:444 3:495 4:427 5:22 
10 1:3 2:1673 3:1 
10 1:1 2:444 3:29 5:12 
10 1:1 2:59 3:1335 
10 1:3 2:232 3:552 5:117 
10 1:3 2:18 3:104 5:10 
10 1:1 2:444 3:114 4:46 
10 1:3 2:108 3:202 4:6 
10 1:3 2:1673 3:1 
2.4482803698898685 1:1 2:444 3:114 4:46 
10 1:2 2:687 3:9 
10 1:3 2:5 3:236 4:3 
10 1:1 2:444 3:173 4:9 5:2 
10 1:3 2:29 3:104 5:1 
10 1:1 2:444 3:25 4:7 
10 1:3 2:1673 3:1 
10 1:3 3:78 5:26 
10 1:1 2:444 3:114 4:4 
10 1:3 3:40 5:1 
10 1:3 3:592 5:5 
5.2592261691571736 1:3 2:2 3:74 4:4 5:12 
10 1:3 2:6 3:41 4:1 
10 1:1 2:59 3:1335 
10 1:3 2:1673 3:1 
10 1:3 2:5 3:236 
10 1:2 2:13 3:2167 4:9 5:3 
10 1:1 2:3347 3:27 4:22 5:1 
10 1:1 2:59 3:1335 5:398 
10 1:1 2:444 3:18 4:6 
10 1:1 2:3347 3:15 4:7 
10 1:1 2:3347 3:9 5:7 
10 1:2 2:1164 3:2 4:2 5:1 
10 1:3 2:3 3:89 4:4 
10 1:1 2:59 3:1335 5:398 
10 1:1 2:444 3:189 4:22 
10 1:3 2:63 3:299 
10 1:3 2:9 3:117 5:16 
10 1:1 2:444 3:39 4:6 
10 1:3 2:9 3:117 4:1 5:16 
10 1:1 2:3347 3:33 4:19 5:1 
10 1:3 2:9 3:52 4:13 5:14 
10 1:3 2:9 3:117 5:16 
10 1:2 2:858 3:41 4:2 
10 1:1 2:1224 3:8 4:4 5:1 
10 1:3 3:10 5:1 
3.1338598104016788 1:3 2:7 3:54 4:13 
10 1:3 2:37 3:202 
10 1:3 3:27 5:3 
10 1:1 2:444 3:22 
1.5700988782715175 1:3 2:6 3:18 5:8 
10 1:1 2:1224 3:133 4:5 
10 1:3 2:3 3:38 
10 1:3 2:2 3:19 5:1 
10 1:1 2:1188 3:3382 4:5 5:184 
1.5487304764420418 1:1 2:485 3:907 4:48 5:3 
10 1:3 2:9 3:117 5:16 
10 1:2 2:1164 3:2 4:2 5:2 
10 1:2 2:1688 3:13 
10 1:3 2:2255 3:14 4:2 5:2 
10 1:2 2:1164 3:2 4:2 5:2 
10 1:3 2:5 3:236 4:21 
10 1:1 2:3347 3:34 4:5 5:1 
10 1:3 2:9 3:117 5:16 
10 1:1 2:1224 3:133 4:38 5:55 
10 1:2 2:1688 3:13 
10 1:1 2:3347 3:34 5:10 
10 1:1 2:444 3:20 4:3 5:10 
10 1:1 2:3347 3:34 4:11 5:12 
10 1:3 2:9 3:52 5:14 
0.94764604983041101 1:3 3:15 5:6 
10 1:3 2:9 3:117 5:16 
10 1:3 2:1673 3:1 
10 1:3 2:2255 3:14 4:3 5:1 
10 1:3 2:18 3:45 
10 1:1 2:444 3:18 4:5 
10 1:3 2:1673 3:1 
10 1:3 2:37 3:202 
10 1:1 2:3347 3:11 4:5 
10 1:3 2:53 3:104 
10 1:3 2:1 3:438 4:8 
10 1:3 2:42 3:907 4:1 5:2 
10 1:1 2:3347 3:1 
10 1:3 3:62 4:4 
10 1:1 2:1224 3:15 4:6 5:1 
10 1:3 2:9 3:117 5:16 
10 1:1 2:1224 3:133 4:38 5:55 
0.96463187336357592 1:3 3:18 5:11 
10 1:1 2:3347 3:11 4:8 
10 1:2 2:858 3:3 
10 1:1 2:1224 3:2 4:1 
10 1:1 2:59 3:1335 5:398 
10 1:1 2:1224 3:20 4:1 5:1 
10 1:2 2:858 3:3 
10 1:1 2:1188 3:3382 4:1 5:1015 
10 1:1 2:444 3:33 4:7 5:1 
10 1:1 2:1188 3:3382 4:1 5:1 
10 1:1 2:59 3:1335 
10 1:2 2:49 3:720 4:688 
10 1:1 2:59 3:1335 5:398 
10 1:1 2:1224 3:133 4:38 5:55 
6.0296228950946302 1:3 2:1 3:71 
10 1:1 2:1188 3:3382 4:1 5:1015 
10 1:1 2:59 3:1335 5:398 
10 1:3 2:5 3:236 4:15 
10 1:2 2:49 3:720 4:688 
10 1:1 2:3347 3:23 4:21 5:3 
10 1:2 2:49 3:720 4:688 
10 1:1 2:59 3:1335 5:398 
10 1:3 2:1673 3:1 
10 1:3 3:432 5:1 
10 1:1 2:1188 3:11 4:1 5:1 
10 1:3 3:23 5:2 
10 1:1 2:3347 3:40 4:1 
6.185917763736394 1:3 2:1 3:11 5:1 
10 1:3 2:2 3:318 
10 1:1 2:1188 3:308 4:1 5:122 
10 1:1 2:1188 3:3382 4:1 5:10 
10 1:1 2:59 3:1335 5:8 
10 1:3 2:5 3:236 4:15 
10 1:3 2:5 3:236 
10 1:3 2:5 3:236 4:3 
10 1:1 2:3347 3:23 4:1 5:1 
10 1:3 2:1673 3:1 
10 1:3 2:5 3:236 
10 1:1 2:3347 3:16 4:8 5:1 
10 1:1 2:3347 3:1 4:1 
10 1:1 2:232 3:26 4:3 
10 1:1 2:1188 3:3382 4:6 5:47 
10 1:1 2:59 3:1335 5:20 
10 1:1 2:1188 3:3382 4:1 
10 1:3 2:5 3:236 
10 1:3 2:17 3:236 5:1 
10 1:1 2:1224 3:6 
10 1:1 2:1224 3:63 4:3 5:3 
10 1:1 2:59 3:1335 
10 1:1 2:444 3:20 4:3 5:10 
10 1:1 2:3347 3:34 4:11 5:12 
10 1:3 2:9 3:52 5:14 
10 1:3 2:246 3:200 
10 1:1 2:3347 3:3 4:2 5:1 
10 1:1 2:59 3:1335 
10 1:1 2:3347 3:27 4:22 5:1 
10 1:1 2:59 3:1335 5:398 
10 1:1 2:1188 3:308 4:1 5:122 
10 1:1 2:1188 3:308 4:1 5:122 
10 1:3 2:225 3:552 
0.07413714220997987 1:3 2:9 3:104 5:5 
10 1:1 2:444 3:3536 4:10 5:2 
10 1:1 2:3347 3:52 4:1 5:2 
10 1:1 2:3347 3:9 5:1 
10 1:1 2:59 3:1335 
10 1:1 2:59 3:1335 5:1 
10 1:3 2:232 3:552 4:1 
10 1:1 2:3347 3:12 4:9 5:2 
10 1:3 3:62 4:4 
10 1:1 2:1224 3:15 4:6 5:2 
10 1:3 3:62 4:4 
10 1:1 2:1224 3:15 4:6 5:2 
10 1:1 2:3347 3:18 4:4 5:1 
10 1:3 2:18 3:45 4:3 
10 1:1 2:3347 3:53 4:5 5:2 
10 1:1 2:1224 3:6 4:2 5:6 
10 1:3 2:25 3:94 4:2 
10 1:1 2:3347 3:12 4:3 5:3 
10 1:3 2:1673 3:1 
10 1:1 2:3347 3:2 5:1 
10 1:1 2:1224 3:110 4:68 
10 1:3 2:9 3:117 5:16 
10 1:1 2:1224 3:12 4:5 5:2 
10 1:3 2:252 3:899 4:1 
10 1:3 2:4 3:91 5:16 
10 1:3 2:9 3:117 5:16 
10 1:1 2:3347 3:2 4:1 
10 1:3 2:232 3:183 
10 1:3 2:211 3:386 
5.213957337451129 1:3 3:13 4:2 
10 1:1 2:1224 3:133 4:4 5:1 
1.3831362538376781 1:3 3:23 5:5 
10 1:3 2:40 3:113 4:1 
10 1:3 2:51 3:438 4:18 
10 1:1 2:59 3:1335 
10 1:3 2:40 3:113 
10 1:3 2:51 3:438 
10 1:1 2:1188 3:3382 4:6 5:3 
10 1:1 2:59 3:1335 
10 1:3 2:51 3:438 4:18 
10 1:1 2:59 3:1335 
10 1:1 2:444 3:24 
10 1:1 2:485 3:1556 4:162 
10 1:3 2:1673 3:1 
10 1:1 2:3347 3:53 4:15 5:1 
10 1:1 2:1224 3:110 4:68 5:1 
10 1:1 2:3347 3:3 4:1 
10 1:3 2:117 3:438 4:11 
10 1:1 2:444 3:31 4:2 
10 1:1 2:3347 3:3 4:1 
10 1:1 2:1188 3:1752 5:6 
10 1:1 2:1224 3:133 4:38 5:55 
10 1:3 2:18 3:45 
10 1:1 2:59 3:1335 
10 1:3 2:5 3:236 
10 1:3 2:29 3:77 4:19 5:36 
10 1:3 2:41 3:552 
10 1:3 2:17 3:907 
10 1:1 2:493 3:4035 5:15 
10 1:1 2:1188 3:3382 4:1 5:1015 
10 1:1 2:59 3:1335 5:398 
10 1:1 2:3347 3:6 4:3 5:1 
9.3838911585079199 1:1 2:1188 3:579 5:160 
10 1:1 2:123 3:1167 
10 1:3 2:29 3:77 4:19 5:36 
10 1:3 2:29 3:77 
10 1:1 2:1188 3:386 4:1 5:5 
10 1:1 2:59 3:1335 
10 1:1 2:59 3:1335 
10 1:1 2:3347 3:27 4:22 
10 1:2 2:222 3:616 4:33 
10 1:2 2:1673 3:12 4:7 5:3 
10 1:1 2:918 3:39 4:2 5:7 
10 1:1 2:59 3:1335 
10 1:1 2:1224 3:110 4:1 5:7 
10 1:1 2:120 3:3382 
10 1:1 2:549 3:386 5:1 
10 1:1 2:918 3:39 4:1 5:7 
10 1:3 2:15 3:59 5:1 
10 1:3 3:14 4:3 
10 1:3 3:14 4:3 
10 1:1 2:20 3:1315 4:2 
10 1:1 2:918 3:4 4:4 5:1 
10 1:3 3:14 4:3 
0.0025222994787738062 1:3 3:200 
10 1:1 2:1188 3:12 5:1 
10 1:3 2:29 3:77 
10 1:1 2:1188 3:3382 4:1 5:53 
10 1:1 2:59 3:1335 
10 1:3 3:14 5:9 
10 1:1 2:1188 3:3382 4:6 5:172 
10 1:1 2:59 3:1335 
10 1:1 2:1224 3:10 4:3 5:9 
10 1:3 2:225 3:552 
10 1:3 2:42 3:200 
10 1:1 2:3347 3:52 4:1 5:5 
10 1:3 3:9 5:1 
10 1:3 2:9 3:117 5:16 
10 1:1 2:3347 3:6 4:2 5:1 
10 1:1 2:59 3:1335 
10 1:3 2:1673 3:1 
10 1:1 2:3347 3:3 4:1 5:2 
10 1:1 2:3347 3:5 4:3 5:1 
10 1:1 2:1188 3:3382 4:1 5:9 
10 1:1 2:59 3:1335 
10 1:1 2:620 3:44 4:29 5:17 
10 1:1 2:3347 3:40 4:7 
10 1:3 2:225 3:552 
10 1:3 2:42 3:200 
10 1:1 2:444 3:3536 5:6 
10 1:1 2:3347 3:52 4:1 5:4 
10 1:1 2:444 3:323 4:85 
10 1:1 2:3347 3:40 4:9 5:1 
10 1:1 2:3347 3:2 4:1 5:1 
10 1:1 2:1188 3:308 4:1 
10 1:3 2:53 3:104 4:52 
10 1:3 3:350 
10 1:1 2:1224 3:13 4:4 5:4 
10 1:1 2:3347 3:23 4:21 
10 1:3 2:1 3:71 
10 1:1 2:59 3:1335 5:398 
10 1:1 2:3347 3:94 
10 1:1 2:3347 3:30 4:22 5:7 
10 1:1 2:1224 3:133 4:38 5:55 
10 1:1 2:1224 3:12 4:5 5:2 
10 1:3 2:252 3:899 4:1 
10 1:3 2:4 3:91 5:16 
10 1:1 2:52 3:3382 
10 1:1 2:1224 3:12 4:5 5:1 
10 1:3 2:5 3:236 
10 1:3 2:9 3:117 5:16 
10 1:3 2:16 3:104 5:6 
10 1:1 2:3347 3:11 4:7 5:4 
10 1:1 2:370 3:82 4:81 5:4 
10 1:1 2:59 3:1335 
10 1:3 2:18 3:104 4:2 5:10 
10 1:1 2:3347 3:12 4:1 5:3 
10 1:1 2:185 3:4035 4:4 5:20 
10 1:1 2:125 3:504 
10 1:3 2:225 3:552 4:2 
10 1:3 2:9 3:104 5:5 
10 1:3 2:42 3:200 
10 1:1 2:3347 3:52 4:2 5:2 
10 1:1 2:59 3:1335 5:20 
10 1:1 2:3347 3:24 4:6 5:1 
10 1:1 2:1188 3:48 5:9 
10 1:1 2:81 3:2974 4:34 
10 1:1 2:549 3:9 
10 1:1 2:123 3:552 4:1 
10 1:1 2:219 3:1315 5:2 
10 1:1 2:1188 3:3382 4:1 5:10 
10 1:1 2:59 3:1335 
10 1:1 2:549 3:9 
10 1:3 2:225 3:552 
10 1:3 2:42 3:200 
10 1:1 2:3347 3:52 4:3 5:2 
10 1:1 2:120 3:3382 
10 1:1 2:549 3:386 
10 1:1 2:1224 3:110 4:68 5:21 
10 1:1 2:1188 3:3382 4:6 5:46 
10 1:1 2:59 3:1335 5:1 
10 1:1 2:125 3:504 
10 1:1 2:62 3:552 5:117 
10 1:1 2:1224 3:11 4:1 5:1 
10 1:1 2:1224 3:10 4:3 5:9 
10 1:1 2:918 3:39 4:1 5:7 
10 1:3 2:225 3:552 4:9 
10 1:3 2:42 3:200 
10 1:1 2:493 3:208 4:141 5:4 
10 1:1 2:123 3:1167 4:8 
10 1:1 2:3347 3:40 4:9 5:1 
10 1:1 2:3347 3:73 4:63 5:4 
10 1:1 2:444 3:592 4:13 
10 1:1 2:123 3:552 4:1 
10 1:1 2:59 3:1335 
10 1:3 2:28 3:170 5:6 
10 1:1 2:1188 3:3382 4:1 5:1015 
10 1:1 2:59 3:1335 5:398 
10 1:1 2:59 3:1335 5:398 
10 1:1 2:108 3:3590 4:1 
10 1:1 2:131 3:3382 
10 1:1 2:52 3:3382 4:2 
10 1:3 2:42 3:113 
10 1:1 2:493 3:2974 5:1 
10 1:1 2:125 3:504 
10 1:1 2:918 3:39 4:1 5:7 
10 1:1 2:123 3:552 4:1 
10 1:1 2:120 3:3382 4:17 
10 1:1 2:3347 3:3 4:2 
10 1:3 2:23 3:170 5:1 
10 1:1 2:1224 3:110 4:68 5:1 
10 1:1 2:3347 3:2 4:1 5:1 
10 1:1 2:1224 3:63 4:14 5:1 
10 1:3 3:42 
10 1:3 3:25 
10 1:3 3:23 5:1 
2.1352474160658428 1:3 3:23 4:1 5:2 
10 1:1 2:125 3:504 
10 1:1 2:1188 3:7 5:1 
10 1:1 2:185 3:4035 5:6 
10 1:3 3:18 5:1 
10 1:1 2:3347 3:4 4:1 5:1 
10 1:3 2:1 3:14 
10 1:2 2:1673 3:88 4:1 5:37 
10 1:1 2:219 3:1315 5:7 
10 1:1 2:1188 3:3382 4:6 5:107 
10 1:1 2:59 3:1335 5:28 
10 1:3 2:5 3:236 
10 1:1 2:120 3:3382 
10 1:1 2:549 3:386 
10 1:3 2:53 3:104 
10 1:3 2:1 3:438 5:3 
10 1:3 2:15 3:59 5:1 
10 1:1 2:444 3:22 
10 1:1 2:59 3:1335 
10 1:3 2:53 3:104 4:52 
10 1:1 2:120 3:3382 
10 1:1 2:549 3:386 
10 1:1 2:1188 3:3382 4:6 5:14 
10 1:1 2:493 3:208 4:141 5:7 
10 1:2 2:222 3:616 4:33 5:30 
10 1:2 2:1673 3:12 4:7 5:3 
10 1:3 2:58 3:504 
10 1:1 2:3347 3:12 4:3 5:3 
10 1:3 2:1673 3:1 
10 1:2 2:1673 3:88 4:1 5:37 
10 1:1 2:3347 3:25 4:13 
10 1:1 2:125 3:504 
10 1:1 2:59 3:1335 
10 1:1 2:1224 3:133 4:38 5:55 
10 1:3 2:23 3:170 5:6 
10 1:2 2:3 3:18 5:3 
10 1:1 2:485 3:1556 4:5 5:7 
10 1:1 2:59 3:1335 5:398 
10 3:592 4:298 
10 1:2 2:1164 3:39 4:1 5:16 
10 1:3 3:616 
10 1:3 2:5 3:592 
1.8549649654543703 1:1 2:1188 3:1752 
10 1:1 2:35 3:552 
10 1:3 2:1673 3:1 
10 1:2 2:1164 3:107 4:54 5:60 
10 1:3 3:40 5:5 
10 1:3 2:5 3:592 5:14 
10 1:1 2:1188 3:1752 
10 1:3 2:53 3:104 5:10 
10 1:1 2:493 3:2974 5:1 
10 1:1 2:125 3:504 
10 1:1 2:1188 3:1752 
10 1:1 2:59 3:1335 5:398 
10 1:1 2:3347 3:25 4:13 
10 1:3 2:2 3:318 
10 1:1 2:1224 3:110 4:68 5:6 
10 1:3 3:884 4:159 
10 1:3 3:495 
10 1:3 3:28 
10 1:1 2:125 3:504 
10 1:3 2:1673 3:1 
10 1:3 3:884 4:127 
10 1:3 3:495 5:2 
10 1:3 3:884 
10 1:2 2:8 3:495 
10 1:3 3:396 4:3 5:1 
10 1:1 2:549 3:23 
10 1:1 2:59 3:1335 5:398 
10 1:1 2:3347 3:2 4:2 
10 1:1 2:1224 3:35 4:2 5:1 
10 1:3 3:101 5:4 
10 1:1 2:59 3:1335 
10 1:3 3:42 
10 1:1 2:918 3:39 4:1 5:6 
10 1:2 2:8 3:495 5:41 
10 1:3 3:23 4:2 
10 1:3 2:23 3:170 4:1 
10 1:3 3:513 5:1 
4.548715669633931 1:3 2:40 3:62 5:10 
10 1:3 3:432 5:8 
10 1:1 2:493 3:208 4:141 
10 1:1 2:1188 3:1752 4:1 5:202 
10 1:1 2:125 3:504 
10 1:1 2:62 3:552 5:117 
10 1:1 2:549 3:1167 
10 1:3 3:396 4:3 
10 1:1 2:123 3:1167 4:2 5:9 
10 1:1 2:35 3:552 
10 1:3 3:884 4:127 
10 1:2 2:8 3:495 5:10 
10 1:1 2:549 3:30 
10 1:3 3:101 
10 1:1 2:549 3:30 
10 1:3 3:101 
10 1:1 2:3347 3:1 4:1 
10 1:3 2:13 3:170 
10 1:1 2:3347 3:1 4:1 
10 1:3 3:884 4:127 
10 1:2 2:8 3:495 5:15 
10 1:3 2:225 3:552 4:1 
10 1:3 2:42 3:200 4:2 
10 1:1 2:444 3:3536 4:12 5:12 
10 1:1 2:49 3:592 4:298 
10 1:3 3:884 4:127 
10 1:2 2:8 3:495 5:13 
10 1:1 2:918 3:1 4:1 
10 1:1 2:125 3:504 
10 1:3 3:62 4:4 
10 1:1 2:123 3:1167 4:2 
10 1:3 3:884 4:127 
10 1:3 3:495 
10 1:3 3:884 4:127 
10 1:2 2:8 3:495 5:10 
10 1:1 2:549 3:30 
10 1:1 2:549 3:1167 4:2 5:3 
6.0037967704077682 1:3 2:1 3:73 5:1 
10 1:1 2:125 3:504 
10 1:3 2:29 3:104 5:3 
10 1:1 2:1224 3:35 4:1 5:6 
10 1:1 2:1188 3:1752 
10 1:1 2:1188 3:1752 
10 3:495 4:427 
10 1:1 2:1188 3:1752 
10 1:1 2:123 3:552 4:1 
10 1:2 2:34 3:495 5:18 
10 1:1 2:59 3:1335 
10 1:1 2:485 3:818 4:142 5:2 
0.053772175125973501 1:1 2:493 3:299 4:12 5:1 
10 1:1 2:59 3:1335 5:398 
10 1:3 2:3 3:10 4:1 5:2 
10 1:1 2:125 3:504 
10 3:592 4:298 
10 1:1 2:123 3:1167 4:8 5:95 
10 1:1 2:549 3:592 4:298 
10 1:1 2:81 3:2974 4:3 
10 1:1 2:549 3:9 
10 1:3 2:36 3:318 
10 1:1 2:444 3:818 4:2 5:8 
10 1:1 2:3347 3:3 4:1 5:1 
10 1:1 2:219 3:1315 
10 1:3 2:5 3:236 4:3 
10 1:3 2:7 3:34 5:1 
10 1:3 2:5 3:236 
10 1:3 2:7 3:34 5:1 
10 1:3 3:9 5:1 
10 1:1 2:81 3:2974 4:139 
10 1:1 2:549 3:9 
10 1:1 2:549 3:6 5:1 
10 3:592 4:298 
10 1:1 2:1224 3:133 4:38 5:55 
10 3:101 5:87 
10 1:1 2:62 3:552 4:1 5:117 
10 1:1 2:125 3:504 
10 1:3 2:25 3:101 
10 1:1 2:59 3:1335 
10 1:3 2:6 3:50 
10 1:1 2:1224 3:11 4:1 5:1 
10 1:1 2:219 3:1315 5:1 
10 1:1 2:70 3:3382 4:6 
10 1:1 2:1188 3:308 4:1 5:122 
10 1:1 2:81 3:2974 
10 1:1 2:108 3:3590 4:1 
10 1:1 2:549 3:9 
10 1:1 2:123 3:1167 4:1 
10 1:1 2:3347 3:3 4:1 5:1 
10 1:2 2:1164 3:18 4:1 5:1 
10 1:1 2:549 3:6 
0.0076346762120380841 1:1 2:549 3:96 5:2 
10 1:1 2:1188 3:3382 4:1 
10 1:1 2:59 3:1335 
10 1:3 2:176 3:117 
10 1:1 2:444 3:70 
10 1:1 2:3347 3:17 4:1 5:1 
10 3:592 4:298 
10 1:3 3:19 5:5 
10 1:3 2:53 3:98 4:1 
10 1:1 2:123 3:1167 4:1 
10 1:3 3:14 5:9 
10 3:3536 4:7 5:8 
10 3:3536 4:12 5:693 
10 1:1 2:1188 3:3382 4:6 5:107 
10 1:1 2:59 3:1335 5:28 
10 1:1 2:125 3:504 
10 1:3 2:225 3:552 
10 1:3 2:42 3:200 
10 1:1 2:444 3:3536 4:27 
10 1:1 2:3347 3:52 4:2 5:1 
10 1:1 2:120 3:3382 
10 1:1 2:549 3:386 
10 1:3 2:37 3:202 4:3 
10 1:3 2:15 3:341 
10 1:1 2:59 3:1335 
10 1:1 2:125 3:504 
10 1:1 2:493 3:2974 4:1 
10 1:1 2:125 3:504 
10 1:1 2:219 3:552 
10 1:1 2:3347 3:34 4:5 5:1 
10 1:1 2:52 3:3382 
10 1:1 2:444 3:20 4:3 
0.17469282869834271 1:3 2:9 3:52 
10 1:1 2:131 3:3382 
10 1:1 2:549 3:9 
10 1:1 2:444 3:3590 4:6 
10 1:1 2:1224 3:133 4:7 5:5 
10 1:1 2:549 3:3 
10 1:1 2:123 3:1167 
10 1:1 2:125 3:3382 4:5 
10 1:1 2:1224 3:133 4:38 5:55 
10 1:1 2:549 3:30 
10 1:3 2:62 3:117 
10 1:1 2:485 3:495 4:427 
10 1:1 2:120 3:3382 
10 1:1 2:549 3:386 4:1 
10 1:1 2:493 3:4 
10 1:3 2:225 3:552 
10 1:3 2:42 3:200 
10 1:1 2:1188 3:3382 4:6 5:2 
10 1:1 2:59 3:1335 
10 1:3 2:2 3:9 5:2 
10 1:1 2:444 3:341 4:1 
10 1:3 3:9 5:1 
10 1:1 2:493 3:2974 4:19 
10 1:1 2:131 3:3382 
10 1:1 2:549 3:9 
10 3:3382 4:7 5:32 
10 1:1 2:108 3:3590 4:3 5:1 
10 1:1 2:131 3:3382 5:1 
10 1:1 2:549 3:9 4:2 
10 1:1 2:125 3:504 
10 1:1 2:81 3:2974 4:139 
10 1:1 2:549 3:9 
10 1:1 2:1224 3:1 4:1 5:1 
10 1:3 2:2 3:74 5:8 
10 1:1 2:123 3:1167 4:4 5:8 
10 1:1 2:123 3:1167 5:2 
10 1:1 2:120 3:3382 
10 1:1 2:1188 3:3382 4:1 5:10 
10 1:1 2:59 3:1335 
10 1:1 2:70 3:3382 4:6 
10 1:1 2:81 3:2974 4:139 
10 1:1 2:549 3:9 
10 1:1 2:81 3:2974 4:375 
10 1:1 2:108 3:3590 4:1 
10 1:1 2:131 3:3382 5:11 
10 1:3 3:366 
10 1:3 2:5 3:236 
10 1:1 2:125 3:504 
10 1:1 2:549 3:1167 
10 1:1 2:123 3:552 4:1 
10 1:1 2:123 3:1167 4:2 
10 3:3382 4:14 5:1015 
10 1:3 2:5 3:236 4:3 
10 1:1 2:549 3:9 
10 1:1 2:493 3:208 4:141 
10 1:1 2:120 3:3382 4:17 
10 1:1 2:444 3:391 
10 1:1 2:3347 3:3 5:1 
10 1:3 2:1 3:907 5:2 
10 1:1 2:3347 3:22 4:9 5:1 
10 3:3382 4:19 5:21 
10 1:1 2:3347 3:5 4:1 5:1 
10 1:1 2:549 3:1167 
10 1:3 2:42 3:113 
10 1:1 3:184 4:76 5:95 
10 1:3 2:5 3:23 5:2 
10 1:1 2:185 3:4035 4:21 
10 1:1 2:1224 3:133 4:38 5:55 
10 1:1 2:125 3:504 
10 1:1 2:62 3:552 5:117 
10 1:3 3:21 5:2 
10 1:1 2:125 3:504 
10 1:1 2:125 3:504 
10 1:1 2:62 3:552 5:117 
10 1:1 2:34 3:513 5:1 
10 1:1 2:81 3:2974 
10 1:1 2:108 3:3590 4:1 
10 1:1 2:549 3:9 
10 1:1 2:1188 3:3382 4:1 5:41 
10 1:1 2:59 3:1335 5:25 
10 1:1 2:1224 3:133 4:38 5:55 
10 1:3 2:1673 3:6 5:1 
10 1:1 2:3347 3:11 4:5 5:1 
10 1:3 3:9 5:1 
10 1:1 2:1188 3:579 4:1 5:48 
10 1:2 2:1673 3:88 4:1 5:37 
10 1:1 2:123 3:552 4:1 
10 1:1 2:120 3:3382 4:17 
10 1:1 2:120 3:3382 
4.3618988029383496 1:1 2:549 3:386 
10 1:1 2:549 3:24 5:21 
10 1:1 2:81 3:2974 4:139 
10 1:1 2:549 3:9 
10 1:1 2:1188 3:1752 4:125 5:202 
10 1:1 2:131 3:3382 4:34 5:2 
10 1:1 2:549 3:9 
10 1:1 2:549 3:189 
10 1:3 3:90 
10 1:1 2:3347 3:3 4:1 5:1 
10 1:3 3:73 5:5 
8.2591734131275878 1:3 2:7 3:233 4:3 
10 1:1 2:123 3:1167 
10 1:1 2:131 3:1172 4:202 5:1 
10 1:1 2:185 3:4035 4:38 5:1 
10 1:1 2:123 3:1167 4:1 
10 1:1 2:1188 3:3382 4:1 5:19 
10 1:1 2:59 3:1335 
10 1:1 2:3347 3:8 4:1 5:1 
10 1:1 2:1188 3:308 5:122 
6.4275257962134908 1:1 2:549 3:495 4:427 
10 1:1 2:1224 3:110 4:68 5:3 
10 1:2 2:3 3:18 5:2 
10 3:592 4:298 5:1 
4.4301126011838754 1:3 2:17 3:107 
10 1:1 2:3347 3:2 4:1 
10 1:1 2:125 3:504 
10 1:3 3:62 4:4 
10 1:1 2:123 3:1167 4:1 5:2 
10 1:1 2:125 3:3382 
10 1:3 2:5 3:236 4:15 
10 1:1 2:549 3:69 5:1 
10 1:1 2:370 3:82 4:81 5:1 
10 1:1 2:70 3:3382 4:1 
10 1:3 3:62 4:4 
10 3:592 4:298 
10 1:1 2:125 3:504 
10 1:2 2:85 3:102 4:40 5:47 
10 1:1 2:125 3:504 
4.4276140778520503 1:3 2:4 3:18 
10 1:1 2:549 3:9 
10 1:3 2:16 3:104 
10 1:2 2:1688 3:13 
10 1:3 2:4 3:42 
10 1:2 2:1688 3:13 
10 1:3 2:4 3:42 
10 1:2 2:1688 3:13 
10 1:2 2:261 3:323 5:1 
10 1:1 2:444 3:438 4:22 
10 1:1 2:3347 3:2 4:1 5:1 
10 1:3 2:184 3:196 
10 1:3 2:9 3:63 5:5 
10 1:1 2:120 3:3382 4:1 5:2 
10 1:1 2:43 3:42 4:30 5:32 
10 1:1 2:549 3:1167 
10 1:3 3:62 4:4 
10 1:1 2:549 3:1167 
10 1:1 2:1224 3:15 4:4 5:3 
10 1:1 2:1224 3:5 4:1 5:1 
10 1:3 3:11 4:1 
10 1:3 2:5 3:236 
10 1:1 2:81 3:2974 
10 1:1 2:131 3:3382 
10 1:1 2:549 3:9 
10 1:3 2:5 3:236 4:42 
10 1:3 2:1 3:20 5:2 
10 1:1 2:493 3:208 5:3 
10 1:1 2:125 3:504 
10 1:1 2:81 3:2974 4:139 
10 1:1 2:549 3:9 
10 1:2 2:1983 3:3 4:1 
10 1:1 2:1224 3:6 4:1 5:2 
10 1:1 2:219 3:1315 
10 1:1 2:123 3:1167 
10 1:1 2:70 3:3382 4:3 5:1015 
10 1:3 2:2 3:41 5:2 
10 1:1 2:125 3:504 
10 1:3 3:10 5:1 
10 1:3 2:1673 3:3 5:1 
10 1:1 2:125 3:504 
10 1:1 2:81 3:2974 
10 1:1 2:549 3:9 
10 1:1 2:549 3:30 
10 1:1 2:43 3:2167 5:1 
10 1:3 3:62 4:2 
10 1:3 2:53 3:104 4:52 
10 1:3 3:10 4:1 
10 1:3 3:14 4:3 
10 1:1 2:1188 3:308 4:1 5:122 
10 1:1 2:125 3:504 
10 1:1 2:125 3:504 
10 1:1 2:1188 3:3382 4:3 
10 1:1 2:59 3:1335 
10 1:3 2:21 3:50 
10 1:1 2:1188 3:3382 4:6 
10 1:1 2:59 3:1335 
10 1:1 2:1 3:899 
10 3:592 4:298 
10 1:1 2:49 3:592 4:298 
0.076110444824960363 1:1 2:32 3:1335 
10 1:1 2:549 3:9 4:1 5:1 
10 1:1 2:125 3:3382 
10 1:1 2:123 3:1167 4:4 
10 1:3 2:40 3:341 5:8 
10 1:3 2:27 3:117 
10 1:1 2:1421 3:6 
10 1:1 2:549 3:1167 5:1 
10 3:592 4:298 
10 1:1 2:549 3:592 4:298 5:20 
10 1:1 2:62 3:552 4:1 5:117 
10 1:3 2:5 3:236 4:10 
10 1:1 2:59 3:1335 
10 1:1 2:549 3:116 4:107 5:33 
10 1:3 3:10 5:1 
10 1:1 2:125 3:504 
10 1:3 3:105 
10 1:3 3:25 
10 1:1 2:493 3:208 4:141 5:4 
3.1397119722407414 1:1 2:123 3:504 4:25 
10 1:1 2:125 3:3382 5:1 
10 1:1 2:3347 3:7 4:1 5:1 
10 1:1 2:493 3:2974 5:1 
10 1:1 2:125 3:504 
10 1:1 2:125 3:504 
10 1:1 2:62 3:552 5:117 
10 1:1 2:549 3:9 
10 1:1 2:549 3:513 5:20 
10 1:1 2:1224 3:8 4:1 5:3 
10 1:3 3:10 5:1 
10 1:1 2:549 3:513 4:156 5:36 
10 3:592 4:298 5:1 
10 1:1 2:32 3:1335 
10 1:1 2:32 3:1335 
10 1:1 2:131 3:3382 
10 1:1 2:549 3:9 
10 1:1 2:1224 3:8 4:2 
10 1:1 2:549 3:9 
10 1:3 2:56 3:117 
10 1:1 2:549 3:592 4:298 5:1 
10 1:1 2:1188 3:308 4:1 5:122 
10 1:1 2:123 3:1167 4:8 5:13 
10 1:1 2:1188 3:308 4:1 5:122 
10 1:1 2:123 3:1167 4:1 
10 1:3 2:1673 3:1 
10 1:3 2:3 3:543 
10 1:3 2:14 3:70 5:15 
10 1:3 2:1673 3:1 
10 1:1 2:3347 3:11 5:10 
10 1:1 2:67 3:3590 5:2 
10 3:3382 4:33 
10 3:3382 5:9 
10 3:3382 
10 1:1 2:81 3:2974 4:139 
10 1:1 2:549 3:9 
10 1:1 2:3347 3:23 4:1 5:1 
10 1:1 2:3347 3:23 4:1 5:1 
10 1:1 2:59 3:1335 
10 1:1 2:1188 3:11 5:3 
10 1:1 2:3347 3:11 4:2 
10 1:1 2:125 3:504 
10 1:1 2:125 3:504 
10 1:3 2:53 3:104 4:52 
10 1:1 2:444 3:497 4:2 
10 1:1 2:3347 3:4 4:1 5:1 
10 1:1 2:444 3:1556 4:104 5:7 
10 1:1 2:3347 3:3 4:1 5:1 
10 1:1 2:52 3:3382 
10 1:1 2:549 3:52 4:25 
10 1:1 2:1224 3:110 4:68 5:7 
10 1:1 2:123 3:1167 4:8 5:26 
10 1:1 2:123 3:1167 4:2 5:139 
10 1:1 2:549 3:1167 4:4 
10 1:1 2:120 3:3382 
10 1:3 2:19 3:573 4:39 
10 1:3 2:19 3:45 4:3 
10 1:1 2:444 3:5 
10 1:3 2:1673 3:1 
10 1:3 2:3 3:543 
10 1:2 2:3 3:22 5:5 
7.2456046884121772 1:3 2:7 3:2167 5:312 
10 1:1 2:70 3:3382 4:3 
10 1:1 2:32 3:1335 
10 1:1 2:493 3:372 4:1 
10 1:3 3:101 
10 1:1 2:32 3:1335 
10 1:1 2:1188 3:3382 4:4 
10 1:1 2:59 3:1335 
10 1:1 2:67 3:3590 5:2 
10 1:1 2:59 3:1335 
10 1:3 3:513 4:1 5:1 
10 1:1 2:125 3:504 
10 1:1 2:549 3:3 
10 1:1 2:549 3:9 
10 1:1 2:81 3:2974 
10 1:1 2:131 3:3382 
10 1:1 2:549 3:9 
10 1:1 2:35 3:552 
10 1:1 2:123 3:1167 4:1 5:139 
10 1:1 2:1188 3:3382 4:4 5:107 
1.712372497757201 1:1 2:219 3:29 4:19 5:12 
10 1:1 2:493 3:372 4:128 5:3 
10 1:1 2:70 3:3382 4:3 5:1015 
10 1:1 2:123 3:1167 4:8 5:2 
10 1:1 2:120 3:3382 
10 1:1 2:125 3:504 
10 1:1 2:62 3:552 5:117 
10 1:1 2:493 3:396 4:172 
10 1:1 2:549 3:9 
10 1:1 2:59 3:1335 
10 1:1 2:123 3:504 4:1 
10 3:3382 4:1 5:41 
10 1:1 2:81 3:2974 4:139 
10 1:1 2:549 3:9 
10 1:3 3:32 5:3 
10 1:3 2:11 3:94 
10 1:1 2:125 3:504 
10 1:1 2:1188 3:3382 4:1 5:1 
10 1:1 2:59 3:1335 
10 1:3 2:16 3:104 5:6 
10 1:1 2:3347 3:11 4:1 5:4 
10 1:3 3:11 4:3 
10 1:3 2:38 3:170 4:11 
10 1:1 2:549 3:1167 
10 1:1 2:549 3:592 4:298 5:7 
10 1:1 2:125 3:504 
10 1:1 2:125 3:504 
10 1:1 2:125 3:504 
10 1:1 2:123 3:1167 5:13 
10 1:1 2:123 3:1167 5:139 
10 1:1 2:549 3:52 
10 1:1 2:549 3:3 
10 1:3 2:5 3:236 4:3 
10 1:1 2:221 3:12 4:5 
10 1:3 2:225 3:552 
10 1:3 2:42 3:200 
10 1:1 2:3347 3:52 4:3 
10 1:1 2:32 3:1335 
10 1:1 2:493 3:2974 4:2 
10 1:1 2:125 3:504 
10 1:1 2:123 3:552 4:1 
10 1:1 2:120 3:3382 4:11 
10 1:1 2:123 3:552 4:2 
10 1:1 2:120 3:3382 4:31 
10 1:3 2:17 3:62 5:10 
0.39673449181087345 1:3 2:5 3:104 
10 1:1 2:81 3:2974 4:5 
10 1:1 2:131 3:3382 
10 1:1 2:549 3:9 
10 1:3 2:225 3:552 
10 1:3 2:42 3:200 
10 1:1 2:3347 3:52 4:1 5:4 
10 1:1 2:444 3:323 4:119 
10 1:1 2:3347 3:40 4:14 5:5 
10 1:1 2:3347 3:12 4:7 5:1 
10 1:3 2:1673 3:1 
10 1:1 2:3347 3:11 5:10 
10 1:1 2:32 3:1335 
10 1:3 2:42 3:113 
10 1:1 2:32 3:1335 4:4 
10 1:3 2:5 3:323 5:9 
10 1:3 2:5 3:323 4:62 
10 1:3 2:42 3:113 
10 1:1 3:184 4:76 5:95 
10 1:1 2:131 3:1172 4:202 
10 1:3 3:432 
10 3:495 4:427 
10 1:1 2:59 3:1335 5:11 
10 1:3 2:5 3:236 
10 1:3 2:53 3:104 4:52 
